c,9,g,1,b,0,bi_or_multi,0
svm_type c_svc
kernel_type rbf
gamma 2
nr_class 2
total_sv 509
rho -42.4381
label 1 -1
nr_sv 253 256
SV
512 1:0.05819531 2:0.02909766 3:0.04476563 4:0.07386328 5:0.05371875 6:0.04476563 7:0.02909766 8:0.04476563 9:0.03805078 10:0.03133594 11:0.03805078 12:0.04028906 13:0.05371875 14:0.06714844 15:0.03805078 16:0.07833984 17:0.09158589 18:0.07058658 19:0.07457362 
512 1:0.07062512 2:0.04119798 3:0.06032562 4:0.0676824 5:0.04561205 6:0.03310552 7:0.02574874 8:0.03457688 9:0.06694672 10:0.02648442 11:0.04634773 12:0.04119798 13:0.05591155 14:0.03825527 15:0.04929045 16:0.06400401 17:0.09179451 18:0.07194635 19:0.06894669 
512 1:0.08700737 2:0.05486952 3:0.06427572 4:0.04781486 5:0.05565337 6:0.03292171 7:0.02273166 8:0.05330181 9:0.07603347 10:0.02978631 11:0.03762481 12:0.03448941 13:0.03527326 14:0.04703101 15:0.05330181 16:0.05330181 17:0.08210326 18:0.07156149 19:0.06091733 
512 1:0.06221173 2:0.03646895 3:0.04290464 4:0.04934034 5:0.03861418 6:0.03003325 7:0.01930709 8:0.06435697 9:0.03646895 10:0.03217848 11:0.02359755 12:0.05148557 13:0.05363081 14:0.05363081 15:0.05792127 16:0.12442347 17:0.08698911 18:0.06527191 19:0.07116491 
512 1:0.07229872 2:0.05316082 3:0.06166655 4:0.04040222 5:0.05954012 6:0.03827579 7:0.02339076 8:0.04252866 9:0.05316082 10:0.02764363 11:0.04890796 12:0.05316082 13:0.04040222 14:0.04465509 15:0.05103439 16:0.07017228 17:0.08541599 18:0.06762589 19:0.06655726 
512 1:0.08677578 2:0.0378658 3:0.03628805 4:0.06310966 5:0.03313257 6:0.02366612 7:0.02524386 8:0.05048773 9:0.0457545 10:0.0378658 11:0.03471031 12:0.04733224 13:0.05679869 14:0.03313257 15:0.07099837 16:0.07888707 17:0.09564448 18:0.06920764 19:0.07309876 
512 1:0.0698555 2:0.03742259 3:0.0449071 4:0.05239162 5:0.05488646 6:0.03243291 7:0.02245355 8:0.05488646 9:0.03742259 10:0.04989678 11:0.02993807 12:0.04989678 13:0.04241226 14:0.0449071 15:0.0698555 16:0.07484517 17:0.09191675 18:0.07768373 19:0.06198907 
512 1:0.05684979 2:0.0470481 3:0.0313654 4:0.06861182 5:0.04900844 6:0.04116709 7:0.03724641 8:0.05684979 9:0.03724641 10:0.0313654 11:0.01960338 12:0.04116709 13:0.06077047 14:0.06469114 15:0.04116709 16:0.07645317 17:0.09757133 18:0.06943171 19:0.07238599 
512 1:0.06614753 2:0.04538028 3:0.03192003 4:0.05884053 5:0.04576486 6:0.03538124 7:0.03499666 8:0.05461017 9:0.04230365 10:0.03768871 11:0.03807329 12:0.04307281 13:0.04807233 14:0.0523027 15:0.05614848 16:0.0738391 17:0.09305333 18:0.07369747 19:0.06870682 
512 1:0.06527465 2:0.05711532 3:0.05711532 4:0.06731448 5:0.06119499 6:0.02039833 7:0.02447799 8:0.03059749 9:0.06323482 10:0.03263733 11:0.02651783 12:0.04487632 13:0.05711532 14:0.02651783 15:0.05915515 16:0.06119499 17:0.10198087 18:0.06696877 19:0.0763122 
512 1:0.09068652 2:0.04279588 3:0.04585273 4:0.05400433 5:0.04483378 6:0.03464429 7:0.03872009 8:0.03770114 9:0.05298538 10:0.04279588 11:0.04381483 12:0.04483378 13:0.04483378 14:0.03566324 15:0.05604223 16:0.05808013 17:0.09205559 18:0.07335925 19:0.06629715 
512 1:0.09159315 2:0.04884968 3:0.04121692 4:0.0610621 5:0.04579658 6:0.03663726 7:0.02595139 8:0.05190279 9:0.04579658 10:0.03663726 11:0.04121692 12:0.03358416 13:0.058009 14:0.03816381 15:0.05037623 16:0.05648244 17:0.09332369 18:0.07539712 19:0.06800293 
512 1:0.0759835 2:0.05227665 3:0.0455901 4:0.06139467 5:0.05957106 6:0.03829568 7:0.0303934 8:0.04315863 9:0.0607868 10:0.03343274 11:0.02978553 12:0.04255076 13:0.03890355 14:0.0474137 15:0.0607868 16:0.04862944 17:0.09152102 18:0.07482471 19:0.06470127 
482.6398117890553 1:0.06154002 2:0.0497054 3:0.02603616 4:0.0591731 5:0.06864079 6:0.06864079 7:0.01893539 8:0.06390694 9:0.01893539 10:0.02603616 11:0.01893539 12:0.03313693 13:0.04733848 14:0.07574156 15:0.03313693 16:0.1088785 17:0.0863548 18:0.0680058 19:0.06692145 
512 1:0.06525991 2:0.05159611 3:0.0613851 4:0.0493528 5:0.05404336 6:0.02977483 7:0.03018271 8:0.04670162 9:0.06097722 10:0.04507012 11:0.04649768 12:0.04099138 13:0.04710949 14:0.03426145 15:0.05567486 16:0.05016855 17:0.09288439 18:0.0742624 19:0.06380601 
512 1:0.07972729 2:0.04991621 3:0.04922293 4:0.04922293 5:0.04852965 6:0.04159685 7:0.02426483 8:0.04783637 9:0.05338262 10:0.04021028 11:0.04783637 12:0.03743716 13:0.04575653 14:0.03050435 15:0.05823558 16:0.06655495 17:0.08847725 18:0.07494874 19:0.06633908 
512 1:0.07768414 2:0.04742346 3:0.03206729 4:0.06639284 5:0.06729614 6:0.04787511 7:0.02122764 8:0.06413458 9:0.03613216 10:0.03568051 11:0.01942103 12:0.02574416 13:0.04200363 14:0.0695544 15:0.04471354 16:0.07632918 17:0.08816289 18:0.07372609 19:0.06443121 
512 1:0.07780775 2:0.0447984 3:0.02593592 4:0.087239 5:0.04715621 6:0.03536716 7:0.02357811 8:0.03772497 9:0.02829373 10:0.02357811 11:0.02829373 12:0.02357811 13:0.08252337 14:0.04008278 15:0.02593592 16:0.12260616 17:0.10020973 18:0.0748579 19:0.07043294 
512 1:0.07676024 2:0.04083796 3:0.0491568 4:0.05520687 5:0.05445061 6:0.0374348 7:0.02495653 8:0.04726616 9:0.04991306 10:0.03630041 11:0.04802242 12:0.04802242 13:0.04083796 14:0.04953493 15:0.06012255 16:0.05520687 17:0.08873241 18:0.07144866 19:0.06578832 
512 1:0.09507562 2:0.05607024 3:0.02925404 4:0.05850808 5:0.0536324 6:0.01950269 7:0.03656755 8:0.04144322 9:0.0536324 10:0.03656755 11:0.03900538 12:0.04388106 13:0.03656755 14:0.03900538 15:0.06825942 16:0.06582158 17:0.09363715 18:0.06536378 19:0.06820491 
512 1:0.07859714 2:0.02281852 3:0.04563705 4:0.07859714 5:0.06338479 6:0.01521235 7:0.01014157 8:0.0608494 9:0.04056627 10:0.02788931 11:0.01267696 12:0.0304247 13:0.04056627 14:0.08366792 15:0.04563705 16:0.12423419 17:0.08255099 18:0.06646482 19:0.07008356 
512 1:0.10720873 2:0.04666733 3:0.0605414 4:0.05675757 5:0.05801884 6:0.03405454 7:0.02900942 8:0.02396431 9:0.05928012 10:0.04036094 11:0.03909966 12:0.04288349 13:0.04540605 14:0.02396431 15:0.05297373 16:0.04792861 17:0.09372093 18:0.07026812 19:0.0678919 
512 1:0.07451764 2:0.03612977 3:0.06096898 4:0.07000142 5:0.05871087 6:0.02935544 7:0.0225811 8:0.03612977 9:0.06322709 10:0.03387166 11:0.03838788 12:0.04516221 13:0.04516221 14:0.04742032 15:0.05871087 16:0.04967843 17:0.09275739 18:0.0759575 19:0.06126945 
512 1:0.06736077 2:0.03938893 3:0.04509747 4:0.07078589 5:0.04909344 6:0.0359638 7:0.02283416 8:0.03881807 9:0.05936881 10:0.03368039 11:0.04167234 12:0.03710551 13:0.04681003 14:0.03767636 15:0.06222308 16:0.07649443 17:0.09199139 18:0.07279374 19:0.07084138 
512 1:0.09710529 2:0.05086468 3:0.05086468 4:0.05394739 5:0.05086468 6:0.04238723 7:0.01849625 8:0.05317671 9:0.06704889 10:0.03082708 11:0.0300564 12:0.03082708 13:0.03776317 14:0.04084588 15:0.05934212 16:0.07167295 17:0.08222037 18:0.07028936 19:0.0613998 
512 1:0.06879823 2:0.03967505 3:0.0557139 4:0.05318145 5:0.0489607 6:0.03840883 7:0.0253245 8:0.05149315 9:0.0523373 10:0.03503223 11:0.0371426 12:0.04980485 13:0.0472724 14:0.05107108 15:0.05613598 16:0.06162295 17:0.0899074 18:0.07185108 19:0.06626631 
512 1:0.0748602 2:0.05071175 3:0.05433402 4:0.06701196 5:0.05373031 6:0.02716701 7:0.02777072 8:0.04407093 9:0.06520082 10:0.03320412 11:0.0319967 12:0.03380783 13:0.0531266 14:0.04165608 15:0.05010804 16:0.0531266 17:0.09413801 18:0.07269866 19:0.07127965 
512 1:0.07747903 2:0.05469108 3:0.04101831 4:0.06000827 5:0.05772947 6:0.02734554 7:0.02582634 8:0.04861429 9:0.05469108 10:0.03418192 11:0.03494152 12:0.03873951 13:0.0432971 14:0.0432971 15:0.06076786 16:0.06304666 17:0.09228407 18:0.07543509 19:0.06660575 
512 1:0.0599267 2:0.03210359 3:0.04066454 4:0.06206693 5:0.04494502 6:0.03638406 7:0.03210359 8:0.0599267 9:0.04280478 10:0.05350598 11:0.04494502 12:0.02568287 13:0.04494502 14:0.05136574 15:0.05136574 16:0.09203028 17:0.08891161 18:0.07158026 19:0.06474157 
512 1:0.06587041 2:0.05123254 3:0.02561627 4:0.07135961 5:0.05306227 6:0.02561627 7:0.02378654 8:0.04391361 9:0.0329352 10:0.02378654 11:0.01829734 12:0.05123254 13:0.06221094 14:0.04574334 15:0.05855147 16:0.09514615 17:0.10055358 18:0.08006997 19:0.07101541 
512 1:0.08488352 2:0.05093011 3:0.04464244 4:0.06350545 5:0.05533148 6:0.04275614 7:0.02640821 8:0.05407394 9:0.04967258 10:0.03332464 11:0.03143834 12:0.03018081 13:0.05407394 14:0.05155888 15:0.04212738 16:0.05218764 17:0.09259004 18:0.07329927 19:0.06701519 
512 1:0.06287489 2:0.02901918 3:0.04352877 4:0.07980275 5:0.04352877 6:0.03385571 7:0.02176439 8:0.03869224 9:0.06045663 10:0.02418265 11:0.01934612 12:0.03143745 13:0.04594704 14:0.05078357 15:0.05320183 16:0.14267764 17:0.08520797 18:0.06125929 19:0.07243312 
512 1:0.08512188 2:0.03975606 3:0.04560972 4:0.0663414 5:0.04536581 6:0.03219509 7:0.0219512 8:0.03878045 9:0.06048775 10:0.01999998 11:0.03365851 12:0.04780484 13:0.04560972 14:0.04634142 15:0.06097556 16:0.08219505 17:0.08840483 18:0.07344236 19:0.06595837 
512 1:0.08576403 2:0.04062507 3:0.04363433 4:0.07673624 5:0.0466436 6:0.02407411 7:0.04062507 8:0.03611117 9:0.07222234 10:0.02858801 11:0.03159728 12:0.03912044 13:0.0421297 14:0.05416676 15:0.05567139 16:0.05266213 17:0.09179617 18:0.07212539 19:0.06570676 
512 1:0.09012321 2:0.04640007 3:0.0401539 4:0.07406165 5:0.04907699 6:0.03480005 7:0.02320003 8:0.03212312 9:0.05800008 10:0.01873849 11:0.04640007 12:0.03747698 13:0.05353854 14:0.0392616 15:0.05086161 16:0.07049241 17:0.09143428 18:0.07447035 19:0.06938658 
512 1:0.07627591 2:0.04125126 3:0.05422335 4:0.06667656 5:0.04903451 6:0.03372744 7:0.02594419 8:0.03761907 9:0.06252549 10:0.02827916 11:0.03398688 12:0.044624 13:0.05059116 14:0.04306735 15:0.05526112 16:0.0638227 17:0.09230868 18:0.07361929 19:0.0671619 
512 1:0.0455293 2:0.02621384 3:0.01931546 4:0.05932606 5:0.0400106 6:0.03449189 7:0.02759352 8:0.0855399 9:0.01517643 10:0.03173254 11:0.01517643 12:0.04276995 13:0.04828865 14:0.09519763 15:0.04414963 16:0.14900498 17:0.08419935 18:0.07230357 19:0.06398026 
512 1:0.04766102 2:0.02780226 3:0.03309793 4:0.08340679 5:0.04236535 6:0.0383936 7:0.03177401 8:0.04368927 9:0.0463371 10:0.04104143 11:0.02912618 12:0.04501319 13:0.05428061 14:0.04898494 15:0.0688437 16:0.07016761 17:0.1007219 18:0.0679044 19:0.0793887 
512 1:0.08864282 2:0.04678371 3:0.05745368 4:0.06155751 5:0.05334985 6:0.02790607 7:0.02051917 8:0.03447221 9:0.06484058 10:0.02380224 11:0.04185911 12:0.04432141 13:0.04678371 14:0.03775528 15:0.05581215 16:0.06566135 17:0.08932748 18:0.07263088 19:0.0665208 
512 1:0.12659996 2:0.04557599 3:0.07089598 4:0.04195884 5:0.04195884 6:0.03761827 7:0.0383417 8:0.03472456 9:0.07451312 10:0.04195884 11:0.03978856 12:0.03472456 13:0.04123542 14:0.02749028 15:0.04268227 16:0.04268227 17:0.0833514 18:0.07064417 19:0.06325496 
512 1:0.1032045 2:0.05202178 3:0.04111399 4:0.068803 5:0.05705615 6:0.04363117 7:0.02601089 8:0.04279211 9:0.04698742 10:0.03188432 11:0.03188432 12:0.03104526 13:0.05705615 14:0.04195305 15:0.04363117 16:0.04027493 17:0.09448636 18:0.0751135 19:0.07104995 
512 1:0.05719976 2:0.03660785 3:0.0480478 4:0.04575981 5:0.05491177 6:0.04118383 7:0.01830392 8:0.05719976 9:0.04118383 10:0.02974388 11:0.04575981 12:0.06177574 13:0.03431986 14:0.06406373 15:0.06635172 16:0.08465565 17:0.08294779 18:0.06870851 19:0.06127497 
512 1:0.07026913 2:0.05158053 3:0.04261 4:0.05718711 5:0.05307562 6:0.04186246 7:0.02878044 8:0.04298377 9:0.05382316 10:0.03363947 11:0.04746904 12:0.04074114 13:0.04447886 14:0.03961983 15:0.05681334 16:0.06354123 17:0.09147555 18:0.07222415 19:0.06782518 
512 1:0.11441108 2:0.033119 3:0.0672416 4:0.06121996 5:0.04215145 6:0.02810097 7:0.01405048 8:0.03612981 9:0.0672416 10:0.03010818 11:0.0341226 12:0.04215145 13:0.05218751 14:0.02910457 15:0.05820914 16:0.06523439 17:0.08696003 18:0.07451981 19:0.06373638 
512 1:0.09006169 2:0.04696468 3:0.04585963 4:0.06851319 5:0.05193741 6:0.02983639 7:0.0215485 8:0.04696468 9:0.05414752 10:0.02320608 11:0.02596871 12:0.03536164 13:0.05470004 14:0.05027984 15:0.04585963 16:0.07624855 17:0.09102903 18:0.07240568 19:0.0691071 
512 1:0.1070711 2:0.05137492 3:0.04561325 4:0.07346133 5:0.0547359 6:0.02976865 7:0.020646 8:0.03505018 9:0.05857701 10:0.02400697 11:0.03024878 12:0.03072892 13:0.05713659 14:0.03505018 15:0.04705367 16:0.06241813 17:0.09387753 18:0.07327385 19:0.06990705 
512 1:0.08477516 2:0.03841375 3:0.0443745 4:0.06821751 5:0.0549714 6:0.04569911 7:0.02318071 8:0.03907605 9:0.04768603 10:0.0337776 11:0.03907605 12:0.0337776 13:0.04768603 14:0.04503681 15:0.04834834 16:0.07484057 17:0.08913046 18:0.07316832 19:0.06876398 
512 1:0.08710168 2:0.05006311 3:0.04314382 4:0.06512275 5:0.06430872 6:0.04314382 7:0.02442103 8:0.0496561 9:0.04517891 10:0.03256138 11:0.02442103 12:0.03093331 13:0.04843505 14:0.05576136 15:0.04110874 16:0.0639017 17:0.09091632 18:0.07440972 19:0.06541146 
512 1:0.07310204 2:0.0343132 3:0.06116702 4:0.07011829 5:0.03878884 6:0.01491878 7:0.03282133 8:0.02834569 9:0.07906956 10:0.02237818 11:0.04774011 12:0.05072387 13:0.04774011 14:0.04326448 15:0.05818326 16:0.07011829 17:0.08966311 18:0.07340058 19:0.06414326 
512 1:0.09947472 2:0.05250055 3:0.06539542 4:0.05986905 5:0.04973736 6:0.03500037 7:0.02302656 8:0.03868461 9:0.07829029 10:0.02394762 11:0.03039505 12:0.03592143 13:0.04973736 14:0.03500037 15:0.04973736 16:0.04697418 17:0.08778831 18:0.07307775 19:0.06544164 
512 1:0.07781086 2:0.04863179 3:0.04446335 4:0.06530555 5:0.06113711 6:0.03334751 7:0.02640011 8:0.04585283 9:0.05835815 10:0.02917907 11:0.03195803 12:0.04585283 13:0.03751595 14:0.05557919 15:0.06391607 16:0.04724231 17:0.09162797 18:0.07240267 19:0.06341866 
512 1:0.06748568 2:0.04112408 3:0.04586917 4:0.05852274 5:0.04745087 6:0.02952498 7:0.02161651 8:0.04165132 9:0.05694104 10:0.02636159 11:0.036379 12:0.05746827 13:0.04112408 14:0.04323301 15:0.07328523 16:0.0843571 17:0.09008622 18:0.07558463 19:0.06193448 
512 1:0.10775992 2:0.02731942 3:0.06222756 4:0.07285178 5:0.03642589 6:0.02124843 7:0.02580167 8:0.02276618 9:0.08347599 10:0.03187265 11:0.05312109 12:0.0333904 13:0.04249687 14:0.02580167 15:0.06070981 16:0.06981629 17:0.0857222 18:0.06657267 19:0.07061952 
512 1:0.09634651 2:0.05653867 3:0.05653867 4:0.06115407 5:0.06519255 6:0.02711549 7:0.02826934 8:0.03403859 9:0.06807718 10:0.03288474 11:0.04500017 12:0.02769241 13:0.04096169 14:0.03807706 15:0.04384632 16:0.05076942 17:0.08890718 18:0.07234833 19:0.06624163 
512 1:0.06524088 2:0.04479225 3:0.05160846 4:0.06524088 5:0.0525822 6:0.03408106 7:0.02823859 8:0.04284476 9:0.05452969 10:0.03018608 11:0.0262911 12:0.04479225 13:0.05452969 14:0.04868722 15:0.04966097 16:0.0701096 17:0.09420586 18:0.07553146 19:0.06684702 
512 1:0.06389595 2:0.0487627 3:0.05548859 4:0.06221448 5:0.06221448 6:0.0302665 7:0.02858503 8:0.04203681 9:0.06053301 10:0.03699239 11:0.04203681 12:0.04371828 13:0.04203681 14:0.04708123 15:0.05885154 16:0.04203681 17:0.09510763 18:0.07043413 19:0.06770678 
512 1:0.03239155 2:0.04191848 3:0.04001309 4:0.09145849 5:0.06287771 6:0.03239155 7:0.01524308 8:0.03810771 9:0.02858078 10:0.02667539 11:0.03239155 12:0.04382386 13:0.08193157 14:0.04763463 15:0.04382386 16:0.08002618 17:0.10951491 18:0.05838933 19:0.09280626 
512 1:0.10345916 2:0.03808661 3:0.04718192 4:0.08072088 5:0.05172958 6:0.02614902 7:0.01875908 8:0.03069667 9:0.05400341 10:0.02216982 11:0.0329705 12:0.03410742 13:0.05968798 14:0.0409289 15:0.0449081 16:0.07560477 17:0.0937094 18:0.07399188 19:0.0711349 
512 1:0.06055 2:0.04933703 3:0.03812407 4:0.06279259 5:0.05045833 6:0.03139629 7:0.01906204 8:0.04597315 9:0.03251759 10:0.02466852 11:0.02578981 12:0.05045833 13:0.06727777 14:0.04148796 15:0.05045833 16:0.10540185 17:0.09808417 18:0.07312979 19:0.07303237 
512 1:0.09411411 2:0.04728007 3:0.04906423 4:0.06021519 5:0.05263254 6:0.03835931 7:0.02408608 8:0.03746723 9:0.06690577 10:0.02364004 11:0.03033061 12:0.04371177 13:0.03702119 14:0.04326573 15:0.06110727 16:0.069582 17:0.08622212 18:0.07001671 19:0.06497806 
512 1:0.06427971 2:0.04951275 3:0.04777546 4:0.04690681 5:0.05472462 6:0.03908901 7:0.02605934 8:0.0564619 9:0.0408263 10:0.03995766 11:0.04256359 12:0.0408263 13:0.0486441 14:0.04777546 15:0.04777546 16:0.07991531 17:0.0892649 18:0.07353484 19:0.06410648 
512 1:0.09907952 2:0.05266389 3:0.03927477 4:0.04909346 5:0.06158997 6:0.04195259 7:0.01785217 8:0.06158997 9:0.03659694 10:0.03302651 11:0.02410042 12:0.03570433 13:0.04195259 14:0.05534172 15:0.04909346 16:0.07944214 17:0.08528583 18:0.07168982 19:0.06466988 
512 1:0.04131892 2:0.03787568 3:0.05509189 4:0.07575135 5:0.04304054 6:0.01377297 7:0.02582432 8:0.03443243 9:0.06025676 10:0.02754595 11:0.04476216 12:0.05509189 13:0.06542162 14:0.03787568 15:0.06197838 16:0.06886487 17:0.10086821 18:0.07037158 19:0.07985479 
512 1:0.06873079 2:0.0468619 3:0.04418408 4:0.05355646 5:0.05712689 6:0.03793582 7:0.02454671 8:0.04418408 9:0.0468619 10:0.03124127 11:0.04864711 12:0.05668058 13:0.04016734 14:0.04775451 15:0.06649927 16:0.05623428 17:0.09232664 18:0.07214448 19:0.06431591 
512 1:0.07319898 2:0.04202164 3:0.04202164 4:0.05964362 5:0.04337718 6:0.03524395 7:0.03524395 8:0.03253288 9:0.05557701 10:0.0257552 11:0.02982181 12:0.0664213 13:0.04473271 14:0.04337718 15:0.07048791 16:0.0664213 17:0.09518094 18:0.07101603 19:0.06792479 
512 1:0.10178092 2:0.06668405 3:0.04445603 4:0.06200447 5:0.06785394 6:0.04211624 7:0.03158718 8:0.03743666 9:0.0526453 10:0.03509687 11:0.0269076 12:0.0257377 13:0.0526453 14:0.03509687 15:0.03743666 16:0.03860655 17:0.09488123 18:0.07680105 19:0.07022538 
512 1:0.10507243 2:0.04796785 3:0.06167295 4:0.05710458 5:0.0548204 6:0.02284183 7:0.01827347 8:0.02512602 9:0.0548204 10:0.02284183 11:0.06167295 12:0.05025203 13:0.05710458 14:0.0274102 15:0.04796785 16:0.05025203 17:0.09188097 18:0.07212457 19:0.07079303 
512 1:0.07903011 2:0.04664072 3:0.05657347 4:0.06002833 5:0.06002833 6:0.04707258 7:0.02634337 8:0.03800355 9:0.06089205 10:0.02979824 11:0.03929913 12:0.03800355 13:0.04189028 14:0.0479363 15:0.04620886 16:0.05657347 17:0.08694236 18:0.07007831 19:0.068657 
512 1:0.08465738 2:0.03323586 3:0.05204861 4:0.05581116 5:0.05079443 6:0.03699841 7:0.02947331 8:0.04201514 9:0.04954024 10:0.04703188 11:0.05518407 12:0.04264223 13:0.04076096 14:0.04201514 15:0.05769244 16:0.0526757 17:0.0886088 18:0.07301934 19:0.06579489 
512 1:0.11287551 2:0.05418024 3:0.06270862 4:0.04966522 5:0.0662203 6:0.03461516 7:0.02709012 8:0.04665521 9:0.06170528 10:0.04113685 11:0.02959847 12:0.02859513 13:0.03862851 14:0.04464853 15:0.04163852 16:0.03812684 17:0.08584091 18:0.07007505 19:0.06599554 
512 1:0.09984314 2:0.05876843 3:0.04928965 4:0.05813651 5:0.05813651 6:0.03412361 7:0.02085331 8:0.04549814 9:0.06382378 10:0.02338099 11:0.03096401 12:0.03285977 13:0.0442343 14:0.04233855 15:0.04992157 16:0.06255994 17:0.08705449 18:0.07202752 19:0.06618576 
512 1:0.09741282 2:0.04786664 3:0.05038594 4:0.0587836 5:0.053745 6:0.03694969 7:0.0243532 8:0.04366781 9:0.0587836 10:0.0293918 11:0.03443039 12:0.03610992 13:0.04450758 14:0.04450758 15:0.04954617 16:0.06382219 17:0.0870161 18:0.07004543 19:0.06867453 
512 1:0.10320922 2:0.03753063 3:0.07662503 4:0.04222195 5:0.05316839 6:0.02032909 7:0.02971175 8:0.0328393 9:0.0656786 10:0.04378573 11:0.06098727 12:0.04378573 13:0.03753063 14:0.03440307 15:0.04691328 16:0.05785972 17:0.08324315 18:0.06845847 19:0.06171899 
512 1:0.09825731 2:0.03954257 3:0.04912865 4:0.07189559 5:0.03954257 6:0.0179739 7:0.02755998 8:0.03115476 9:0.06949907 10:0.02755998 11:0.04433561 12:0.03474953 13:0.05152517 14:0.03115476 15:0.05511995 16:0.07668863 17:0.08923601 18:0.07745799 19:0.06761797 
512 1:0.07739425 2:0.04406388 3:0.05762199 4:0.06270629 5:0.05818692 6:0.03107068 7:0.0316356 8:0.03559006 9:0.06214137 10:0.03841466 11:0.03784974 12:0.03615498 13:0.04406388 14:0.04293404 15:0.04745341 16:0.06214137 17:0.09171075 18:0.06837558 19:0.07049056 
512 1:0.06610087 2:0.0350622 3:0.05977818 4:0.05690423 5:0.04598322 6:0.03161346 7:0.02988909 8:0.04081011 9:0.0643765 10:0.03276304 11:0.04885717 12:0.04943196 13:0.0413849 14:0.04885717 15:0.05690423 16:0.0706992 17:0.08614695 18:0.0748312 19:0.05960632 
512 1:0.11134763 2:0.0468542 3:0.04740543 4:0.07221059 5:0.05071278 6:0.02921497 7:0.01984413 8:0.03858581 9:0.05567381 10:0.02315149 11:0.03307355 12:0.0297662 13:0.0595324 14:0.03913704 15:0.04189317 16:0.06724956 17:0.09086749 18:0.07646803 19:0.06701172 
512 1:0.0687636 2:0.0356552 3:0.0865912 4:0.0407488 5:0.038202 6:0.025468 7:0.0229212 8:0.0432956 9:0.0662168 10:0.0229212 11:0.0432956 12:0.0687636 13:0.0585764 14:0.0458424 15:0.0483892 16:0.0611232 17:0.08838326 18:0.07236601 19:0.06247672 
512 1:0.07979347 2:0.04633169 3:0.0454737 4:0.06863954 5:0.04976367 6:0.02831381 7:0.02059186 8:0.03775175 9:0.05834361 10:0.0300298 11:0.04118372 12:0.03517776 13:0.05233765 14:0.03174579 15:0.05748562 16:0.08065146 17:0.09226593 18:0.07382338 19:0.07029581 
512 1:0.06402438 2:0.05223041 3:0.03285461 4:0.06065467 5:0.05981225 6:0.0387516 7:0.01600609 8:0.0648668 9:0.04043645 10:0.02780006 11:0.03201219 12:0.03959402 13:0.045491 14:0.06065467 15:0.05896982 16:0.07581834 17:0.09032925 18:0.0722767 19:0.06741669 
512 1:0.05597111 2:0.03709713 3:0.04425623 4:0.05141532 5:0.04165292 6:0.02928721 7:0.03189052 8:0.04555788 9:0.05727276 10:0.03449382 11:0.04751036 12:0.0605269 13:0.03319217 14:0.04751036 15:0.07679757 16:0.08265501 17:0.08919861 18:0.0720686 19:0.06164554 
512 1:0.09613871 2:0.05065373 3:0.04651873 4:0.06254185 5:0.04806936 6:0.03256311 7:0.02480999 8:0.04083311 9:0.05685623 10:0.02532687 11:0.02894499 12:0.04238373 13:0.05427185 14:0.03773186 15:0.05375498 16:0.0635756 17:0.09247293 18:0.07377665 19:0.06877571 
512 1:0.09422247 2:0.06397822 3:0.03838693 4:0.05001934 5:0.06397822 6:0.03722369 7:0.02210157 8:0.04652962 9:0.03606045 10:0.03140749 11:0.02559129 12:0.04420314 13:0.05234582 14:0.03722369 15:0.05118258 16:0.0663047 17:0.09526058 18:0.07393564 19:0.07004456 
512 1:0.07503234 2:0.04844608 3:0.04608285 4:0.06912428 5:0.05967139 6:0.03840238 7:0.02599546 8:0.03722077 9:0.06321622 10:0.02658626 11:0.03131271 12:0.04371963 13:0.0407656 14:0.04785527 15:0.0614438 16:0.05317252 17:0.09180917 18:0.07449875 19:0.06564452 
512 1:0.04953322 2:0.04953322 3:0.04277869 4:0.06979681 5:0.06529379 6:0.02701812 7:0.02701812 8:0.04728171 9:0.0450302 10:0.02926963 11:0.0225151 12:0.02476661 13:0.05178473 14:0.06079077 15:0.02926963 16:0.1328391 17:0.08969882 18:0.06802484 19:0.06775686 
512 1:0.08992968 2:0.04729635 3:0.05329166 4:0.06394999 5:0.06061926 6:0.04196718 7:0.01865208 8:0.04063489 9:0.06128541 10:0.02398125 11:0.03530572 12:0.03330729 13:0.04263333 14:0.04862864 15:0.0466302 16:0.0712776 17:0.08467133 18:0.07017231 19:0.06576583 
512 1:0.08985378 2:0.0495745 3:0.03873008 4:0.05835331 5:0.04286128 6:0.02995126 7:0.02272164 8:0.05732051 9:0.05783691 10:0.02633645 11:0.03459887 12:0.04182848 13:0.04595969 14:0.04699249 15:0.06455013 16:0.06609933 17:0.08780749 18:0.07664922 19:0.06197458 
512 1:0.11500189 2:0.04255577 3:0.05876749 4:0.06687335 5:0.05370132 6:0.02887713 7:0.02077127 8:0.03191682 9:0.07041966 10:0.02127788 11:0.03647637 12:0.03394329 13:0.04407561 14:0.04255577 15:0.04610208 16:0.06484688 17:0.08362856 18:0.07277822 19:0.06543065 
512 1:0.07813494 2:0.04919608 3:0.04726682 4:0.0733118 5:0.06366551 6:0.03183276 7:0.02025721 8:0.03858516 9:0.05208996 10:0.02508035 11:0.02700961 12:0.03858516 13:0.05305459 14:0.04823145 15:0.04919608 16:0.0665594 17:0.09402985 18:0.07398216 19:0.06993113 
512 1:0.07220721 2:0.03391551 3:0.05032624 4:0.08424175 5:0.04704409 6:0.01969288 7:0.02625717 8:0.03282146 9:0.06564292 10:0.02735122 11:0.03500956 12:0.0404798 13:0.05579648 14:0.044856 15:0.05689053 16:0.06783102 17:0.09533838 18:0.07894991 19:0.06534788 
512 1:0.10514309 2:0.05875643 3:0.06494132 4:0.04638666 5:0.06803376 6:0.04329421 7:0.01855466 8:0.0494791 9:0.06494132 10:0.03710933 11:0.05875643 12:0.01855466 13:0.03710933 14:0.04020177 15:0.03710933 16:0.04020177 17:0.07906839 18:0.0714387 19:0.06091974 
512 1:0.11919689 2:0.04584496 3:0.06723927 4:0.05195762 5:0.05195762 6:0.03667597 7:0.02445064 8:0.05195762 9:0.0748801 10:0.03667597 11:0.03209147 12:0.02139431 13:0.03667597 14:0.04584496 15:0.04278863 16:0.05195762 17:0.07926281 18:0.0668153 19:0.06233228 
512 1:0.08695639 2:0.04713524 3:0.06095074 4:0.04632256 5:0.055262 6:0.04469721 7:0.02275494 8:0.0520113 9:0.06420144 10:0.04225918 11:0.03250706 12:0.03900847 13:0.03494509 14:0.04063383 15:0.06176342 16:0.04957327 17:0.08453917 18:0.07207554 19:0.06240315 
512 1:0.04831425 2:0.04428806 3:0.03623569 4:0.07045828 5:0.06240591 6:0.03019641 7:0.0322095 8:0.03623569 9:0.03623569 10:0.03824878 11:0.03824878 12:0.04227497 13:0.05234044 14:0.04831425 15:0.04831425 16:0.09260231 17:0.09850308 18:0.07303583 19:0.07153784 
512 1:0.08200127 2:0.05094018 3:0.06709195 4:0.04472796 5:0.06709195 6:0.03603086 7:0.01739421 8:0.03478842 9:0.06460706 10:0.02733376 11:0.03851575 12:0.05094018 13:0.03106109 14:0.04100063 15:0.05839484 16:0.07454661 17:0.08265067 18:0.07219523 19:0.05868741 
512 1:0.05109265 2:0.05180228 3:0.03973873 4:0.05747924 5:0.05747924 6:0.03122329 7:0.02767519 8:0.05109265 9:0.04754455 10:0.02909443 11:0.03477139 12:0.04896379 13:0.04328683 14:0.05535038 15:0.05889848 16:0.08018708 17:0.09192028 18:0.07455168 19:0.06784783 
512 1:0.04122983 2:0.03533985 3:0.05889975 4:0.06478973 5:0.05300978 6:0.01766993 7:0.01766993 8:0.04122983 9:0.03533985 10:0.02944988 11:0.03533985 12:0.05300978 13:0.0706797 14:0.0471198 15:0.04122983 16:0.11190953 17:0.0958022 18:0.08481257 19:0.06546842 
512 1:0.08642837 2:0.03811015 3:0.05172091 4:0.07485922 5:0.05035984 6:0.03334638 7:0.02041615 8:0.03674907 9:0.05784576 10:0.02926315 11:0.03062423 12:0.03674907 13:0.05648468 14:0.04015176 15:0.05172091 16:0.0673733 17:0.09348029 18:0.07477228 19:0.06954449 
512 1:0.11563822 2:0.05330199 3:0.05059172 4:0.06052938 5:0.05330199 6:0.03161983 7:0.02710271 8:0.05691569 9:0.06323965 10:0.03252325 11:0.0189719 12:0.02077874 13:0.04788145 14:0.05149515 15:0.03884721 16:0.05420542 17:0.08527989 18:0.07214721 19:0.06562861 
512 1:0.1516788 2:0.03906878 3:0.05630501 4:0.07469032 5:0.04711235 6:0.01608715 7:0.01953439 8:0.0252798 9:0.06664674 10:0.02872705 11:0.03102521 12:0.02068347 13:0.05630501 14:0.02413072 15:0.04021786 16:0.07124307 17:0.08796572 18:0.07500209 19:0.06829646 
512 1:0.08814157 2:0.03998174 3:0.06905937 4:0.06088129 5:0.05724658 6:0.03180366 7:0.02180822 8:0.03271233 9:0.06905937 10:0.03907307 11:0.04452512 12:0.03725571 13:0.04270777 14:0.03271233 15:0.05542923 16:0.05179453 17:0.08938149 18:0.06908986 19:0.06733676 
512 1:0.07843262 2:0.06334942 3:0.05128286 4:0.02714975 5:0.05731614 6:0.03619967 7:0.02111647 8:0.06636606 9:0.04524959 10:0.01809983 11:0.04826623 12:0.06033278 13:0.03921631 14:0.06334942 15:0.05128286 16:0.06033278 17:0.08378909 18:0.06538867 19:0.06347944 
512 1:0.08572614 2:0.05047427 3:0.06088959 4:0.05127545 5:0.06088959 6:0.02323419 7:0.02884244 8:0.03685423 9:0.05528134 10:0.04406484 11:0.04807073 12:0.04406484 13:0.04646837 14:0.03204715 15:0.05367898 16:0.04086012 17:0.09473943 18:0.07487074 19:0.06766758 
512 1:0.06419208 2:0.05912428 3:0.05405649 4:0.05574575 5:0.05743502 6:0.02027118 7:0.03547457 8:0.05912428 9:0.06419208 10:0.05067796 11:0.02364971 12:0.02364971 13:0.04729943 14:0.04223163 15:0.04898869 16:0.05912428 17:0.09388552 18:0.07332848 19:0.06754884 
512 1:0.08771927 2:0.02946296 3:0.06093476 4:0.06361321 5:0.0475425 6:0.03013257 7:0.01740993 8:0.04486405 9:0.06495244 10:0.02745412 11:0.0314718 12:0.0475425 13:0.04084638 14:0.05289941 15:0.06227398 16:0.07030934 17:0.08428137 18:0.07539859 19:0.06089082 
512 1:0.07198078 2:0.04580595 3:0.04177905 4:0.05285302 5:0.04983285 6:0.03825552 7:0.02667819 8:0.04530259 9:0.05033621 10:0.03221517 11:0.05134293 12:0.04983285 13:0.04026897 14:0.0437925 15:0.06392698 16:0.06745052 17:0.08946666 18:0.07377989 19:0.06509938 
512 1:0.0923681 2:0.03865048 3:0.05764818 4:0.06878476 5:0.05175234 6:0.01637732 7:0.0275139 8:0.03406483 9:0.06223383 10:0.02882409 11:0.0373403 12:0.03865048 13:0.05109725 14:0.0458565 15:0.04454632 16:0.07468059 17:0.09005166 18:0.0728313 19:0.06672777 
512 1:0.04325226 2:0.02883484 3:0.04145008 4:0.03964791 5:0.05766968 6:0.03424137 7:0.01441742 8:0.08290017 9:0.02162613 10:0.04325226 11:0.02703266 12:0.04685662 13:0.03063702 14:0.08290017 15:0.0558675 16:0.14958074 17:0.07876938 18:0.06209581 19:0.05896797 
512 1:0.08607186 2:0.05248284 3:0.04828421 4:0.07137666 5:0.05668147 6:0.02729108 7:0.03358902 8:0.02939039 9:0.06717803 10:0.0314897 11:0.02099314 12:0.03778764 13:0.04828421 14:0.03568833 15:0.05458215 16:0.05878078 17:0.09639156 18:0.07448824 19:0.06916869 
512 1:0.09094764 2:0.04400692 3:0.04400692 4:0.06747728 5:0.04840762 6:0.02933795 7:0.02347036 8:0.03227174 9:0.06014279 10:0.02200346 11:0.04547382 12:0.04840762 13:0.04694072 14:0.03813933 15:0.06307659 16:0.06454349 17:0.09138723 18:0.07461749 19:0.06534102 
270.4209861048744 1:0.05195906 2:0.04329922 3:0.04676316 4:0.05426836 5:0.04993843 6:0.03463938 7:0.03233008 8:0.04589717 9:0.0516704 10:0.03752599 11:0.03810331 12:0.05051576 13:0.04243324 14:0.04734048 15:0.06090757 16:0.08140253 17:0.09184724 18:0.07127574 19:0.06788286 
512 1:0.05666052 2:0.04683936 3:0.03626273 4:0.0657262 5:0.05514957 6:0.04381747 7:0.02795252 8:0.04230652 9:0.04306199 10:0.03248536 11:0.04910578 12:0.04306199 13:0.05061673 14:0.04608389 15:0.0543941 16:0.06799262 17:0.09515733 18:0.07128617 19:0.07203916 
512 1:0.06589214 2:0.08077102 3:0.00850221 4:0.08714767 5:0.09352433 6:0.06164104 7:0.01275332 8:0.05101327 9:0.00425111 10:0.02338108 11:0.00637666 12:0.01487887 13:0.07864546 14:0.05313883 15:0.02125553 16:0.0680177 17:0.10953488 18:0.07695683 19:0.08231805 
512 1:0.07824384 2:0.06186722 3:0.05094947 4:0.05458872 5:0.0454906 6:0.02729436 7:0.02365511 8:0.05640835 9:0.06732609 10:0.02183549 11:0.04185135 12:0.03457286 13:0.05458872 14:0.04185135 15:0.04912985 16:0.06186722 17:0.08799319 18:0.07473583 19:0.06575035 
512 1:0.09194406 2:0.04907127 3:0.04338933 4:0.06611708 5:0.05526974 6:0.03615778 7:0.02531044 8:0.04338933 9:0.05062089 10:0.02944276 11:0.0247939 12:0.03719086 13:0.05268705 14:0.04545549 15:0.04855473 16:0.06353438 17:0.09360149 18:0.07363632 19:0.06983312 
512 1:0.05804806 2:0.04001798 3:0.0386987 4:0.05716854 5:0.04221677 6:0.02858427 7:0.02330717 8:0.05277096 9:0.0439758 10:0.02814451 11:0.04837338 12:0.05496975 13:0.04969265 14:0.05013241 15:0.06508418 16:0.0879516 17:0.0908132 18:0.07467411 19:0.06537595 
512 1:0.0734218 2:0.0569019 3:0.04772417 4:0.05323081 5:0.06057299 6:0.04588863 7:0.02753318 8:0.04955972 9:0.04588863 10:0.03854645 11:0.02569763 12:0.04038199 13:0.05139526 14:0.04221754 15:0.04955972 16:0.05323081 17:0.09466427 18:0.07335148 19:0.07023306 
512 1:0.09595319 2:0.04169 3:0.04499874 4:0.07014509 5:0.05492493 6:0.02779334 7:0.03044032 8:0.03308731 9:0.05823366 10:0.02448461 11:0.0344108 12:0.03771953 13:0.04367524 14:0.05227794 15:0.04499874 16:0.07543906 17:0.0885786 18:0.07161336 19:0.06953557 
512 1:0.09352574 2:0.04282494 3:0.05513096 4:0.0639913 5:0.053162 6:0.02707324 7:0.02756548 8:0.02805772 9:0.06596026 10:0.0290422 11:0.0398715 12:0.04528615 13:0.04282494 14:0.03691805 15:0.05759217 16:0.06202233 17:0.09063597 18:0.0703703 19:0.06814473 
512 1:0.08901241 2:0.03731328 3:0.05484603 4:0.07058055 5:0.0499009 6:0.03236815 7:0.02427611 8:0.03731328 9:0.05979116 10:0.03056992 11:0.03416638 12:0.03641417 13:0.0530478 14:0.04360709 15:0.04765311 16:0.0678832 17:0.09079829 18:0.07064931 19:0.06980886 
512 1:0.10318473 2:0.04939695 3:0.0658626 4:0.0439084 5:0.04829924 6:0.04171298 7:0.02744275 8:0.0658626 9:0.07903511 10:0.03512672 11:0.02414962 12:0.02744275 13:0.03073588 14:0.05708092 15:0.04939695 16:0.05049466 17:0.0780028 18:0.06662673 19:0.05623764 
512 1:0.07301755 2:0.04842216 3:0.04534774 4:0.06917452 5:0.06071986 6:0.03612447 7:0.03151284 8:0.03305005 9:0.05533962 10:0.03151284 11:0.03151284 12:0.04304192 13:0.04688495 14:0.04534774 15:0.0530338 16:0.05687683 17:0.09597143 18:0.07014457 19:0.07296427 
512 1:0.05788423 2:0.03634591 3:0.04711507 4:0.0780764 5:0.04846121 6:0.02826904 7:0.01480759 8:0.04038434 9:0.05653808 10:0.0269229 11:0.03634591 12:0.05384579 13:0.05653808 14:0.04038434 15:0.07538411 16:0.05519194 17:0.09901755 18:0.07371298 19:0.07477453 
512 1:0.05712408 2:0.04698916 3:0.04698916 4:0.05528136 5:0.04698916 6:0.04514645 7:0.02764068 8:0.04883187 9:0.05804543 10:0.02671933 11:0.05159594 12:0.05159594 13:0.04422509 14:0.04975323 15:0.06173086 16:0.05528136 17:0.08965481 18:0.07278968 19:0.06361641 
512 1:0.05828745 2:0.03374537 3:0.03418362 4:0.06310822 5:0.05346669 6:0.03330712 7:0.02936285 8:0.03812788 9:0.03725138 10:0.03506012 11:0.05434319 12:0.05521969 13:0.04031914 14:0.05215193 15:0.06398472 16:0.08458254 17:0.09190957 18:0.07471014 19:0.06687836 
512 1:0.05994892 2:0.04301679 3:0.04027103 4:0.06635568 5:0.05857605 6:0.03569478 7:0.0288304 8:0.03569478 9:0.03844053 10:0.03569478 11:0.04301679 12:0.04988117 13:0.05262692 14:0.04438966 15:0.05491504 16:0.06955906 17:0.09844907 18:0.07288999 19:0.07174857 
512 1:0.08542093 2:0.04793405 3:0.04609043 4:0.05961029 5:0.05285036 6:0.03687234 7:0.03318511 8:0.03379965 9:0.05530851 10:0.03687234 11:0.05530851 12:0.0393305 13:0.04547589 14:0.03502873 15:0.05223582 16:0.05100674 17:0.09188375 18:0.07250848 19:0.06927758 
512 1:0.09267169 2:0.04602064 3:0.05295525 4:0.07501994 5:0.05358567 6:0.02647763 7:0.03089056 8:0.0321514 9:0.07817204 10:0.02206469 11:0.03341224 12:0.0321514 13:0.0416077 14:0.04854231 15:0.04917273 16:0.05799861 17:0.08885495 18:0.07080534 19:0.0674452 
512 1:0.10673091 2:0.05457831 3:0.04548192 4:0.06306827 5:0.06306827 6:0.05275903 7:0.0236506 8:0.03820482 9:0.04305622 10:0.03153413 11:0.02425703 12:0.02910843 13:0.05700401 14:0.03881124 15:0.03456626 16:0.05579116 17:0.09265374 18:0.07617309 19:0.06950256 
512 1:0.06700906 2:0.0433588 3:0.05293153 4:0.06250425 5:0.04673741 6:0.02196095 7:0.02252405 8:0.04561121 9:0.06700906 10:0.03040747 11:0.0416695 12:0.0422326 13:0.04504811 14:0.0411064 15:0.06419355 16:0.07601868 17:0.08977944 18:0.07299289 19:0.06690502 
512 1:0.05891584 2:0.02561558 3:0.04610805 4:0.0614774 5:0.05379273 6:0.03330026 7:0.02817714 8:0.04610805 9:0.03842338 10:0.04610805 11:0.0307387 12:0.05123117 13:0.04098493 14:0.05635428 15:0.0614774 16:0.08965454 17:0.09283371 18:0.07069926 19:0.06799951 
512 1:0.05370127 2:0.04627914 3:0.02881531 4:0.05588424 5:0.04933531 6:0.04147659 7:0.01921021 8:0.05806722 9:0.03711063 10:0.02532255 11:0.04496935 12:0.05326467 13:0.04453276 14:0.05501105 15:0.06767233 16:0.0908119 17:0.0895754 18:0.07406771 19:0.06489237 
512 1:0.07210019 2:0.04608466 3:0.04311145 4:0.06615378 5:0.04682796 6:0.03121864 7:0.02155573 8:0.04534136 9:0.05500427 10:0.02750213 11:0.04682796 12:0.04088155 13:0.05351767 14:0.04013825 15:0.05872077 16:0.06764039 17:0.09189562 18:0.07322396 19:0.07225365 
512 1:0.11818953 2:0.04459982 3:0.0741472 4:0.05797977 5:0.05519228 6:0.0256449 7:0.02006992 8:0.03177737 9:0.08306717 10:0.02787489 11:0.04459982 12:0.03121988 13:0.03790985 14:0.03456486 15:0.04850231 16:0.05184729 17:0.08170905 18:0.07128674 19:0.05981736 
512 1:0.04139412 2:0.03991576 3:0.02365379 4:0.07096136 5:0.0576561 6:0.03548068 7:0.02956723 8:0.05026429 9:0.02217542 10:0.03400232 11:0.03695904 12:0.04878593 13:0.05469938 14:0.06356955 15:0.05174266 16:0.0960935 17:0.09917538 18:0.06983539 19:0.0740681 
512 1:0.10987214 2:0.03288144 3:0.05373309 4:0.07699069 5:0.04330727 6:0.03769336 7:0.02325761 8:0.0296735 9:0.06576288 10:0.02646555 11:0.0296735 12:0.03368343 13:0.05373309 14:0.03689137 15:0.04972316 16:0.0649609 17:0.08954759 18:0.07275997 19:0.06938947 
512 1:0.0776248 2:0.03589104 3:0.04757649 4:0.06677402 5:0.05091519 6:0.02921363 7:0.02587493 8:0.03922974 9:0.05174987 10:0.03171766 11:0.03672571 12:0.04590714 13:0.04757649 14:0.04841117 15:0.05592324 16:0.07595545 17:0.09134734 18:0.07392598 19:0.06766009 
512 1:0.06706462 2:0.03725812 3:0.0479033 4:0.07664528 5:0.06067751 6:0.03725812 7:0.02874198 8:0.03406457 9:0.06387107 10:0.04364523 11:0.03725812 12:0.0298065 13:0.0361936 14:0.04258071 15:0.06174203 16:0.06387107 17:0.09270603 18:0.06921923 19:0.06949291 
512 1:0.07712331 2:0.03559537 3:0.05932562 4:0.05265149 5:0.04523579 6:0.03633694 7:0.02892124 8:0.04523579 9:0.0622919 10:0.03411223 11:0.04078636 12:0.04523579 13:0.04004479 14:0.04968521 15:0.05339306 16:0.07638174 17:0.08396284 18:0.06919047 19:0.06449007 
512 1:0.12600195 2:0.03871935 3:0.04856325 4:0.07350114 5:0.04593821 6:0.02493789 7:0.01706276 8:0.03084423 9:0.05315707 10:0.02165659 11:0.03084423 12:0.03740683 13:0.06168846 14:0.03346927 15:0.04659447 16:0.07546992 17:0.09099485 18:0.07244919 19:0.07070034 
512 1:0.0803741 2:0.0351403 3:0.05158896 4:0.06429928 5:0.05233662 6:0.02691598 7:0.02766364 8:0.03588797 9:0.05158896 10:0.03588797 11:0.04000013 12:0.04598146 13:0.04710296 14:0.04485996 15:0.05420579 16:0.0736451 17:0.09115908 18:0.0740419 19:0.06731984 
512 1:0.10078658 2:0.04525112 3:0.04867923 4:0.0596492 5:0.05484984 6:0.02879617 7:0.01851182 8:0.03770926 9:0.04662236 10:0.02193994 11:0.04045176 12:0.05005048 13:0.05210735 14:0.04387987 15:0.05142172 16:0.06924792 17:0.08995594 18:0.07339012 19:0.06669933 
512 1:0.05997179 2:0.0383992 3:0.03408469 4:0.06816937 5:0.04443953 6:0.02847581 7:0.02933872 8:0.04185082 9:0.04443953 10:0.03322178 11:0.04141937 12:0.04573388 13:0.05177421 14:0.04400808 15:0.05997179 16:0.09448793 17:0.09511498 18:0.07504341 19:0.07005513 
512 1:0.08426526 2:0.05448185 3:0.0559347 4:0.05084973 5:0.06319894 6:0.04503833 7:0.02469844 8:0.04649118 9:0.053029 10:0.03268911 11:0.03050984 12:0.03486838 13:0.0443119 14:0.0472176 15:0.04067978 16:0.06901034 17:0.08637134 18:0.07245562 19:0.06389866 
512 1:0.08964849 2:0.04633518 3:0.04734246 4:0.0594299 5:0.05540075 6:0.04129874 7:0.02618945 8:0.04129874 9:0.0594299 10:0.02921131 11:0.03626231 12:0.0372696 13:0.03827688 14:0.04734246 15:0.05237889 16:0.07051005 17:0.08536186 18:0.07387091 19:0.06314211 
512 1:0.07092437 2:0.05529697 3:0.05048854 4:0.06130751 5:0.06491383 6:0.04688221 7:0.02163794 8:0.03365902 9:0.05890329 10:0.02524427 11:0.03606324 12:0.04327589 13:0.04327589 14:0.03966956 15:0.05529697 16:0.06130751 17:0.09105198 18:0.07286632 19:0.06793469 
512 1:0.07631086 2:0.05347769 3:0.04386372 4:0.05467944 5:0.05467944 6:0.03905674 7:0.02403492 8:0.05287682 9:0.05648205 10:0.02764015 11:0.03485063 12:0.0444646 13:0.04085936 14:0.05047332 15:0.06068816 16:0.06128904 17:0.08867726 18:0.07223017 19:0.06336564 
512 1:0.10748226 2:0.04885557 3:0.04885557 4:0.05862669 5:0.06351224 6:0.03175612 7:0.01221389 8:0.03664168 9:0.0341989 10:0.0341989 11:0.01954223 12:0.04397001 13:0.05862669 14:0.02931334 15:0.05129835 16:0.08061169 17:0.09534369 18:0.07130656 19:0.07364562 
512 1:0.10563068 2:0.04538818 3:0.07179585 4:0.05446582 5:0.0478639 6:0.02888339 7:0.03135911 8:0.04043675 9:0.07839777 10:0.02805815 11:0.03878627 12:0.03548531 13:0.04538818 14:0.04621342 15:0.03878627 16:0.04621342 17:0.08365309 18:0.06984993 19:0.06334449 
512 1:0.06816181 2:0.05097816 3:0.05097816 4:0.0635795 5:0.06587065 6:0.03264893 7:0.03093057 8:0.03952239 9:0.05441489 10:0.04066797 11:0.03723124 12:0.03837681 13:0.04525027 14:0.04467749 15:0.05155095 16:0.04696864 17:0.09602167 18:0.07307426 19:0.06909566 
358.9376105945204 1:0.04577414 2:0.03084779 3:0.02587234 4:0.04577414 5:0.04079869 6:0.04577414 7:0.01791162 8:0.12538135 9:0.02786252 10:0.06368576 11:0.02388216 12:0.02686743 13:0.03283797 14:0.0895581 15:0.07562684 16:0.07264157 17:0.08290367 18:0.07212968 19:0.05387006 
512 1:0.08987941 2:0.0449397 3:0.05203545 4:0.06386169 5:0.05913119 6:0.03074822 7:0.02601772 8:0.03547871 9:0.05913119 10:0.04257446 11:0.04257446 12:0.03311347 13:0.04257446 14:0.03311347 15:0.05676594 16:0.05913119 17:0.09179914 18:0.06823135 19:0.06889879 
512 1:0.07739074 2:0.04813778 3:0.0396211 4:0.06146824 5:0.05776534 6:0.03851023 7:0.02999354 8:0.05221098 9:0.04813778 10:0.0314747 11:0.03851023 12:0.04073197 13:0.04295371 14:0.06035737 15:0.05110011 16:0.05369214 17:0.09010724 18:0.07378438 19:0.06405241 
512 1:0.07404064 2:0.03919799 3:0.04573098 4:0.07839597 5:0.03919799 6:0.01959899 7:0.02395433 8:0.03484265 9:0.04790865 10:0.02395433 11:0.02613199 12:0.05226398 13:0.07404064 14:0.03484265 15:0.05661931 16:0.08492897 17:0.10473754 18:0.06274173 19:0.07687065 
512 1:0.11608812 2:0.0644934 3:0.07554941 4:0.04422404 5:0.06080806 6:0.03869604 7:0.03132537 8:0.02026935 9:0.0700214 10:0.02579736 11:0.05343739 12:0.03685337 13:0.05159472 14:0.02211202 15:0.02764003 16:0.03685337 17:0.0880572 18:0.071083 19:0.06509635 
512 1:0.07677953 2:0.04494411 3:0.04868946 4:0.06928884 5:0.04494411 6:0.02059939 7:0.0262174 8:0.03183541 9:0.06367083 10:0.02059939 11:0.04494411 12:0.04868946 13:0.05430747 14:0.03745343 15:0.05805281 16:0.07490686 17:0.09418054 18:0.07394749 19:0.06594937 
512 1:0.05820257 2:0.04914884 3:0.04785545 4:0.05302901 5:0.05302901 6:0.03750833 7:0.03233476 8:0.04914884 9:0.05561579 10:0.0271612 11:0.04268189 12:0.04914884 13:0.0413885 14:0.05820257 15:0.05173562 16:0.07113648 17:0.08778701 18:0.07161228 19:0.063273 
512 1:0.1150029 2:0.04433847 3:0.06373655 4:0.0665077 5:0.05819424 6:0.02355481 7:0.02632596 8:0.02494039 9:0.07482116 10:0.03186827 11:0.02632596 12:0.03879616 13:0.04018174 14:0.03325385 15:0.05680866 16:0.04572404 17:0.09037568 18:0.07472463 19:0.06451882 
512 1:0.11809251 2:0.04769121 3:0.04882671 4:0.06813029 5:0.06131726 6:0.02498111 7:0.01703257 8:0.03406515 9:0.05904626 10:0.02043909 11:0.03179414 12:0.02725212 13:0.04428469 14:0.04428469 15:0.04087818 16:0.09424691 17:0.08416451 18:0.07050246 19:0.06297014 
512 1:0.07070149 2:0.0452693 3:0.05442488 4:0.06052861 5:0.04832116 6:0.0406915 7:0.03000998 8:0.03357049 9:0.07070149 10:0.02288897 11:0.037131 12:0.04730387 13:0.04120015 14:0.04374336 15:0.05645946 16:0.07375335 17:0.08766581 18:0.0730517 19:0.06258344 
512 1:0.12488045 2:0.03878539 3:0.05114558 4:0.07927564 5:0.05071936 6:0.02216308 7:0.01449125 8:0.03494948 9:0.05668635 10:0.01747474 11:0.025999 12:0.02983492 13:0.06137469 14:0.04389995 15:0.03878539 16:0.07884943 17:0.08976712 18:0.0723595 19:0.06855868 
512 1:0.08883174 2:0.05448347 3:0.06395885 4:0.05685231 5:0.06751212 6:0.0355327 7:0.02842616 8:0.03671712 9:0.05685231 10:0.0355327 11:0.04619251 12:0.03434827 13:0.0509302 14:0.04263924 15:0.03434827 16:0.03790154 17:0.09164326 18:0.07128278 19:0.06601445 
512 1:0.11549394 2:0.0455469 3:0.05612029 4:0.06344033 5:0.0455469 6:0.03416018 7:0.01870676 8:0.04961359 9:0.05612029 10:0.02358679 11:0.02521347 12:0.03334684 13:0.06344033 14:0.04473357 15:0.03822687 16:0.05612029 17:0.08936252 18:0.06990266 19:0.07131746 
512 1:0.09427741 2:0.04377166 3:0.05218928 4:0.0631322 5:0.05808162 6:0.02777817 7:0.02525288 8:0.03198698 9:0.05892338 10:0.03535403 11:0.03198698 12:0.04545518 13:0.04124637 14:0.03619579 15:0.0631322 16:0.06060691 17:0.09196585 18:0.07389968 19:0.06476344 
512 1:0.08075789 2:0.03634105 3:0.05047368 4:0.07470105 5:0.05249263 6:0.02220842 7:0.02422737 8:0.04037894 9:0.06258736 10:0.03230316 11:0.0343221 12:0.03634105 13:0.04441684 14:0.04845473 15:0.05854947 16:0.0726821 17:0.09028864 18:0.07561412 19:0.06285941 
512 1:0.09526337 2:0.03380313 3:0.04379042 4:0.08220307 5:0.05608247 6:0.02996187 7:0.01690157 8:0.03610789 9:0.05531422 10:0.02535235 11:0.02074283 12:0.03610789 13:0.04839994 14:0.04993645 15:0.05608247 16:0.08143482 17:0.09122655 18:0.07294594 19:0.06834275 
512 1:0.08711261 2:0.0483475 3:0.044863 4:0.06925453 5:0.04878306 6:0.03136054 7:0.02264928 8:0.04094293 9:0.06141439 10:0.02264928 11:0.03789399 12:0.03963624 13:0.05226757 14:0.04137849 15:0.05618764 16:0.05967214 17:0.09242291 18:0.07561634 19:0.06754757 
512 1:0.09647238 2:0.04134531 3:0.0654634 4:0.07465125 5:0.05283011 6:0.02526658 7:0.02182113 8:0.02526658 9:0.06776036 10:0.0298605 11:0.05168163 12:0.03445442 13:0.06086948 14:0.02871202 15:0.04479075 16:0.03675138 17:0.09487305 18:0.07289239 19:0.07423726 
512 1:0.15074718 2:0.06237814 3:0.0727745 4:0.05198179 5:0.08317086 6:0.02599089 7:0.01039636 8:0.04678361 9:0.0727745 10:0.04158543 11:0.02599089 12:0.01039636 13:0.03118907 14:0.03638725 15:0.04158543 16:0.02599089 17:0.08036179 18:0.07426127 19:0.0552538 
512 1:0.0855688 2:0.03751863 3:0.05035395 4:0.05265773 5:0.04837929 6:0.03587308 7:0.02172131 8:0.04377173 9:0.05561972 10:0.03455663 11:0.03751863 12:0.05364506 13:0.0365313 14:0.04179707 15:0.07174615 16:0.06944238 17:0.08756394 18:0.07145865 19:0.06427596 
512 1:0.08382791 2:0.04947221 3:0.04214299 4:0.05954988 5:0.05588527 6:0.04809798 7:0.03343955 8:0.05771758 9:0.04993028 10:0.0325234 11:0.02427803 12:0.03343955 13:0.04534952 14:0.06504679 15:0.04031069 16:0.05451104 17:0.08885036 18:0.07181141 19:0.06381556 
512 1:0.0521915 2:0.03395592 3:0.04401693 4:0.06539658 5:0.04401693 6:0.03458473 7:0.02075084 8:0.04401693 9:0.04401693 10:0.03081185 11:0.04401693 12:0.05407794 13:0.05533557 14:0.04401693 15:0.06413895 16:0.08488979 17:0.09508592 18:0.07219852 19:0.0724803 
512 1:0.10199094 2:0.03767818 3:0.05391878 4:0.05067066 5:0.04482404 6:0.03183157 7:0.03378044 8:0.05651727 9:0.06626163 10:0.0272842 11:0.03832781 12:0.04482404 13:0.03118194 14:0.07015937 15:0.05067066 16:0.0545684 17:0.07975164 18:0.07062412 19:0.05513429 
512 1:0.11128887 2:0.0529947 3:0.04769523 4:0.06800987 5:0.07154285 6:0.0450455 7:0.02296437 8:0.04592874 9:0.04327901 10:0.04062927 11:0.01943139 12:0.01943139 13:0.05387795 14:0.04681199 15:0.03268007 16:0.04327901 17:0.09361259 18:0.07586055 19:0.06563668 
512 1:0.07596326 2:0.04983577 3:0.04548119 4:0.06193183 5:0.04886808 6:0.02757902 7:0.03048207 8:0.05031961 9:0.05564188 10:0.02999823 11:0.0319336 12:0.03725587 13:0.05273882 14:0.04983577 15:0.04693271 16:0.07015715 17:0.09208702 18:0.07242483 19:0.07053331 
512 1:0.12781721 2:0.04023875 3:0.06154162 4:0.06864258 5:0.05917464 6:0.02840383 7:0.02366985 8:0.03787177 9:0.05917464 10:0.04497272 11:0.02366985 12:0.02366985 13:0.05207368 14:0.03550478 15:0.04260574 16:0.03550478 17:0.09070046 18:0.0760633 19:0.06869994 
512 1:0.06977591 2:0.03592423 3:0.04974124 4:0.05457719 5:0.05457719 6:0.03868763 7:0.02072552 8:0.04145103 9:0.05388634 10:0.03177913 11:0.05388634 12:0.05595889 13:0.03177913 14:0.04905039 15:0.07115761 16:0.0670125 17:0.08574509 18:0.07167106 19:0.06261358 
512 1:0.09225555 2:0.05485465 3:0.03989429 4:0.04737447 5:0.04737447 6:0.04238768 7:0.02244054 8:0.06482822 9:0.04238768 10:0.02244054 11:0.02244054 12:0.03989429 13:0.04986786 14:0.05734804 15:0.04488108 16:0.09225555 17:0.08534484 18:0.06830634 19:0.06342338 
512 1:0.07791425 2:0.04445414 3:0.04636615 4:0.05592618 5:0.04349814 6:0.03441611 7:0.03489411 8:0.03776212 9:0.05927219 10:0.03489411 11:0.04588815 12:0.04397614 13:0.04397614 14:0.03680612 15:0.05688219 16:0.07265624 17:0.0901047 18:0.07068409 19:0.06962871 
512 1:0.09315313 2:0.05211364 3:0.0540679 4:0.04559944 5:0.08859319 6:0.03452529 7:0.01823977 8:0.04494802 9:0.02931392 10:0.04234233 11:0.05732501 12:0.03908523 13:0.03322245 14:0.05732501 15:0.03908523 16:0.0508108 17:0.08570333 18:0.07680745 19:0.05773885 
512 1:0.08658734 2:0.0419265 3:0.0638012 4:0.06926987 5:0.05468674 6:0.02734337 7:0.0319006 8:0.0200518 9:0.0638012 10:0.0319006 11:0.04374939 12:0.04648373 13:0.05559819 14:0.03281204 15:0.04739517 16:0.04010361 17:0.09701403 18:0.07528901 19:0.0702856 
512 1:0.06256524 2:0.04010592 3:0.05614829 4:0.06256524 5:0.06737795 6:0.03208474 7:0.02406355 8:0.04010592 9:0.04171016 10:0.05133558 11:0.02727203 12:0.0481271 13:0.04973134 14:0.04010592 15:0.060961 16:0.05133558 17:0.09960708 18:0.07405554 19:0.07074183 
512 1:0.09712469 2:0.04228874 3:0.04693585 4:0.07063613 5:0.05483595 6:0.03392393 7:0.02509442 8:0.03206509 9:0.05251239 10:0.03717691 11:0.0408946 12:0.03531807 13:0.05251239 14:0.0325298 15:0.0529771 16:0.05530066 17:0.095281 18:0.07213214 19:0.07046015 
512 1:0.08036304 2:0.04607481 3:0.04714632 4:0.03535974 5:0.04178878 6:0.02678768 7:0.02893069 8:0.0600044 9:0.05143235 10:0.03107371 11:0.04821782 12:0.0589329 13:0.03535974 14:0.05357536 15:0.06536194 16:0.07500551 17:0.08292331 18:0.07488381 19:0.05677809 
512 1:0.06651814 2:0.05480425 3:0.06735485 4:0.04852896 5:0.05773273 6:0.03137648 7:0.02719295 8:0.0481106 9:0.06526308 10:0.04601884 11:0.03974354 12:0.0401619 13:0.0472739 14:0.03221319 15:0.05731437 16:0.04141696 17:0.09330029 18:0.0753061 19:0.06036887 
512 1:0.09298293 2:0.03043078 3:0.05409916 4:0.07185044 5:0.04226497 6:0.02789488 7:0.02366838 8:0.03550257 9:0.06508805 10:0.02451368 11:0.03465727 12:0.04311027 13:0.04818206 14:0.04649146 15:0.05578976 16:0.07776754 17:0.0877194 18:0.07171193 19:0.06627447 
512 1:0.09912679 2:0.04956339 3:0.04614523 4:0.07349055 5:0.05639972 6:0.03161803 7:0.0247817 8:0.03759982 9:0.05469064 10:0.03247257 11:0.03247257 12:0.0290544 13:0.05725426 14:0.03674527 15:0.04614523 16:0.05298156 17:0.09523161 18:0.07463651 19:0.06959016 
512 1:0.04904818 2:0.03678613 3:0.04169095 4:0.05885781 5:0.03923854 6:0.02207168 7:0.02207168 8:0.06621504 9:0.04904818 10:0.03678613 11:0.03433372 12:0.03188132 13:0.04659577 14:0.053953 15:0.0564054 16:0.13243008 17:0.08529132 18:0.06459499 19:0.07270008 
512 1:0.0714961 2:0.03284956 3:0.05893597 4:0.05507132 5:0.04734201 6:0.0289849 7:0.02415409 8:0.03478188 9:0.05603748 10:0.0396127 11:0.04927434 12:0.05120666 13:0.04251119 14:0.03381572 15:0.06473295 16:0.08019157 17:0.08922866 18:0.07298155 19:0.06679134 
409.2552847752753 1:0.07778343 2:0.05255637 3:0.04309622 4:0.05255637 5:0.0536075 6:0.03994284 7:0.0304827 8:0.04940299 9:0.05886314 10:0.03363608 11:0.03363608 12:0.04309622 13:0.03573833 14:0.04730073 15:0.06201652 16:0.06306765 17:0.08849707 18:0.07472074 19:0.05999902 
512 1:0.08306524 2:0.04784138 3:0.04310981 4:0.05835596 5:0.05309867 6:0.03522387 7:0.02891512 8:0.04100689 9:0.0573045 10:0.02470928 11:0.03469814 12:0.04521273 13:0.03837825 14:0.05047002 15:0.05572732 16:0.07780795 17:0.08705335 18:0.07336779 19:0.06465372 
512 1:0.07886522 2:0.04555569 3:0.050944 4:0.05535261 5:0.050944 6:0.03428923 7:0.02694154 8:0.04800492 9:0.05584246 10:0.03428923 11:0.03673846 12:0.04310646 13:0.04506584 14:0.04604553 15:0.05535261 16:0.06416984 17:0.08913327 18:0.07350119 19:0.06585791 
512 1:0.08210672 2:0.04133264 3:0.04412538 4:0.05138652 5:0.04803523 6:0.03463005 7:0.02513471 8:0.04971087 9:0.04971087 10:0.0351886 11:0.04971087 12:0.04747668 13:0.03909844 14:0.04635958 15:0.06311605 16:0.06870154 17:0.08658375 18:0.07511723 19:0.06247429 
512 1:0.09993062 2:0.04512996 3:0.06285958 4:0.05963601 5:0.0612478 6:0.0402946 7:0.02578855 8:0.02901211 9:0.07575386 10:0.03384747 11:0.02740033 12:0.03868282 13:0.0306239 14:0.03707104 15:0.05963601 16:0.05641245 17:0.08525534 18:0.06821393 19:0.06320363 
512 1:0.07943526 2:0.04547381 3:0.04604943 4:0.05525931 5:0.05468369 6:0.04259572 7:0.02417595 8:0.04950313 9:0.0483519 10:0.03108336 11:0.03683954 12:0.04029325 13:0.04374696 14:0.05180561 15:0.04950313 16:0.07828403 17:0.08687764 18:0.07408283 19:0.06195545 
512 1:0.1025892 2:0.036639 3:0.0586224 4:0.073278 5:0.0561798 6:0.0293112 7:0.0195408 8:0.0268686 9:0.0708354 10:0.0219834 11:0.0464094 12:0.0341964 13:0.0415242 14:0.0439668 15:0.048852 16:0.0708354 17:0.08469438 18:0.06662688 19:0.06704674 
512 1:0.09295083 2:0.0610969 3:0.05483055 4:0.05117518 5:0.07101861 6:0.04386444 7:0.0245432 8:0.04334224 9:0.05483055 10:0.02872076 11:0.02558759 12:0.03916468 13:0.04073126 14:0.04908639 15:0.04386444 16:0.05274176 17:0.08838715 18:0.07242101 19:0.06164246 
512 1:0.07404206 2:0.03610315 3:0.06302754 4:0.06608713 5:0.04161042 6:0.02631247 7:0.02937206 8:0.02937206 9:0.07404206 10:0.02876014 11:0.05262494 12:0.04650576 13:0.04956535 14:0.03549124 15:0.05690836 16:0.06241562 17:0.09070717 18:0.07459722 19:0.06245525 
512 1:0.10211086 2:0.04452509 3:0.06411612 4:0.06470979 5:0.05283643 6:0.01781003 7:0.01781003 8:0.02908972 9:0.07955149 10:0.02196571 11:0.04215041 12:0.04036941 13:0.04096308 14:0.0332454 15:0.05996045 16:0.06767813 17:0.08599649 18:0.07062255 19:0.06448881 
512 1:0.06417129 2:0.04241831 3:0.04404979 4:0.07178484 5:0.04676891 6:0.03262947 7:0.03643624 8:0.03861154 9:0.0576454 10:0.03154182 11:0.0331733 12:0.04241831 13:0.05383863 14:0.04785656 15:0.05111951 16:0.06580277 17:0.09654521 18:0.07458655 19:0.06860155 
512 1:0.10986903 2:0.04394761 3:0.04303204 4:0.0738564 5:0.05127221 6:0.02533092 7:0.02319457 8:0.03601263 9:0.06164873 10:0.02777245 11:0.0369282 12:0.02777245 13:0.0479151 14:0.03875935 15:0.05096702 16:0.07049929 17:0.08890583 18:0.07409598 19:0.06822017 
512 1:0.09328816 2:0.04220179 3:0.04553351 4:0.06219211 5:0.04664408 6:0.02221147 7:0.03664892 8:0.03109605 9:0.0499758 10:0.0333172 11:0.03220663 12:0.05330752 13:0.05330752 14:0.03887007 15:0.0544181 16:0.06330268 17:0.09621604 18:0.0788079 19:0.06645444 
512 1:0.08194793 2:0.04097396 3:0.06339368 4:0.0726708 5:0.04561253 6:0.024739 7:0.01855425 8:0.02705828 9:0.0734439 10:0.02010044 11:0.04329325 12:0.04638562 13:0.05798203 14:0.03015065 15:0.05798203 16:0.05875512 17:0.09405054 18:0.0720491 19:0.0708569 
512 1:0.09050033 2:0.0494822 3:0.05534193 4:0.06836356 5:0.05599301 6:0.02409002 7:0.03060083 8:0.02343894 9:0.06185275 10:0.03060083 11:0.04166922 12:0.03841381 13:0.05534193 14:0.02994975 15:0.04492463 16:0.05924842 17:0.09667399 18:0.07082786 19:0.07268599 
252.3993849980561 1:0.04625752 2:0.0343427 3:0.049061 4:0.04695839 5:0.03854793 6:0.03574444 7:0.03013747 8:0.05606972 9:0.04695839 10:0.04695839 11:0.0588732 12:0.0539671 13:0.04485577 14:0.04345403 15:0.0686854 16:0.06938628 17:0.09083022 18:0.0697979 19:0.06911414 
512 1:0.05107528 2:0.04086022 3:0.03940093 4:0.06056069 5:0.04450846 6:0.04815669 7:0.02991552 8:0.05253457 9:0.04231952 10:0.03356376 11:0.03940093 12:0.04158987 13:0.05326422 14:0.05253457 15:0.04888634 16:0.08901692 17:0.09143085 18:0.07198042 19:0.06900024 
512 1:0.0664766 2:0.04406876 3:0.04182798 4:0.06274196 5:0.0530319 6:0.03734641 7:0.02240784 8:0.05004419 9:0.05377883 10:0.04182798 11:0.03286484 12:0.03435869 13:0.04182798 14:0.03958719 15:0.06572968 16:0.08290902 17:0.09148349 18:0.06932667 19:0.06836 
512 1:0.07060699 2:0.04748789 3:0.05248662 4:0.05061209 5:0.05248662 6:0.04498853 7:0.02749299 8:0.03874012 9:0.05748534 10:0.02749299 11:0.04186432 12:0.05123693 13:0.04061464 14:0.04373885 15:0.05623566 16:0.07185668 17:0.08700478 18:0.07158865 19:0.06597932 
512 1:0.07756591 2:0.03946336 3:0.05307141 4:0.06395786 5:0.05715383 6:0.04354578 7:0.01905128 8:0.03946336 9:0.048989 10:0.03129853 11:0.03810255 12:0.04490658 13:0.0503498 14:0.04490658 15:0.05307141 16:0.06395786 17:0.0915358 18:0.06941765 19:0.07019146 
512 1:0.06874067 2:0.0407105 3:0.05672774 4:0.05205604 5:0.04671696 6:0.02736279 7:0.02803018 8:0.04471481 9:0.06073205 10:0.04538219 11:0.06006467 12:0.04204527 13:0.04137788 14:0.03336926 15:0.06340159 16:0.06139944 17:0.08974055 18:0.07055107 19:0.06687633 
512 1:0.088909 2:0.04593632 3:0.05482722 4:0.07557265 5:0.05038177 6:0.02815452 7:0.01629998 8:0.03704542 9:0.06001358 10:0.02593179 11:0.02963633 12:0.03630451 13:0.06594084 14:0.03185906 15:0.05112268 16:0.05556813 17:0.09720697 18:0.07465567 19:0.07463355 
512 1:0.08999453 2:0.04420784 3:0.05683865 4:0.04420784 5:0.06315406 6:0.03631358 7:0.02052507 8:0.04894439 9:0.04262899 10:0.06789061 11:0.03947129 12:0.02684047 13:0.03947129 14:0.02052507 15:0.05999635 16:0.06946946 17:0.09040296 18:0.07762651 19:0.06149104 
480.0887277848047 1:0.04236399 2:0.02323186 3:0.07516192 4:0.05193005 5:0.03416451 6:0.02323186 7:0.02596503 8:0.07789508 9:0.0901943 10:0.0204987 11:0.02869819 12:0.03143135 13:0.02459845 14:0.09429404 15:0.04236399 16:0.13529145 17:0.06605719 18:0.06268765 19:0.0499404 
512 1:0.07765047 2:0.03811932 3:0.05011985 4:0.05717898 5:0.0472962 6:0.03811932 7:0.02258923 8:0.03670749 9:0.05647307 10:0.02823653 11:0.04800211 12:0.0578849 13:0.04094297 14:0.04023706 15:0.07059134 16:0.06000264 17:0.088897 18:0.07601687 19:0.06493466 
512 1:0.1111794 2:0.04662362 3:0.06724561 4:0.05917613 5:0.05200327 6:0.03138128 7:0.02958807 8:0.02958807 9:0.08248794 10:0.03765754 11:0.03765754 12:0.03048467 13:0.03855415 14:0.02689824 15:0.05379649 16:0.04214058 17:0.08753707 18:0.06631055 19:0.06968977 
512 1:0.0994307 2:0.0527284 3:0.05122187 4:0.06930018 5:0.08135239 6:0.02862399 7:0.01657178 8:0.0527284 9:0.03766314 10:0.05423493 11:0.01657178 12:0.02109136 13:0.05423493 14:0.04368925 15:0.04519577 16:0.02862399 17:0.09966554 18:0.07540714 19:0.07166446 
512 1:0.08022574 2:0.04256876 3:0.04748054 4:0.06057862 5:0.05075506 6:0.04420602 7:0.02619616 8:0.04584328 9:0.05566684 10:0.04748054 11:0.03110794 12:0.0327452 13:0.04420602 14:0.0327452 15:0.06221588 16:0.06221588 17:0.09195651 18:0.07320861 19:0.06859723 
512 1:0.10766875 2:0.0516561 3:0.05725737 4:0.06099154 5:0.056635 6:0.02987341 7:0.02613923 8:0.04543248 9:0.06721517 10:0.03485231 11:0.02116033 12:0.02800632 13:0.04543248 14:0.0416983 15:0.04729956 16:0.05103374 17:0.08906251 18:0.07098705 19:0.06759834 
512 1:0.07528194 2:0.03764097 3:0.05800412 4:0.06664303 5:0.05368467 6:0.02406554 7:0.02283141 8:0.03702391 9:0.05615293 10:0.03578978 11:0.03578978 12:0.04442869 13:0.05245054 14:0.04010923 15:0.05553586 16:0.06664303 17:0.09367154 18:0.07494304 19:0.06930999 
512 1:0.0595512 2:0.0494971 3:0.03712282 4:0.05491084 5:0.05104388 6:0.03712282 7:0.02242837 8:0.0587778 9:0.04640353 10:0.03170908 11:0.04485675 12:0.05104388 13:0.04408335 14:0.05104388 15:0.06960529 16:0.06109798 17:0.09185963 18:0.07574791 19:0.06209386 
470.1088803580342 1:0.08552743 2:0.04682507 3:0.06689296 4:0.04061358 5:0.05733682 6:0.04395823 7:0.02054569 8:0.03965797 9:0.06545954 10:0.03105745 11:0.03918016 12:0.05160314 13:0.03105745 14:0.03965797 15:0.06115928 16:0.06593735 17:0.08246078 18:0.06826281 19:0.06280631 
512 1:0.08596125 2:0.05557091 3:0.04515137 4:0.06251728 5:0.06251728 6:0.02691716 7:0.02170739 8:0.04949284 9:0.05036114 10:0.03039034 11:0.02952205 12:0.03386352 13:0.04949284 14:0.04775625 15:0.04862455 16:0.06512216 17:0.09265091 18:0.07214625 19:0.0702345 
512 1:0.08881901 2:0.04007322 3:0.06250226 4:0.061007 5:0.0538297 6:0.03020444 7:0.02930728 8:0.04186755 9:0.06339943 10:0.0343912 11:0.03708268 12:0.03857795 13:0.04635335 14:0.05054011 15:0.04455903 16:0.05113822 17:0.08835447 18:0.07189481 19:0.06609829 
512 1:0.08487576 2:0.04219258 3:0.0475893 4:0.07604476 5:0.04857052 6:0.02453057 7:0.02256812 8:0.04219258 9:0.0647607 10:0.03090851 11:0.03336157 12:0.02796485 13:0.0520048 14:0.04023013 15:0.05396725 16:0.0735917 17:0.09131249 18:0.07302674 19:0.07030707 
512 1:0.06212074 2:0.03392748 3:0.04587378 4:0.06403215 5:0.04539593 6:0.03249393 7:0.02914896 8:0.04396237 9:0.04826304 10:0.04348452 11:0.0396617 12:0.038706 13:0.05017445 14:0.04109526 15:0.05543082 16:0.09126971 17:0.09265898 18:0.07243106 19:0.06986913 
512 1:0.0621639 2:0.04973112 3:0.0461789 4:0.05861168 5:0.04085057 6:0.04085057 7:0.03374612 8:0.05861168 9:0.06038779 10:0.03197001 11:0.02308945 12:0.03907445 13:0.05328335 14:0.05150724 15:0.05150724 16:0.06571613 17:0.09196387 18:0.074734 19:0.06602193 
512 1:0.05633449 2:0.03915934 3:0.04122036 4:0.06457856 5:0.05702149 6:0.04053335 7:0.02679323 8:0.04396838 9:0.04328137 10:0.0350373 11:0.03572431 12:0.05015143 13:0.04465539 14:0.05358646 15:0.06045652 16:0.07282263 17:0.09384624 18:0.0773252 19:0.06350396 
512 1:0.13102045 2:0.0531164 3:0.06492004 4:0.06728077 5:0.05429676 6:0.02596802 7:0.0330502 8:0.02714838 9:0.09088806 10:0.02832875 11:0.0330502 12:0.02596802 13:0.04013239 14:0.0330502 15:0.04721458 16:0.02360729 17:0.08735517 18:0.06840833 19:0.06519598 
512 1:0.07220721 2:0.03391551 3:0.05032624 4:0.08424175 5:0.04704409 6:0.01969288 7:0.02625717 8:0.03282146 9:0.06564292 10:0.02735122 11:0.03500956 12:0.0404798 13:0.05579648 14:0.044856 15:0.05689053 16:0.06783102 17:0.09533838 18:0.07894991 19:0.06534788 
512 1:0.08338553 2:0.03778407 3:0.06644785 4:0.05081306 5:0.04951016 6:0.03257247 7:0.02084638 8:0.04560146 9:0.06905365 10:0.04169277 11:0.05081306 12:0.03778407 13:0.03517827 14:0.03648117 15:0.06253915 16:0.06253915 17:0.08323345 18:0.06955305 19:0.06417122 
512 1:0.12927715 2:0.04770943 3:0.05437848 4:0.06669059 5:0.05130046 6:0.02000718 7:0.02000718 8:0.02975427 9:0.06976862 10:0.01744216 11:0.03283229 12:0.03539732 13:0.04770943 14:0.03591032 15:0.04822243 16:0.06976862 17:0.08663633 18:0.07168911 19:0.06549864 
512 1:0.10113629 2:0.04777292 3:0.0472647 4:0.06606893 5:0.06301959 6:0.03506736 7:0.02287001 8:0.04192836 9:0.04980581 10:0.02973102 11:0.03023924 12:0.03303446 13:0.04802703 14:0.05031403 15:0.04269069 16:0.0609867 17:0.08998185 18:0.07256203 19:0.06749897 
512 1:0.08020883 2:0.05462074 3:0.04231877 4:0.06544647 5:0.07282765 6:0.04133461 7:0.02657225 8:0.04084253 9:0.0462554 10:0.02558809 11:0.02952472 12:0.03985838 13:0.04281085 14:0.0600336 15:0.04330293 16:0.05462074 17:0.09275646 18:0.07154864 19:0.06952834 
512 1:0.07776029 2:0.05043911 3:0.05464236 4:0.05884562 5:0.04938829 6:0.02627037 7:0.02942281 8:0.03152444 9:0.06199807 10:0.03362607 11:0.0430834 12:0.04413422 13:0.05254073 14:0.02627037 15:0.05569318 16:0.06620133 17:0.09482792 18:0.07424149 19:0.06908994 
512 1:0.08886055 2:0.03992285 3:0.05537686 4:0.06567953 5:0.05280119 6:0.01674184 7:0.03348368 8:0.02704451 9:0.05151336 10:0.03219585 11:0.06181603 12:0.05022553 13:0.0566647 14:0.04121069 15:0.04507419 16:0.03992285 17:0.09642623 18:0.07205388 19:0.07298566 
512 1:0.08879494 2:0.04082042 3:0.0462912 4:0.06522851 5:0.04755369 6:0.02567058 7:0.01557068 8:0.04292457 9:0.05470778 10:0.02693306 11:0.03450799 12:0.03871628 13:0.05007866 14:0.03829545 15:0.05849525 16:0.09510738 17:0.08847146 18:0.07118628 19:0.07064582 
512 1:0.06554226 2:0.03619498 3:0.03961883 4:0.07972678 5:0.04793389 6:0.02787992 7:0.02641255 8:0.03374937 9:0.05282511 10:0.03228201 11:0.03081465 12:0.04206444 13:0.05478159 14:0.03961883 15:0.06114017 16:0.08510712 17:0.09762728 18:0.07470987 19:0.07197035 
512 1:0.07877718 2:0.03748269 3:0.05145929 4:0.06988298 5:0.05844759 6:0.02668259 7:0.02414139 8:0.03875329 9:0.05145929 10:0.03811799 11:0.03240029 12:0.04320039 13:0.04891809 14:0.04574159 15:0.05717699 16:0.05971818 17:0.0947687 18:0.0729402 19:0.06993129 
512 1:0.11079427 2:0.04449219 3:0.05408854 4:0.07764323 5:0.0628125 6:0.02442708 7:0.01570312 8:0.02878906 9:0.0619401 10:0.02529948 11:0.02966146 12:0.02878906 13:0.05147135 14:0.03751302 15:0.04623698 16:0.06630208 17:0.09117038 18:0.07234556 19:0.07052052 
512 1:0.06387741 2:0.03479889 3:0.03861246 4:0.06101723 5:0.04528622 6:0.02812513 7:0.01811449 8:0.04480953 9:0.04051925 10:0.03050861 11:0.05720365 12:0.05148328 13:0.0486231 14:0.04290274 15:0.0657842 16:0.0972462 17:0.09029786 18:0.07428715 19:0.0665026 
28.7215978790715 1:0.0800933 2:0.01941656 3:0.04611432 4:0.04611432 5:0.02184363 6:0.02669777 7:0.03640604 8:0.06795795 9:0.06310381 10:0.0558226 11:0.05339553 12:0.05339553 13:0.02669777 14:0.05096846 15:0.08980158 16:0.05339553 17:0.08353393 18:0.07882494 19:0.04641643 
512 1:0.0561485 2:0.03350798 3:0.03984732 4:0.06067661 5:0.04799791 6:0.03622484 7:0.02037647 8:0.04663948 9:0.03758327 10:0.03079111 11:0.04799791 12:0.05660131 13:0.04845072 14:0.05071478 15:0.0647519 16:0.08965648 17:0.09139265 18:0.0752982 19:0.06534253 
512 1:0.08042691 2:0.04496988 3:0.03891625 4:0.06659002 5:0.05361794 6:0.04324027 7:0.03372741 8:0.04669949 9:0.04842911 10:0.04410508 11:0.02248494 12:0.031133 13:0.04842911 14:0.04496988 15:0.05102352 16:0.06572521 17:0.09487345 18:0.07322518 19:0.06741336 
512 1:0.0561485 2:0.03350798 3:0.03984732 4:0.06067661 5:0.04799791 6:0.03622484 7:0.02037647 8:0.04663948 9:0.03758327 10:0.03079111 11:0.04799791 12:0.05660131 13:0.04845072 14:0.05071478 15:0.0647519 16:0.08965648 17:0.09139265 18:0.0752982 19:0.06534253 
512 1:0.10297148 2:0.0472656 3:0.06245811 4:0.03376114 5:0.06921034 6:0.0354492 7:0.02025669 8:0.05232977 9:0.04388949 10:0.05064171 11:0.0354492 12:0.04557754 13:0.03038503 14:0.04388949 15:0.05739394 16:0.05401783 17:0.08423446 18:0.07337492 19:0.05744406 
512 1:0.08059594 2:0.04430867 3:0.04812838 4:0.0691368 5:0.05156612 6:0.03475939 7:0.02253631 8:0.03781516 9:0.05805963 10:0.03093967 11:0.0332315 12:0.0359053 13:0.05194809 14:0.03666924 15:0.05423992 16:0.07524834 17:0.0925816 18:0.07036688 19:0.07196304 
512 1:0.08039994 2:0.0338526 3:0.05501048 4:0.06558942 5:0.04654733 6:0.0179842 7:0.02962103 8:0.03173682 9:0.06241574 10:0.0349105 11:0.06135785 12:0.04972101 13:0.04548944 14:0.03914207 15:0.06241574 16:0.05077891 17:0.09283149 18:0.07127117 19:0.06892426 
512 1:0.1344808 2:0.04876776 3:0.06502368 4:0.05172338 5:0.04137871 6:0.03103403 7:0.03103403 8:0.04433433 9:0.0812796 10:0.03398965 11:0.03842308 12:0.02512279 13:0.04285652 14:0.03398965 15:0.04433433 16:0.03546746 17:0.08083909 18:0.0708203 19:0.0651008 
52.57528886704197 1:0.09196151 2:0.05429053 3:0.05872241 4:0.0553985 5:0.08088181 6:0.0443188 7:0.02769925 8:0.04542677 9:0.04099489 10:0.04653474 11:0.02548331 12:0.02991519 13:0.04542677 14:0.05318256 15:0.03213113 16:0.03767098 17:0.092121 18:0.07221497 19:0.06562492 
512 1:0.08146225 2:0.04567976 3:0.05786103 4:0.06319034 5:0.0517704 6:0.02436254 7:0.02512387 8:0.03502115 9:0.06775832 10:0.02740786 11:0.0388278 12:0.04187312 13:0.04720242 14:0.0388278 15:0.05405439 16:0.06928098 17:0.09017831 18:0.07005904 19:0.07005862 
512 1:0.07317334 2:0.03136 3:0.05880001 4:0.07709334 5:0.04965334 6:0.03136 7:0.02090667 8:0.03266667 9:0.06141334 10:0.03005334 11:0.04312001 12:0.04442667 13:0.05488001 14:0.04181334 15:0.05749334 16:0.05357334 17:0.09404982 18:0.07345148 19:0.07071193 
512 1:0.05981531 2:0.03356542 3:0.04303259 4:0.06713085 5:0.05293009 6:0.02754086 7:0.02581956 8:0.04174162 9:0.04432357 10:0.03184412 11:0.04690553 12:0.04948748 13:0.0464752 14:0.05508172 15:0.05680302 16:0.08520454 17:0.0917243 18:0.07292181 19:0.06765241 
512 1:0.06044133 2:0.03245923 3:0.03973458 4:0.07834987 5:0.04868885 6:0.02742246 7:0.02238568 8:0.04309243 9:0.04253279 10:0.03525744 11:0.03805565 12:0.04085386 13:0.05932205 14:0.04645028 15:0.05652384 16:0.08562522 17:0.0976092 18:0.07215315 19:0.0730421 
-512 1:0.09695047 2:0.043893 3:0.0569162 4:0.06149844 5:0.05619269 6:0.03038746 7:0.02532289 8:0.04413417 9:0.0569162 10:0.032558 11:0.03231682 12:0.03448736 13:0.04895758 14:0.04919875 15:0.04196364 16:0.05956907 17:0.08847916 18:0.07129233 19:0.06896578 
-512 1:0.12719865 2:0.04938301 3:0.08230501 4:0.05836173 5:0.06584401 6:0.02244682 7:0.02693618 8:0.02095037 9:0.07781564 10:0.04040428 11:0.04339719 12:0.02543973 13:0.0463901 14:0.02394328 15:0.03441846 16:0.02992909 17:0.08942948 18:0.06865451 19:0.06675248 
-512 1:0.09451137 2:0.04961847 3:0.06143239 4:0.04725568 5:0.04725568 6:0.0307162 7:0.03307898 8:0.04253012 9:0.06852074 10:0.04725568 11:0.03544176 12:0.0307162 13:0.04016733 14:0.02599063 15:0.05434404 16:0.06852074 17:0.08679701 18:0.07189643 19:0.06395054 
-512 1:0.06929634 2:0.03579042 3:0.06244286 4:0.06320436 5:0.04797439 6:0.01903746 7:0.02360645 8:0.03350592 9:0.06701185 10:0.02817544 11:0.05711237 12:0.05025888 13:0.0456899 14:0.04112091 15:0.06015836 16:0.06777334 17:0.08914302 18:0.07294423 19:0.06575351 
-512 1:0.08499862 2:0.04018117 3:0.04481746 4:0.05718089 5:0.05563546 6:0.03090859 7:0.02163601 8:0.03863574 9:0.04945374 10:0.04018117 11:0.04790832 12:0.04790832 13:0.03554488 14:0.03554488 15:0.07263519 16:0.06954433 17:0.09000893 18:0.07307649 19:0.06419982 
-512 1:0.05571831 2:0.05675013 3:0.03405008 4:0.05675013 5:0.04952738 6:0.02682733 7:0.02373187 8:0.06087741 9:0.0454001 10:0.03095461 11:0.02992279 12:0.05159102 13:0.05262284 14:0.04643192 15:0.07016379 16:0.06810015 17:0.09782105 18:0.0766156 19:0.06614349 
-512 1:0.07027757 2:0.01860289 3:0.03927276 4:0.05787564 5:0.04133975 6:0.03513878 7:0.02066987 8:0.06614359 9:0.02893782 10:0.05374167 11:0.02273686 12:0.0496077 13:0.04547372 14:0.05580866 15:0.07234456 16:0.09301443 17:0.09144402 18:0.06997682 19:0.06759289 
-512 1:0.09745807 2:0.05067819 3:0.04359034 4:0.07335934 5:0.05882923 6:0.03969201 7:0.02338994 8:0.03792005 9:0.0503238 10:0.02835144 11:0.0304778 12:0.0301234 13:0.05812045 14:0.04110958 15:0.04217276 16:0.05422212 17:0.0954331 18:0.07533249 19:0.06941588 
-512 1:0.13044569 2:0.06948976 3:0.04998386 4:0.06217505 5:0.07131844 6:0.02803973 7:0.02438237 8:0.035964 9:0.06339417 10:0.02621105 11:0.02803973 12:0.02011546 13:0.04693607 14:0.035964 15:0.03535444 16:0.04876474 17:0.09047991 18:0.0792127 19:0.05372884 
-512 1:0.10350806 2:0.05039208 3:0.05583987 4:0.05924474 5:0.06264961 6:0.03064383 7:0.02179117 8:0.04085844 9:0.05447792 10:0.03336773 11:0.03336773 12:0.03609162 13:0.04766818 14:0.04153942 15:0.04698721 16:0.05039208 17:0.09078097 18:0.07314405 19:0.06725527 
-512 1:0.08808529 2:0.04421011 3:0.04722443 4:0.06162621 5:0.05157846 6:0.03315758 7:0.0214352 8:0.04086085 9:0.05392293 10:0.02779878 11:0.03818145 12:0.04354026 13:0.04755936 14:0.04186563 15:0.05660233 16:0.07301366 17:0.09003482 18:0.07255663 19:0.06674602 
-249.3857201708295 1:0.09329438 2:0.05547234 3:0.04538646 4:0.07312262 5:0.06051528 6:0.03530058 7:0.02269323 8:0.04286499 9:0.0504294 10:0.0252147 11:0.03025764 12:0.0252147 13:0.06051528 14:0.04538646 15:0.03530058 16:0.06303674 17:0.09410601 18:0.06770014 19:0.0741885 
-512 1:0.08982107 2:0.04537353 3:0.04722551 4:0.05926339 5:0.04907749 6:0.02777971 7:0.02963169 8:0.04166957 9:0.06018938 10:0.03518764 11:0.04074358 12:0.03796561 13:0.04259556 14:0.03981759 15:0.05648542 16:0.06944928 17:0.08847191 18:0.07253609 19:0.06671595 
-512 1:0.07832627 2:0.04475787 3:0.03933267 4:0.0671368 5:0.04814861 6:0.02712598 7:0.02441338 8:0.04441879 9:0.05153936 10:0.03289025 11:0.03865452 12:0.03729822 13:0.05120029 14:0.03933267 15:0.05798178 16:0.08239516 17:0.0931216 18:0.07475455 19:0.06717121 
-512 1:0.08820691 2:0.05655619 3:0.03995254 4:0.07575417 5:0.06122597 6:0.03268844 7:0.02386775 8:0.03528276 9:0.0477355 10:0.02438662 11:0.02283002 12:0.02905639 13:0.06278256 14:0.03943368 15:0.03787708 16:0.07834849 17:0.09782466 18:0.07644799 19:0.06974227 
-512 1:0.05036202 2:0.07475613 3:0.02990245 4:0.06137872 5:0.07475613 6:0.04091914 7:0.01337741 8:0.0834121 9:0.02754173 10:0.01731195 11:0.01967267 12:0.02832864 13:0.06373944 14:0.07947757 15:0.02990245 16:0.06846088 17:0.09369436 18:0.07892832 19:0.06407789 
-512 1:0.09167529 2:0.04667106 3:0.05250494 4:0.06583953 5:0.06188082 6:0.03500329 7:0.02083529 8:0.04208729 9:0.05417176 10:0.03312812 11:0.03000282 12:0.031878 13:0.04896294 14:0.04500423 15:0.04583764 16:0.06354764 17:0.09082266 18:0.07516667 19:0.06498002 
-512 1:0.10518395 2:0.04306745 3:0.09110421 4:0.05714719 5:0.04058279 6:0.01739262 7:0.0248466 8:0.03064414 9:0.10352751 10:0.03064414 11:0.04886499 12:0.03478524 13:0.04720855 14:0.02236194 15:0.05300609 16:0.0331288 17:0.08640641 18:0.06921786 19:0.0608795 
-512 1:0.06357258 2:0.04168694 3:0.0552352 4:0.0666991 5:0.05419302 6:0.03334955 7:0.0198013 8:0.04064477 9:0.06565693 10:0.03334955 11:0.04689781 12:0.03856042 13:0.04377129 14:0.03960259 15:0.06253041 16:0.06461476 17:0.09037811 18:0.06987291 19:0.06958276 
-512 1:0.07353094 2:0.05538694 3:0.05729683 4:0.06684631 5:0.06207157 6:0.036288 7:0.02100884 8:0.03724294 9:0.05920673 10:0.03151326 11:0.03342315 12:0.02960336 13:0.05825178 14:0.03342315 15:0.04201768 16:0.06207157 17:0.09492258 18:0.07392395 19:0.07197042 
-512 1:0.05351505 2:0.03476191 3:0.03887846 4:0.05946117 5:0.03659149 6:0.02378447 7:0.02561404 8:0.04894112 9:0.04802633 10:0.03018798 11:0.04528197 12:0.05580202 13:0.04848372 14:0.04619675 15:0.06952383 16:0.10382835 17:0.09166341 18:0.07272425 19:0.06673369 
-512 1:0.0774384 2:0.04637554 3:0.042438 4:0.06518826 5:0.05600065 6:0.03500041 7:0.02493779 8:0.03500041 9:0.04812556 10:0.03018785 11:0.04156299 12:0.04593804 13:0.04987558 14:0.03937546 15:0.05687566 16:0.06693828 17:0.09478144 18:0.073451 19:0.07050868 
-512 1:0.05405868 2:0.03603912 3:0.03834932 4:0.06145132 5:0.0438938 6:0.03049464 7:0.023102 8:0.04666604 9:0.04666604 10:0.0277224 11:0.04990032 12:0.05821704 13:0.04481788 14:0.04990032 15:0.07161621 16:0.08686353 17:0.09137239 18:0.07200159 19:0.06686732 
-512 1:0.06954855 2:0.05022951 3:0.05563884 4:0.04945675 5:0.05563884 6:0.03863809 7:0.02163733 8:0.05177504 9:0.06104818 10:0.03245599 11:0.03786532 12:0.04482018 13:0.03863809 14:0.0463657 15:0.06104818 16:0.06182094 17:0.08715171 18:0.07118871 19:0.06503405 
-512 1:0.09210779 2:0.05035226 3:0.05035226 4:0.05649278 5:0.05649278 6:0.03684312 7:0.02333397 8:0.03561501 9:0.05772088 10:0.02210587 11:0.0307026 12:0.04912415 13:0.04298363 14:0.04298363 15:0.05526467 16:0.07123002 17:0.08823861 18:0.07837571 19:0.05968026 
-512 1:0.08097765 2:0.04048883 3:0.04596029 4:0.06456326 5:0.044866 6:0.03064019 7:0.03611166 8:0.04705458 9:0.06018609 10:0.0437717 11:0.03720595 12:0.03064019 13:0.044866 14:0.0437717 15:0.05362034 16:0.06237468 17:0.09046828 18:0.07331963 19:0.06911296 
-512 1:0.07211004 2:0.04645551 3:0.04784224 4:0.07419014 5:0.0547759 6:0.0305081 7:0.0242678 8:0.03744175 9:0.05546926 10:0.03258819 11:0.03397492 12:0.03397492 13:0.05754936 14:0.03744175 15:0.0506157 16:0.06725648 17:0.09659407 18:0.07310873 19:0.07383511 
-512 1:0.06234208 2:0.05100716 3:0.05384089 4:0.06659268 5:0.05100716 6:0.04675656 7:0.02408671 8:0.0410891 9:0.06942641 10:0.02266985 11:0.03542164 12:0.04392283 13:0.04959029 14:0.04250597 15:0.05950835 16:0.04817343 17:0.09205964 18:0.07075187 19:0.06924738 
-512 1:0.05405679 2:0.03308648 3:0.04240662 4:0.06104689 5:0.0414746 6:0.02889242 7:0.02563037 8:0.05405679 9:0.0479987 10:0.04380464 11:0.04566866 12:0.0414746 13:0.04660068 14:0.04427064 15:0.06570696 16:0.09180334 17:0.0904887 18:0.07229459 19:0.06923753 
-512 1:0.09725849 2:0.04168221 3:0.05069458 4:0.06120901 5:0.04656391 6:0.02966572 7:0.02741263 8:0.04093118 9:0.05858041 10:0.03567397 11:0.0341719 12:0.03980463 13:0.04844149 14:0.03755154 15:0.0559518 16:0.06308659 17:0.09078232 18:0.07385913 19:0.06667849 
-512 1:0.1327783 2:0.02655566 3:0.07001038 4:0.05069717 5:0.03862642 6:0.02414151 7:0.03379811 8:0.03862642 9:0.06518208 10:0.03621226 11:0.03621226 12:0.03621226 13:0.04345472 14:0.04828302 15:0.03379811 16:0.07966698 17:0.07789057 18:0.06588797 19:0.0619658 
-512 1:0.10896357 2:0.0533296 3:0.05431719 4:0.06419304 5:0.06748499 6:0.03818663 7:0.02337285 8:0.03884502 9:0.06452224 10:0.03094434 11:0.03061514 12:0.02732319 13:0.03983261 14:0.04542892 15:0.04509973 16:0.04740409 17:0.08782893 18:0.07360276 19:0.05870515 
-512 1:0.07702654 2:0.0473163 3:0.04456535 4:0.06162123 5:0.04621592 6:0.03466194 7:0.02255777 8:0.05006725 9:0.05721971 10:0.02695929 11:0.03081061 12:0.03191099 13:0.04951706 14:0.04456535 15:0.04951706 16:0.09903412 17:0.0870614 18:0.0718443 19:0.06752781 
-512 1:0.0997351 2:0.04350394 3:0.06155345 4:0.06271047 5:0.04928904 6:0.03239655 7:0.02545443 8:0.03633042 9:0.0703468 10:0.03147094 11:0.034942 12:0.034942 13:0.04813202 14:0.03609901 15:0.04975185 16:0.05761958 17:0.08861925 18:0.07198994 19:0.06511321 
-512 1:0.0789373 2:0.04609478 3:0.05704229 4:0.0639565 5:0.05416136 6:0.0224712 7:0.02535213 8:0.03802819 9:0.06338032 10:0.03284253 11:0.04667096 12:0.03918056 13:0.04955188 14:0.03860438 15:0.05300899 16:0.05877084 17:0.09233442 18:0.07211407 19:0.06749729 
-512 1:0.07634404 2:0.04233624 3:0.05968716 4:0.05621698 5:0.05205276 6:0.02845551 7:0.02498532 8:0.03539587 9:0.06107523 10:0.03470184 11:0.05413487 12:0.04927661 13:0.04511239 14:0.03539587 15:0.0603812 16:0.05552294 17:0.09092575 18:0.07541244 19:0.06258699 
-512 1:0.08709362 2:0.03974175 3:0.05411642 4:0.05918984 5:0.05580756 6:0.03044049 7:0.01944809 8:0.04481516 9:0.05496199 10:0.03382276 11:0.03382276 12:0.04143289 13:0.04143289 14:0.0465063 15:0.0574987 16:0.07441008 17:0.08675812 18:0.0685379 19:0.07016268 
-512 1:0.14311043 2:0.05074433 3:0.06670884 4:0.05302498 5:0.06670884 6:0.02736773 7:0.01539435 8:0.03649031 9:0.07697174 10:0.02622741 11:0.01767499 12:0.0307887 13:0.02679757 14:0.04162176 15:0.05188466 16:0.06043707 17:0.07807901 18:0.06907747 19:0.06088979 
-512 1:0.04063395 2:0.04672904 3:0.02844376 4:0.05891922 5:0.05282413 6:0.05282413 7:0.01828528 8:0.06095092 9:0.02438037 10:0.03250716 11:0.03657055 12:0.04469734 13:0.05688753 14:0.05282413 15:0.05485583 16:0.10158487 17:0.09432163 18:0.07133594 19:0.07042421 
-512 1:0.08195267 2:0.04062002 3:0.0513095 4:0.07197582 5:0.04418318 6:0.02280422 7:0.0313558 8:0.0356316 9:0.06556214 10:0.0313558 11:0.04133265 12:0.03634423 13:0.05344739 14:0.03919476 15:0.0513095 16:0.06627477 17:0.09254373 18:0.07252757 19:0.07027465 
-268.186204302828 1:0.0938539 2:0.05615191 3:0.05695408 4:0.07299748 5:0.06497578 6:0.01844991 7:0.02165859 8:0.02807595 9:0.06497578 10:0.02566944 11:0.04171285 12:0.02887812 13:0.05615191 14:0.03288897 15:0.04091068 16:0.05695408 17:0.0949182 18:0.07120556 19:0.07261681 
-512 1:0.06976536 2:0.03654376 3:0.05979888 4:0.05315456 5:0.06090627 6:0.02657728 7:0.02436251 8:0.05315456 9:0.04540286 10:0.04429547 11:0.0332216 12:0.04761763 13:0.04318808 14:0.05758411 15:0.05315456 16:0.06422843 17:0.0902716 18:0.07126778 19:0.06550468 
-512 1:0.05683522 2:0.03995347 3:0.0382653 4:0.06583882 5:0.04558072 6:0.022509 7:0.0270108 8:0.04164165 9:0.04895707 10:0.03320077 11:0.05514705 12:0.04558072 13:0.04895707 14:0.04107892 15:0.0630252 16:0.08947327 17:0.09392774 18:0.06883661 19:0.0741806 
-512 1:0.10009249 2:0.05620166 3:0.04201744 4:0.06556861 5:0.06824488 6:0.03907354 7:0.01926914 8:0.04282032 9:0.04656709 10:0.03398863 11:0.02890371 12:0.02729795 13:0.04897574 14:0.04014405 15:0.04656709 16:0.06101895 17:0.0925712 18:0.0758964 19:0.06478112 
-512 1:0.09988268 2:0.04914862 3:0.04795954 4:0.06857025 5:0.05350858 6:0.04161778 7:0.02893427 8:0.04003234 9:0.05469766 10:0.02695247 11:0.03051971 12:0.03210515 13:0.05707582 14:0.0463741 15:0.03725783 16:0.05113042 17:0.0920771 18:0.07663244 19:0.06552323 
-512 1:0.04542576 2:0.03028384 3:0.04720716 4:0.06368513 5:0.04631646 6:0.02805709 7:0.02449428 8:0.05076997 9:0.04498041 10:0.03919085 11:0.04809786 12:0.04587111 13:0.04987927 14:0.05210602 15:0.05834093 16:0.09218757 17:0.09118088 18:0.07200284 19:0.06992257 
-512 1:0.12795057 2:0.04999393 3:0.08134606 4:0.04575716 5:0.05338335 6:0.02796271 7:0.02372593 8:0.0355889 9:0.08388812 10:0.02457329 11:0.04067303 12:0.03643626 13:0.03982567 14:0.03813096 15:0.03982567 16:0.04236774 17:0.07942398 18:0.06653437 19:0.06261229 
-512 1:0.08702165 2:0.05049404 3:0.04404799 4:0.06875784 5:0.04297365 6:0.02685853 7:0.03223024 8:0.03330458 9:0.07198087 10:0.02470985 11:0.04082497 12:0.03760195 13:0.04834536 14:0.03330458 15:0.05801443 16:0.06553482 17:0.09227182 18:0.07052798 19:0.07119485 
-512 1:0.08315761 2:0.05349057 3:0.04944507 4:0.05349057 5:0.05349057 6:0.03326305 7:0.02607104 8:0.04360156 9:0.0705716 10:0.02652054 11:0.04090456 12:0.04180356 13:0.03191454 14:0.04315206 15:0.06382909 16:0.06742509 17:0.08449042 18:0.06882589 19:0.06455262 
-512 1:0.0882551 2:0.04676766 3:0.03847017 4:0.07467739 5:0.05053924 6:0.02866405 7:0.02715541 8:0.03922449 9:0.0573281 10:0.03243563 11:0.02866405 12:0.03243563 13:0.05129356 14:0.03771585 15:0.0573281 16:0.06939717 17:0.09476134 18:0.07478351 19:0.07010353 
-512 1:0.08105337 2:0.05096538 3:0.04236881 4:0.06693044 5:0.05526366 6:0.03500032 7:0.02578971 8:0.04605305 9:0.05526366 10:0.03070204 11:0.04052669 12:0.03131608 13:0.04912326 14:0.04543901 15:0.0497373 16:0.06017599 17:0.09182965 18:0.07068455 19:0.07177704 
-512 1:0.07999867 2:0.03973088 3:0.04724754 4:0.06657608 5:0.05476419 6:0.03167733 7:0.01986544 8:0.03650946 9:0.0553011 10:0.03382494 11:0.04778444 12:0.03758327 13:0.04348921 14:0.03758327 15:0.05959633 16:0.07946177 17:0.08992291 18:0.06998799 19:0.06909519 
-512 1:0.10856774 2:0.05741017 3:0.04803128 4:0.0650838 5:0.07275744 6:0.03467347 7:0.0196104 8:0.03751556 9:0.04831549 10:0.03097875 11:0.02984192 12:0.02842088 13:0.04945232 14:0.04149448 15:0.04007343 16:0.05485229 17:0.09208985 18:0.07747797 19:0.06335276 
-512 1:0.09937256 2:0.05205229 3:0.04732027 4:0.03785621 5:0.06624837 6:0.03312419 7:0.04258824 8:0.04258824 9:0.04258824 10:0.01892811 11:0.03312419 12:0.06151635 13:0.02839216 14:0.08044445 15:0.03312419 16:0.0709804 17:0.08158425 18:0.06578835 19:0.06237896 
-512 1:0.10133733 2:0.05151034 3:0.04747031 4:0.06834378 5:0.05992706 6:0.04376695 7:0.02558683 8:0.03939026 9:0.0552137 10:0.02962686 11:0.02794352 12:0.03164687 13:0.05184701 14:0.04376695 15:0.04376695 16:0.04444029 17:0.09270784 18:0.07365701 19:0.06805011 
-512 1:0.10175391 2:0.04663721 3:0.0617413 4:0.06783594 5:0.0617413 6:0.03418295 7:0.02199368 8:0.03471292 9:0.06306622 10:0.03444794 11:0.02941324 12:0.02755835 13:0.05114194 14:0.03736276 15:0.04160251 16:0.05326181 17:0.09107214 18:0.0735202 19:0.06695366 
-512 1:0.04648621 2:0.04281624 3:0.04281624 4:0.04893285 5:0.05260281 6:0.034253 7:0.02935971 8:0.0574961 9:0.04526289 10:0.0403696 11:0.04526289 12:0.04526289 13:0.03547632 14:0.05627278 15:0.05994274 16:0.09541906 17:0.08647673 18:0.06916539 19:0.06632556 
-512 1:0.07941129 2:0.03722404 3:0.05211366 4:0.04466885 5:0.04218725 6:0.04715046 7:0.02233443 8:0.04218725 9:0.04963206 10:0.02729763 11:0.04466885 12:0.06204007 13:0.04218725 14:0.04218725 15:0.06452168 16:0.07941129 17:0.08414415 18:0.07611089 19:0.06052162 
-512 1:0.09312029 2:0.03362677 3:0.05820018 4:0.06111019 5:0.0423568 6:0.02619008 7:0.02295674 8:0.03168676 9:0.06466687 10:0.03007009 11:0.04268013 12:0.04947015 13:0.04591348 14:0.03330344 15:0.0630502 16:0.07501357 17:0.08861988 18:0.07069097 19:0.06727342 
-512 1:0.0593395 2:0.0535454 3:0.05134765 4:0.0485505 5:0.07712137 6:0.03955966 7:0.02597352 8:0.05874011 9:0.03116822 10:0.0375617 11:0.02217739 12:0.04495416 13:0.04495416 14:0.07072788 15:0.03656272 16:0.06813053 17:0.09087402 18:0.07260607 19:0.06610544 
-170.3852528642867 1:0.09071805 2:0.05016175 3:0.05282992 4:0.07364171 5:0.06403627 6:0.03361904 7:0.01974452 8:0.03735449 9:0.06030082 10:0.02828269 11:0.03361904 12:0.02561451 13:0.05229629 14:0.04269085 15:0.04162358 16:0.05976719 17:0.09205955 18:0.07351858 19:0.06812116 
-512 1:0.09669482 2:0.04462838 3:0.06099212 4:0.06619876 5:0.0468598 6:0.02454561 7:0.02528942 8:0.0349589 9:0.07512444 10:0.02677703 11:0.03644651 12:0.03719032 13:0.04983502 14:0.0357027 15:0.05281025 16:0.05727309 17:0.08942248 18:0.07026314 19:0.06898721 
-512 1:0.07310723 2:0.0452351 3:0.05345966 4:0.06396883 5:0.0520889 6:0.02969981 7:0.03015673 8:0.04249358 9:0.05620118 10:0.03289825 11:0.03746746 12:0.04020898 13:0.0543735 14:0.04660586 15:0.04569202 16:0.06031347 17:0.09345774 18:0.07349399 19:0.06907771 
-512 1:0.05059773 2:0.0335785 3:0.03863827 4:0.06531708 5:0.05105771 6:0.0289787 7:0.02253899 8:0.04553796 9:0.03265854 10:0.0289787 11:0.03633837 12:0.06117726 13:0.05381759 14:0.05657747 15:0.06163724 16:0.09475576 17:0.09540287 18:0.0737321 19:0.06867917 
-512 1:0.07089877 2:0.0480282 3:0.0495529 4:0.06327525 5:0.05565172 6:0.04116703 7:0.02896939 8:0.03735527 9:0.05107761 10:0.0335435 11:0.03125645 12:0.04116703 13:0.05412702 14:0.04040468 15:0.04726585 16:0.0655623 17:0.09608807 18:0.07248771 19:0.07212127 
-512 1:0.10792438 2:0.05692214 3:0.04872535 4:0.06511893 5:0.05646676 6:0.03415328 7:0.03142102 8:0.04007319 9:0.07331572 10:0.03142102 11:0.03324253 12:0.02367961 13:0.04052856 14:0.03961781 15:0.04872535 16:0.0437162 17:0.08809297 18:0.07160358 19:0.0652516 
-512 1:0.08761362 2:0.04380681 3:0.05466159 4:0.06202734 5:0.0558246 6:0.03178901 7:0.02636162 8:0.03954243 9:0.061252 10:0.03217668 11:0.03450271 12:0.04380681 13:0.04303147 14:0.04574516 15:0.05659995 16:0.05311091 17:0.09073391 18:0.07175324 19:0.06566016 
-512 1:0.08692684 2:0.04346342 3:0.07726831 4:0.06036586 5:0.0627805 6:0.04104879 7:0.02414635 8:0.02897561 9:0.0700244 10:0.03621952 11:0.03380488 12:0.03139025 13:0.04829269 14:0.03621952 15:0.03621952 16:0.05553659 17:0.08830543 18:0.06764684 19:0.07136467 
-512 1:0.08737426 2:0.03985493 3:0.04292069 4:0.05978239 5:0.05365086 6:0.03219052 7:0.02605899 8:0.03525628 9:0.04292069 10:0.03219052 11:0.03832205 12:0.04598645 13:0.04445357 14:0.04292069 15:0.05365086 16:0.09350579 17:0.08909857 18:0.07194322 19:0.06791865 
-512 1:0.08995948 2:0.02753861 3:0.05140541 4:0.06425677 5:0.03488225 6:0.02753861 7:0.03121043 8:0.04222588 9:0.06425677 10:0.03304634 11:0.05324132 12:0.04222588 13:0.04406178 14:0.0477336 15:0.05691314 16:0.06792858 17:0.08570488 18:0.0712075 19:0.06466277 
-512 1:0.07257682 2:0.03766645 3:0.05328425 4:0.05604033 5:0.04869078 6:0.02939821 7:0.02480474 8:0.04869078 9:0.0459347 10:0.04225992 11:0.04685339 12:0.04042253 13:0.05236555 14:0.04225992 15:0.05052817 16:0.07992637 17:0.091152 18:0.07065613 19:0.06648897 
-512 1:0.11418851 2:0.03840886 3:0.07058926 4:0.05190387 5:0.05398002 6:0.02491386 7:0.02595194 8:0.03114232 9:0.06124657 10:0.03114232 11:0.03737079 12:0.04982772 13:0.04567541 14:0.0415231 15:0.04567541 16:0.05605618 17:0.08726523 18:0.06859372 19:0.06454492 
-165.9882461936872 1:0.10221177 2:0.04523164 3:0.05463043 4:0.06109209 5:0.05169331 6:0.0293712 7:0.02408438 8:0.03642028 9:0.05521785 10:0.03289574 11:0.03054604 12:0.03642028 13:0.054043 14:0.03407059 15:0.04581907 16:0.07342799 17:0.09108278 18:0.07450881 19:0.06723274 
-512 1:0.06533093 2:0.03940596 3:0.03629496 4:0.06740493 5:0.05599794 6:0.04044296 7:0.02955447 8:0.04303546 9:0.04510945 10:0.03214697 11:0.03370247 12:0.04459096 13:0.04147996 14:0.05703494 15:0.05651644 16:0.08244142 17:0.09055001 18:0.0737814 19:0.06517836 
-512 1:0.06824254 2:0.04322028 3:0.04322028 4:0.05686879 5:0.05686879 6:0.04322028 7:0.02274751 8:0.04549503 9:0.03639602 10:0.03639602 11:0.06369304 12:0.05231928 13:0.04776978 14:0.04549503 15:0.06141829 16:0.03867077 17:0.09287712 18:0.07381027 19:0.07127089 
-512 1:0.08419564 2:0.03962148 3:0.05357905 4:0.06933759 5:0.05222831 6:0.03106684 7:0.0265644 8:0.03827075 9:0.06483515 10:0.02836538 11:0.0378205 12:0.03872099 13:0.04547465 14:0.0490766 15:0.05177807 16:0.06303417 17:0.08894905 18:0.07071052 19:0.06637086 
-512 1:0.08737297 2:0.05231914 3:0.05336553 4:0.06539893 5:0.06382936 6:0.03819297 7:0.02720595 8:0.03714659 9:0.06644531 10:0.03243787 11:0.03714659 12:0.02668276 13:0.04080893 14:0.04342489 15:0.04499446 16:0.05598148 17:0.08811081 18:0.07495001 19:0.06418543 
-512 1:0.09216818 2:0.03708329 3:0.05580495 4:0.06768601 5:0.05220463 6:0.03312294 7:0.02448217 8:0.03780335 9:0.05724508 10:0.03168281 11:0.033843 12:0.03924348 13:0.05112454 14:0.04572406 15:0.04788425 16:0.06264556 17:0.09079861 18:0.07075764 19:0.06869544 
-512 1:0.08903352 2:0.04018071 3:0.05232165 4:0.06012653 5:0.053767 6:0.02832885 7:0.0211021 8:0.04162606 9:0.04914188 10:0.03700094 11:0.0422042 12:0.04104792 13:0.04972002 14:0.0393135 15:0.053767 16:0.06966584 17:0.0911564 18:0.07236243 19:0.06813345 
-512 1:0.10702579 2:0.0499716 3:0.07790848 4:0.04564335 5:0.05666071 6:0.04210206 7:0.02164124 8:0.04603683 9:0.07397371 10:0.03423251 11:0.0361999 12:0.03029774 13:0.04288901 14:0.04013467 15:0.03895424 16:0.04564335 17:0.08236544 18:0.06813101 19:0.06018833 
-512 1:0.07817872 2:0.03729627 3:0.06024782 4:0.06598571 5:0.06096506 6:0.0358618 7:0.02295155 8:0.0358618 9:0.06024782 10:0.03227562 11:0.03657903 12:0.04159969 13:0.04231692 14:0.05020652 15:0.05092375 16:0.06024782 17:0.08822219 18:0.07482223 19:0.06520969 
-512 1:0.06219292 2:0.03455162 3:0.03282404 4:0.0639205 5:0.03973436 6:0.03282404 7:0.02936888 8:0.05182743 9:0.04318953 10:0.02418613 11:0.0362792 12:0.06219292 13:0.04837227 14:0.06219292 15:0.06737566 16:0.07601357 17:0.09289785 18:0.06788955 19:0.07216662 
-512 1:0.10237129 2:0.05118564 3:0.0602184 4:0.05871294 5:0.0602184 6:0.02860374 7:0.02107644 8:0.04064742 9:0.0677457 10:0.02709828 11:0.02709828 12:0.03613104 13:0.04215288 14:0.04365834 15:0.04968018 16:0.05871294 17:0.08549088 18:0.0735337 19:0.06566348 
-512 1:0.10684266 2:0.03866959 3:0.06960527 4:0.05728829 5:0.05127302 6:0.02463396 7:0.0234882 8:0.03580518 9:0.07132392 10:0.03551874 11:0.04096113 12:0.03781027 13:0.04296622 14:0.03637806 15:0.05155946 16:0.05585608 17:0.08600398 18:0.07009953 19:0.06391644 
-512 1:0.08087734 2:0.05376505 3:0.03676243 4:0.0666319 5:0.05468411 6:0.02665276 7:0.030329 8:0.0454935 9:0.05008881 10:0.03124806 11:0.03354571 12:0.03354571 13:0.05238646 14:0.0454935 15:0.04779115 16:0.07352485 17:0.0942672 18:0.07618409 19:0.06672837 
-512 1:0.0719409 2:0.04294979 3:0.05153975 4:0.06227719 5:0.04724477 6:0.03006485 7:0.02576987 8:0.03650732 9:0.04939226 10:0.02791736 11:0.03865481 12:0.05261349 13:0.06012971 14:0.03865481 15:0.05261349 16:0.07408839 17:0.09573298 18:0.06992028 19:0.07198798 
-512 1:0.09105346 2:0.03629834 3:0.05044854 4:0.06582919 5:0.04737241 6:0.03076131 7:0.02522427 8:0.03506789 9:0.05721603 10:0.03322221 11:0.03937447 12:0.04060492 13:0.04798764 14:0.03814402 15:0.05537035 16:0.07505759 17:0.09003154 18:0.07263075 19:0.06830508 
-512 1:0.05782173 2:0.03276565 3:0.03276565 4:0.08287781 5:0.05974912 6:0.0424026 7:0.0212013 8:0.04047521 9:0.02505608 10:0.02698347 11:0.01541913 12:0.04432999 13:0.06167651 14:0.06167651 15:0.04432999 16:0.10407911 17:0.09760333 18:0.07467081 19:0.07411602 
-512 1:0.09892654 2:0.0529466 3:0.05991325 4:0.05433993 5:0.04737327 6:0.03204662 7:0.01671998 8:0.05433993 9:0.07384657 10:0.03065329 11:0.0487666 12:0.03204662 13:0.04597994 14:0.03483329 15:0.05991325 16:0.03622662 17:0.08588473 18:0.06910567 19:0.06613728 
-512 1:0.0578682 2:0.03371452 3:0.04176574 4:0.07145465 5:0.04327535 6:0.02566329 7:0.02666969 8:0.03774013 9:0.05032017 10:0.03220491 11:0.04428175 12:0.04629456 13:0.05333938 14:0.04176574 15:0.06038421 16:0.09460193 17:0.09484981 18:0.07141012 19:0.07239584 
-512 1:0.06189904 2:0.04848758 3:0.0469401 4:0.05828826 5:0.05931991 6:0.04384515 7:0.02321214 8:0.03971855 9:0.05209836 10:0.03404447 11:0.03610777 12:0.05106671 13:0.04178185 14:0.03971855 15:0.06757312 16:0.06086739 17:0.09421731 18:0.07125454 19:0.0695592 
-512 1:0.05911366 2:0.03940911 3:0.05517275 4:0.03152729 5:0.03940911 6:0.04729093 7:0.04335002 8:0.03152729 9:0.05123184 10:0.01576364 11:0.03940911 12:0.09064095 13:0.0354682 14:0.05911366 15:0.05911366 16:0.08670004 17:0.08395322 18:0.07045139 19:0.06135414 
-512 1:0.09839395 2:0.06005265 3:0.04388463 4:0.05820487 5:0.06605791 6:0.04988989 7:0.02910244 8:0.05127572 9:0.04896601 10:0.03233604 11:0.02540689 12:0.02540689 13:0.04711823 14:0.05404738 15:0.03372187 16:0.04850406 17:0.08925373 18:0.0724087 19:0.06596813 
-512 1:0.07689874 2:0.05825662 3:0.0466053 4:0.05359609 5:0.06058689 6:0.03728424 7:0.02563291 8:0.03728424 9:0.05825662 10:0.02330265 11:0.04194477 12:0.0431099 13:0.0396145 14:0.04194477 15:0.05243096 16:0.079229 17:0.08795174 18:0.07133063 19:0.06473944 
-512 1:0.08082064 2:0.0433386 3:0.0515378 4:0.06735053 5:0.06325093 6:0.03279678 7:0.01932667 8:0.04685254 9:0.04978083 10:0.03865335 11:0.03631072 12:0.03455375 13:0.04919517 14:0.0474382 15:0.05212345 16:0.0515378 17:0.09330093 18:0.07258904 19:0.06924226 
-151.8334416992775 1:0.07546687 2:0.03899445 3:0.04035246 4:0.06596076 5:0.04908256 6:0.02657831 7:0.02289226 8:0.04423251 9:0.04462051 10:0.03433839 11:0.0351144 12:0.04442651 13:0.05160459 14:0.04287449 15:0.06014069 16:0.086913 17:0.09377829 18:0.07293507 19:0.06969387 
-512 1:0.09039322 2:0.04572215 3:0.05360528 4:0.05675853 5:0.05150311 6:0.02785372 7:0.02102168 8:0.04519661 9:0.0588607 10:0.03310914 11:0.05307974 12:0.03941565 13:0.04572215 14:0.0388901 15:0.05675853 16:0.05675853 17:0.08793716 18:0.0699592 19:0.06745482 
-512 1:0.05898947 2:0.052183 3:0.04083887 4:0.04764534 5:0.06806478 6:0.04537652 7:0.03857004 8:0.05898947 9:0.03176356 10:0.0612583 11:0.02949474 12:0.03403239 13:0.04083887 14:0.052183 15:0.04764534 16:0.05898947 17:0.09587456 18:0.06500217 19:0.07226011 
-512 1:0.1054857 2:0.05328659 3:0.04349926 4:0.07503622 5:0.05437407 6:0.029362 7:0.02392459 8:0.02827452 9:0.06198644 10:0.02066215 11:0.02066215 12:0.029362 13:0.05437407 14:0.03262444 15:0.04567422 16:0.08373607 17:0.09344892 18:0.07227496 19:0.07195165 
-512 1:0.05863649 2:0.06180603 3:0.03644971 4:0.0633908 5:0.03961925 6:0.03961925 7:0.02218678 8:0.06022126 9:0.05071264 10:0.03011063 11:0.03644971 12:0.03644971 13:0.06972988 14:0.03011063 15:0.06022126 16:0.05546695 17:0.1002906 18:0.07239982 19:0.07612863 
-512 1:0.07877902 2:0.04135899 3:0.04070249 4:0.07877902 5:0.05842777 6:0.03413758 7:0.02363371 8:0.03807653 9:0.05711479 10:0.02691617 11:0.03610705 12:0.03676354 13:0.04464144 14:0.05186285 15:0.05711479 16:0.06171023 17:0.09232944 18:0.07204264 19:0.06950195 
-512 1:0.08814974 2:0.04094698 3:0.04890889 4:0.05800822 5:0.04379052 6:0.0284354 7:0.02502315 8:0.03810344 9:0.05743951 10:0.03298506 11:0.04151568 12:0.04777147 13:0.04663406 14:0.03298506 15:0.064264 16:0.0710885 17:0.08995019 18:0.07496836 19:0.06903179 
-512 1:0.1327783 2:0.02655566 3:0.07001038 4:0.05069717 5:0.03862642 6:0.02414151 7:0.03379811 8:0.03862642 9:0.06518208 10:0.03621226 11:0.03621226 12:0.03621226 13:0.04345472 14:0.04828302 15:0.03379811 16:0.07966698 17:0.07789057 18:0.06588797 19:0.0619658 
-512 1:0.08019123 2:0.04009562 3:0.05923216 4:0.06196595 5:0.0455632 6:0.01913654 7:0.03098298 8:0.03007171 9:0.0683448 10:0.03371677 11:0.05740963 12:0.04009562 13:0.04738573 14:0.0328055 15:0.05194205 16:0.07198985 17:0.09003456 18:0.0672629 19:0.07177321 
-512 1:0.07361708 2:0.04226166 3:0.04317051 4:0.0636197 5:0.05634888 6:0.02544788 7:0.02363017 8:0.04180723 9:0.04226166 10:0.03362756 11:0.03908067 12:0.04362494 13:0.04998691 14:0.04589707 15:0.05316789 16:0.08634102 17:0.09255201 18:0.07650414 19:0.06705302 
-512 1:0.08668282 2:0.047825 3:0.05529766 4:0.05529766 5:0.0545504 6:0.0283961 7:0.02241797 8:0.04857227 9:0.06277032 10:0.03437422 11:0.03811055 12:0.03512149 13:0.04109961 14:0.04334141 15:0.0545504 16:0.06874844 17:0.08660334 18:0.07085211 19:0.06538822 
-512 1:0.08776609 2:0.04273827 3:0.06105467 4:0.05647557 5:0.05265965 6:0.03434325 7:0.0228955 8:0.03281689 9:0.06029149 10:0.0320537 11:0.03815917 12:0.045791 13:0.04731737 14:0.03358007 15:0.05418602 16:0.07173924 17:0.08926693 18:0.07337321 19:0.06349191 
-512 1:0.0634829 2:0.05057988 3:0.04696703 4:0.05574109 5:0.05935394 6:0.04438642 7:0.0242577 8:0.03974133 9:0.05212824 10:0.03458012 11:0.03561236 12:0.051096 13:0.04128969 14:0.03819297 15:0.06709575 16:0.0609023 17:0.09409405 18:0.07109164 19:0.06940661 
-209.581722030733 1:0.10192882 2:0.04234865 3:0.04614542 4:0.06746578 5:0.04965014 6:0.03271068 7:0.02073623 8:0.03972011 9:0.06045635 10:0.02949802 11:0.03796775 12:0.0362154 13:0.04585336 14:0.03825981 15:0.05928811 16:0.06279282 17:0.08878956 18:0.07189601 19:0.06827697 
-512 1:0.07478396 2:0.05021989 3:0.04639881 4:0.06659594 5:0.05076576 6:0.03002276 7:0.02674755 8:0.04803642 9:0.05786205 10:0.03766492 11:0.03384384 12:0.02893102 13:0.05404097 14:0.03766492 15:0.05185749 16:0.06768768 17:0.09442623 18:0.07389466 19:0.06855514 
-512 1:0.07927017 2:0.03638631 3:0.0480819 4:0.06107701 5:0.05457946 6:0.03378728 7:0.02079218 8:0.04678239 9:0.04678239 10:0.03378728 11:0.0350868 12:0.04678239 13:0.04288386 14:0.05198044 15:0.0597775 16:0.07537163 17:0.0889913 18:0.0722179 19:0.06558179 
-512 1:0.06957468 2:0.04784704 3:0.03860123 4:0.07281071 5:0.0640272 6:0.02750627 7:0.0235768 8:0.0471536 9:0.04322414 10:0.02588825 11:0.02889314 12:0.03721436 13:0.05200765 14:0.06102231 15:0.04414872 16:0.07882048 17:0.09341234 18:0.07695959 19:0.06731149 
-512 1:0.07448675 2:0.05393868 3:0.0282536 4:0.07448675 5:0.04623316 6:0.03339061 7:0.02311658 8:0.04109614 9:0.0590757 10:0.01541105 11:0.05137017 12:0.04109614 13:0.05137017 14:0.04109614 15:0.06421272 16:0.06421272 17:0.09341134 18:0.0795268 19:0.06421476 
-512 1:0.10229311 2:0.03894113 3:0.04940292 4:0.07788225 5:0.05637745 6:0.03312902 7:0.02266722 8:0.02789812 9:0.0645144 10:0.02847933 11:0.03080417 12:0.03022296 13:0.04533445 14:0.03952234 15:0.05114655 16:0.07090772 17:0.08922871 18:0.07126522 19:0.06998291 
-512 1:0.078059 2:0.05965938 3:0.03456899 4:0.05519887 5:0.05687156 6:0.03679924 7:0.02899334 8:0.04237489 9:0.05241104 10:0.0234177 11:0.03289629 12:0.05129592 13:0.04014463 14:0.04516271 15:0.06356233 16:0.06802284 17:0.09139474 18:0.07402795 19:0.06513857 
-512 1:0.13975003 2:0.04464237 3:0.08734377 4:0.05240626 5:0.04367189 6:0.02329167 7:0.03105556 8:0.03105556 9:0.10093058 10:0.03105556 11:0.03978994 12:0.02426216 13:0.03881945 14:0.03008508 15:0.03881945 16:0.03784897 17:0.07874344 18:0.06600808 19:0.06042017 
-512 1:0.07936827 2:0.04409349 3:0.05702757 4:0.06643419 5:0.05056053 6:0.0311594 7:0.02351653 8:0.03821435 9:0.06408253 10:0.03468688 11:0.03292314 12:0.03821435 13:0.05291218 14:0.03351105 15:0.05643966 16:0.06114297 17:0.09394932 18:0.07359909 19:0.06816451 
-512 1:0.07607773 2:0.04547175 3:0.04416006 4:0.0647098 5:0.0524674 6:0.02973153 7:0.02667093 8:0.04547175 9:0.04547175 10:0.02973153 11:0.03060598 12:0.04416006 13:0.05640246 14:0.0494068 15:0.04853235 16:0.06908208 17:0.09412338 18:0.075159 19:0.07256366 
-512 1:0.04701427 2:0.04057396 3:0.02833737 4:0.06569118 5:0.05345458 6:0.04121799 7:0.02189706 8:0.05087846 9:0.03284559 10:0.03348962 11:0.03091349 12:0.04701427 13:0.04830234 14:0.05216652 15:0.06311505 16:0.10626514 17:0.0937182 18:0.07343955 19:0.06966535 
-512 1:0.09265213 2:0.04786004 3:0.0503144 4:0.06994929 5:0.06258621 6:0.02945233 7:0.02699797 8:0.04049696 9:0.0564503 10:0.02699797 11:0.02822515 12:0.03497464 13:0.04908722 14:0.05522312 15:0.04111055 16:0.05460953 17:0.09157883 18:0.0721881 19:0.06924525 
-512 1:0.11925647 2:0.03308405 3:0.06616811 4:0.0677069 5:0.05001078 6:0.03077586 7:0.02615948 8:0.03000647 9:0.07232328 10:0.03770043 11:0.03693104 12:0.03385345 13:0.044625 14:0.03539224 15:0.05154957 16:0.04000862 17:0.08761044 18:0.07155177 19:0.06528605 
-512 1:0.02988856 2:0.0309192 3:0.03504176 4:0.06080775 5:0.04844007 6:0.02885792 7:0.02988856 8:0.06493031 9:0.04019496 10:0.02473536 11:0.01442896 12:0.04844007 13:0.03813368 14:0.08760439 15:0.04844007 16:0.15562662 17:0.082762 18:0.06638136 19:0.06447841 
-503.926641528032 1:0.09136143 2:0.04766683 3:0.05461825 4:0.05660437 5:0.0387293 6:0.01588894 7:0.02482648 8:0.03376401 9:0.06752802 10:0.02383342 11:0.04468766 12:0.05163907 13:0.05263213 14:0.02581954 15:0.06355578 16:0.07348637 17:0.09124 18:0.07427074 19:0.06784767 
-512 1:0.08828607 2:0.03812353 3:0.05016254 4:0.06019505 5:0.07825356 6:0.04213653 7:0.01003251 8:0.03411053 9:0.04013003 10:0.03411053 11:0.03411053 12:0.05016254 13:0.02809102 14:0.05016254 15:0.06621455 16:0.07424056 17:0.08616587 18:0.07373557 19:0.06157595 
-512 1:0.05170092 2:0.04469063 3:0.03505147 4:0.06353079 5:0.0433762 6:0.03110818 7:0.0262886 8:0.04819577 9:0.04425248 10:0.03461333 11:0.04731949 12:0.04775763 13:0.05564421 14:0.03855662 15:0.06528337 16:0.08105653 17:0.0967385 18:0.07529045 19:0.06954484 
-512 1:0.07405302 2:0.05075935 3:0.04380601 4:0.07892036 5:0.04971635 6:0.03024701 7:0.02955168 8:0.03337601 9:0.07161935 10:0.02677034 11:0.03754801 12:0.03059468 13:0.05215002 14:0.03511434 15:0.05562668 16:0.06223235 17:0.09527199 18:0.07520758 19:0.06743488 
-512 1:0.08609113 2:0.05593182 3:0.04880325 4:0.06031863 5:0.05428676 6:0.02138569 7:0.0235791 8:0.0460615 9:0.05593182 10:0.03015931 11:0.03290107 12:0.03838458 13:0.05428676 14:0.03783623 15:0.05264171 16:0.06470543 17:0.09442848 18:0.07311275 19:0.06915397 
-512 1:0.07620262 2:0.04770668 3:0.04642597 4:0.06563671 5:0.05186901 6:0.03297845 7:0.02721522 8:0.04162328 9:0.06019367 10:0.03041701 11:0.04258382 12:0.03586006 13:0.04738651 14:0.04258382 15:0.05314973 16:0.06787797 17:0.09113733 18:0.0731493 19:0.06600284 
-512 1:0.09181794 2:0.04590897 3:0.06081448 4:0.06975779 5:0.05127495 6:0.03279212 7:0.01967527 8:0.0321959 9:0.07333511 10:0.0292148 11:0.03696566 12:0.03338834 13:0.05187117 14:0.02802236 15:0.0554485 16:0.05365984 17:0.09160574 18:0.07161052 19:0.07064053 
-512 1:0.06350946 2:0.04411436 3:0.04601584 4:0.06617154 5:0.04601584 6:0.02814192 7:0.02357836 8:0.04525525 9:0.05742472 10:0.03346606 11:0.04373406 12:0.04107199 13:0.05286117 14:0.03726903 15:0.06236857 16:0.07073509 17:0.0941115 18:0.07207245 19:0.0720828 
