svm_type c_svc
kernel_type rbf
gamma 0.5
nr_class 2
total_sv 1069
rho 0.090739
label 1 -1
nr_sv 486 583
SV
1.08984375 1:194 2:148 3:167 4:150 5:165 6:118 7:127 8:115 9:156 10:140 11:147 12:130 13:161 14:115 15:126 16:112 17:156 18:129 19:129 20:128 21:132 22:80 23:100 24:86 25:137 26:86 27:116 28:91 29:106 30:95 31:113 32:89 33:165 34:140 35:144 36:123 37:130 38:96 39:112 40:108 41:147 42:106 43:102 44:111 45:125 46:100 47:108 48:100 49:144 50:107 51:132 52:109 53:116 54:104 55:91 56:93 57:133 58:114 59:101 60:100 61:104 62:95 63:102 64:104 
1.08984375 1:74 2:52 3:64 4:55 5:52 6:41 7:55 8:39 9:69 10:58 11:59 12:52 13:53 14:46 15:54 16:51 17:54 18:45 19:47 20:48 21:35 22:21 23:39 24:31 25:48 26:38 27:49 28:46 29:44 30:32 31:40 32:35 33:64 34:50 35:60 36:57 37:53 38:40 39:44 40:42 41:57 42:46 43:67 44:54 45:60 46:43 47:55 48:46 49:53 50:39 51:66 52:40 53:55 54:24 55:43 56:38 57:58 58:37 59:49 60:51 61:45 62:40 63:47 64:51 
1.08984375 1:80 2:65 3:64 4:66 5:67 6:58 7:61 8:49 9:61 10:59 11:78 12:51 13:51 14:59 15:67 16:49 17:67 18:59 19:71 20:51 21:60 22:40 23:44 24:44 25:64 26:41 27:51 28:38 29:47 30:42 31:59 32:45 33:70 34:61 35:64 36:59 37:64 38:51 39:46 40:47 41:68 42:52 43:57 44:57 45:56 46:48 47:50 48:45 49:57 50:49 51:50 52:46 53:57 54:39 55:44 56:52 57:61 58:56 59:49 60:52 61:49 62:44 63:46 64:36 
1.08984375 1:62 2:51 3:57 4:65 5:51 6:39 7:41 8:64 9:49 10:40 11:52 12:57 13:61 14:67 15:59 16:77 17:59 18:44 19:48 20:65 21:49 22:51 23:41 24:53 25:47 26:40 27:36 28:46 29:55 30:57 31:47 32:64 33:54 34:37 35:43 36:57 37:51 38:47 39:31 40:42 41:47 42:34 43:32 44:53 45:55 46:51 47:39 48:63 49:59 50:62 51:50 52:73 53:65 54:57 55:57 56:63 57:48 58:57 59:47 60:51 61:74 62:68 63:62 64:77 
1.08984375 1:236 2:177 3:209 4:221 5:188 6:134 7:160 8:145 9:207 10:153 11:186 12:190 13:208 14:173 15:204 16:207 17:179 18:144 19:157 20:158 21:134 22:100 23:105 24:129 25:153 26:91 27:129 28:132 29:158 30:111 31:127 32:169 33:201 34:160 35:187 36:205 37:152 38:108 39:111 40:136 41:196 42:120 43:150 44:152 45:190 46:129 47:153 48:168 49:226 50:145 51:183 52:204 53:164 54:126 55:130 56:154 57:197 58:143 59:154 60:165 61:203 62:162 63:179 64:193 
1.08984375 1:160 2:136 3:141 4:140 5:140 6:111 7:103 8:101 9:130 10:108 11:103 12:96 13:135 14:112 15:113 16:111 17:137 18:107 19:101 20:113 21:108 22:83 23:84 24:83 25:109 26:75 27:91 28:71 29:106 30:77 31:89 32:92 33:141 34:114 35:105 36:108 37:97 38:79 39:77 40:97 41:117 42:80 43:99 44:88 45:91 46:81 47:86 48:102 49:138 50:97 51:90 52:106 53:113 54:85 55:83 56:82 57:112 58:87 59:92 60:104 61:100 62:94 63:111 64:98 
1.08984375 1:267 2:211 3:195 4:196 5:184 6:146 7:165 8:179 9:194 10:164 11:182 12:175 13:185 14:153 15:193 16:156 17:206 18:154 19:162 20:153 21:153 22:117 23:104 24:130 25:176 26:94 27:114 28:111 29:163 30:137 31:143 32:144 33:186 34:175 35:188 36:195 37:167 38:116 39:94 40:136 41:191 42:126 43:115 44:118 45:151 46:128 47:123 48:154 49:210 50:133 51:169 52:139 53:172 54:125 55:132 56:141 57:184 58:129 59:139 60:151 61:156 62:153 63:145 64:163 
1.08984375 1:380 2:347 3:327 4:337 5:355 6:314 7:295 8:293 9:293 10:290 11:307 12:297 13:320 14:280 15:316 16:309 17:353 18:304 19:298 20:315 21:330 22:293 23:272 24:313 25:323 26:258 27:271 28:260 29:287 30:297 31:309 32:283 33:338 34:324 35:276 36:302 37:305 38:289 39:262 40:274 41:304 42:292 43:291 44:267 45:270 46:289 47:271 48:292 49:320 50:281 51:285 52:267 53:281 54:312 55:283 56:295 57:321 58:290 59:285 60:297 61:280 62:306 63:298 64:287 
1.08984375 1:41 2:38 3:44 4:48 5:51 6:53 7:34 8:49 9:44 10:44 11:37 12:47 13:50 14:56 15:49 16:75 17:47 18:52 19:48 20:55 21:52 22:58 23:53 24:73 25:40 26:46 27:39 28:54 29:54 30:62 31:55 32:86 33:42 34:47 35:31 36:53 37:49 38:49 39:40 40:57 41:39 42:45 43:46 44:40 45:36 46:58 47:47 48:69 49:41 50:49 51:48 52:70 53:51 54:76 55:52 56:77 57:51 58:60 59:48 60:68 61:72 62:81 63:77 64:97 
1.08984375 1:60 2:52 3:57 4:66 5:55 6:41 7:36 8:62 9:55 10:43 11:43 12:55 13:68 14:56 15:52 16:94 17:55 18:40 19:39 20:61 21:46 22:35 23:32 24:57 25:38 26:33 27:31 28:54 29:57 30:56 31:62 32:91 33:56 34:41 35:39 36:53 37:43 38:38 39:32 40:55 41:36 42:33 43:32 44:55 45:57 46:60 47:51 48:82 49:64 50:60 51:60 52:86 53:52 54:56 55:56 56:91 57:61 58:59 59:50 60:85 61:92 62:84 63:91 64:118 
1.08984375 1:205 2:186 3:188 4:184 5:178 6:166 7:170 8:162 9:150 10:159 11:186 12:165 13:171 14:159 15:170 16:159 17:187 18:165 19:160 20:161 21:173 22:142 23:149 24:156 25:183 26:133 27:153 28:155 29:159 30:138 31:166 32:150 33:186 34:169 35:156 36:162 37:173 38:157 39:152 40:152 41:166 42:169 43:171 44:166 45:163 46:155 47:173 48:168 49:185 50:155 51:155 52:148 53:150 54:155 55:153 56:142 57:175 58:173 59:162 60:172 61:154 62:149 63:174 64:152 
1.08984375 1:208 2:204 3:195 4:182 5:225 6:183 7:161 8:160 9:195 10:177 11:190 12:168 13:176 14:183 15:180 16:183 17:207 18:186 19:200 20:193 21:194 22:161 23:164 24:151 25:183 26:136 27:152 28:142 29:167 30:165 31:153 32:158 33:197 34:173 35:171 36:178 37:178 38:156 39:135 40:162 41:172 42:152 43:148 44:160 45:161 46:166 47:150 48:163 49:177 50:165 51:163 52:165 53:190 54:170 55:153 56:169 57:170 58:166 59:142 60:169 61:170 62:169 63:165 64:173 
1.08984375 1:73 2:67 3:73 4:68 5:68 6:53 7:52 8:61 9:67 10:58 11:68 12:58 13:63 14:54 15:53 16:72 17:71 18:50 19:59 20:59 21:51 22:43 23:49 24:47 25:55 26:35 27:48 28:47 29:52 30:52 31:56 32:54 33:73 34:62 35:56 36:51 37:67 38:41 39:34 40:47 41:62 42:40 43:58 44:58 45:58 46:52 47:57 48:66 49:63 50:54 51:63 52:60 53:53 54:53 55:51 56:58 57:58 58:56 59:45 60:69 61:68 62:58 63:66 64:67 
1.08984375 1:73 2:52 3:60 4:66 5:52 6:36 7:58 8:45 9:62 10:58 11:61 12:41 13:50 14:37 15:68 16:55 17:57 18:42 19:53 20:36 21:47 22:39 23:48 24:36 25:51 26:57 27:57 28:52 29:43 30:30 31:52 32:48 33:63 34:55 35:62 36:59 37:51 38:58 39:65 40:55 41:66 42:61 43:67 44:52 45:45 46:43 47:65 48:55 49:57 50:41 51:47 52:45 53:38 54:37 55:47 56:36 57:60 58:53 59:62 60:62 61:53 62:49 63:56 64:53 
1.08984375 1:111 2:80 3:94 4:108 5:82 6:52 7:66 8:74 9:91 10:64 11:63 12:75 13:101 14:72 15:93 16:108 17:83 18:52 19:53 20:79 21:51 22:35 23:42 24:70 25:56 26:49 27:51 28:65 29:77 30:54 31:82 32:87 33:94 34:62 35:63 36:85 37:65 38:50 39:51 40:71 41:69 42:57 43:57 44:71 45:82 46:66 47:78 48:91 49:104 50:79 51:83 52:98 53:69 54:61 55:63 56:84 57:88 58:67 59:84 60:105 61:105 62:86 63:95 64:117 
1.08984375 1:58 2:53 3:51 4:57 5:45 6:36 7:43 8:54 9:49 10:44 11:47 12:45 13:52 14:47 15:54 16:64 17:56 18:41 19:45 20:49 21:47 22:32 23:33 24:46 25:46 26:35 27:30 28:40 29:55 30:44 31:51 32:53 33:48 34:38 35:39 36:53 37:47 38:41 39:35 40:50 41:36 42:42 43:30 44:50 45:44 46:44 47:50 48:62 49:57 50:45 51:49 52:54 53:53 54:49 55:40 56:52 57:48 58:52 59:51 60:64 61:58 62:60 63:61 64:66 
1.08984375 1:102 2:95 3:98 4:72 5:97 6:80 7:93 8:65 9:99 10:102 11:106 12:82 13:78 14:76 15:88 16:57 17:91 18:81 19:105 20:75 21:90 22:66 23:74 24:66 25:98 26:80 27:75 28:69 29:80 30:67 31:62 32:61 33:103 34:86 35:102 36:91 37:92 38:81 39:85 40:72 41:99 42:80 43:89 44:70 45:67 46:75 47:68 48:64 49:71 50:72 51:83 52:57 53:74 54:69 55:70 56:66 57:87 58:68 59:68 60:52 61:62 62:62 63:58 64:47 
1.08984375 1:67 2:63 3:59 4:76 5:62 6:63 7:49 8:72 9:62 10:48 11:36 12:56 13:75 14:68 15:66 16:89 17:65 18:62 19:46 20:74 21:65 22:49 23:53 24:63 25:49 26:52 27:42 28:55 29:69 30:71 31:53 32:83 33:58 34:49 35:40 36:60 37:51 38:47 39:42 40:52 41:47 42:32 43:31 44:42 45:62 46:60 47:45 48:65 49:75 50:71 51:56 52:84 53:70 54:71 55:54 56:88 57:50 58:60 59:43 60:78 61:84 62:85 63:68 64:88 
1.08984375 1:221 2:172 3:170 4:192 5:187 6:136 7:134 8:150 9:167 10:123 11:138 12:139 13:172 14:150 15:136 16:150 17:176 18:156 19:148 20:150 21:146 22:120 23:110 24:106 25:146 26:101 27:90 28:109 29:140 30:115 31:101 32:125 33:182 34:136 35:126 36:134 37:145 38:97 39:91 40:107 41:128 42:101 43:84 44:93 45:121 46:110 47:100 48:116 49:175 50:142 51:123 52:128 53:152 54:129 55:112 56:117 57:137 58:115 59:95 60:105 61:136 62:136 63:119 64:142 
1.08984375 1:414 2:364 3:317 4:400 5:368 6:316 7:301 8:336 9:318 10:302 11:315 12:350 13:382 14:297 15:380 16:359 17:373 18:319 19:325 20:335 21:335 22:281 23:263 24:331 25:329 26:233 27:255 28:277 29:308 30:325 31:335 32:361 33:338 34:325 35:300 36:357 37:314 38:291 39:232 40:329 41:320 42:293 43:270 44:303 45:315 46:301 47:330 48:367 49:370 50:312 51:342 52:322 53:336 54:322 55:298 56:332 57:354 58:338 59:346 60:382 61:345 62:366 63:376 64:420 
1.08984375 1:299 2:253 3:238 4:259 5:246 6:188 7:208 8:197 9:251 10:189 11:239 12:210 13:247 14:203 15:245 16:236 17:239 18:192 19:198 20:207 21:180 22:149 23:166 24:167 25:216 26:161 27:184 28:177 29:199 30:132 31:193 32:198 33:271 34:199 35:219 36:247 37:220 38:162 39:183 40:181 41:232 42:208 43:227 44:199 45:227 46:175 47:206 48:210 49:239 50:194 51:234 52:214 53:190 54:163 55:182 56:176 57:237 58:188 59:217 60:231 61:209 62:202 63:233 64:239 
1.08984375 1:294 2:252 3:277 4:304 5:277 6:220 7:226 8:252 9:270 10:228 11:276 12:287 13:268 14:245 15:307 16:296 17:288 18:230 19:240 20:266 21:224 22:187 23:208 24:207 25:270 26:186 27:217 28:217 29:232 30:207 31:268 32:262 33:276 34:260 35:267 36:289 37:269 38:200 39:206 40:253 41:267 42:239 43:245 44:269 45:254 46:239 47:273 48:311 49:268 50:232 51:277 52:253 53:254 54:219 55:251 56:256 57:285 58:275 59:283 60:303 61:277 62:290 63:302 64:320 
1.08984375 1:376 2:327 3:311 4:381 5:325 6:265 7:285 8:331 9:291 10:258 11:268 12:294 13:356 14:334 15:345 16:396 17:344 18:272 19:262 20:329 21:282 22:237 23:235 24:318 25:274 26:238 27:236 28:297 29:332 30:311 31:314 32:370 33:311 34:284 35:226 36:343 37:264 38:246 39:232 40:317 41:276 42:251 43:233 44:276 45:308 46:298 47:273 48:363 49:364 50:322 51:311 52:374 53:337 54:324 55:293 56:360 57:324 58:312 59:299 60:374 61:379 62:372 63:378 64:452 
1.08984375 1:43 2:54 3:33 4:53 5:60 6:60 7:50 8:63 9:42 10:45 11:36 12:49 13:53 14:74 15:55 16:103 17:48 18:55 19:53 20:82 21:62 22:74 23:59 24:95 25:43 26:66 27:46 28:80 29:70 30:95 31:71 32:108 33:42 34:44 35:26 36:53 37:55 38:64 39:55 40:69 41:37 42:49 43:31 44:49 45:60 46:66 47:54 48:95 49:50 50:79 51:59 52:93 53:62 54:92 55:71 56:116 57:44 58:83 59:53 60:96 61:102 62:107 63:97 64:137 
1.08984375 1:223 2:201 3:166 4:199 5:206 6:199 7:158 8:181 9:156 10:167 11:134 12:149 13:162 14:203 15:145 16:190 17:210 18:216 19:166 20:193 21:208 22:201 23:153 24:192 25:168 26:151 27:123 28:150 29:187 30:180 31:153 32:188 33:168 34:155 35:125 36:139 37:174 38:162 39:134 40:154 41:122 42:138 43:92 44:114 45:143 46:149 47:112 48:146 49:187 50:171 51:149 52:165 53:197 54:192 55:148 56:180 57:141 58:168 59:118 60:136 61:181 62:186 63:157 64:189 
1.08984375 1:94 2:66 3:69 4:76 5:80 6:52 7:57 8:55 9:83 10:52 11:64 12:60 13:85 14:58 15:67 16:77 17:72 18:53 19:56 20:66 21:50 22:27 23:36 24:41 25:57 26:35 27:37 28:44 29:61 30:33 31:48 32:55 33:67 34:65 35:66 36:66 37:60 38:36 39:39 40:46 41:60 42:39 43:41 44:50 45:64 46:45 47:60 48:57 49:72 50:59 51:67 52:75 53:58 54:39 55:41 56:54 57:65 58:55 59:48 60:71 61:67 62:57 63:65 64:70 
1.08984375 1:331 2:229 3:296 4:219 5:215 6:154 7:205 8:140 9:283 10:213 11:298 12:214 13:203 14:150 15:227 16:141 17:236 18:152 19:222 20:155 21:155 22:96 23:124 24:123 25:221 26:129 27:175 28:119 29:160 30:113 31:143 32:115 33:285 34:212 35:264 36:214 37:229 38:139 39:183 40:155 41:265 42:194 43:222 44:187 45:185 46:139 47:173 48:160 49:223 50:120 51:225 52:129 53:167 54:109 55:132 56:112 57:207 58:170 59:173 60:136 61:153 62:119 63:144 64:119 
1.08984375 1:586 2:515 3:448 4:526 5:506 6:452 7:422 8:450 9:421 10:425 11:426 12:453 13:465 14:434 15:515 16:435 17:537 18:451 19:441 20:456 21:476 22:415 23:354 24:433 25:462 26:341 27:343 28:385 29:427 30:397 31:433 32:444 33:456 34:448 35:395 36:487 37:449 38:384 39:346 40:416 41:438 42:389 43:372 44:383 45:398 46:422 47:395 48:455 49:496 50:415 51:440 52:376 53:455 54:427 55:409 56:401 57:466 58:440 59:441 60:448 61:441 62:440 63:453 64:475 
1.08984375 1:44 2:61 3:47 4:71 5:67 6:66 7:52 8:84 9:42 10:72 11:46 12:80 13:70 14:88 15:82 16:94 17:66 18:67 19:72 20:89 21:69 22:80 23:73 24:102 25:54 26:72 27:61 28:88 29:81 30:103 31:90 32:121 33:45 34:53 35:46 36:79 37:77 38:69 39:60 40:89 41:46 42:63 43:46 44:83 45:77 46:94 47:85 48:102 49:67 50:87 51:75 52:91 53:81 54:109 55:91 56:119 57:81 58:88 59:86 60:106 61:93 62:116 63:108 64:154 
1.08984375 1:178 2:151 3:150 4:156 5:132 6:100 7:118 8:116 9:139 10:115 11:126 12:120 13:145 14:108 15:136 16:137 17:152 18:99 19:111 20:107 21:105 22:81 23:94 24:94 25:113 26:91 27:95 28:111 29:114 30:89 31:102 32:113 33:149 34:108 35:118 36:138 37:120 38:92 39:101 40:105 41:129 42:97 43:109 44:113 45:124 46:109 47:104 48:123 49:156 50:107 51:120 52:121 53:113 54:101 55:97 56:102 57:133 58:115 59:118 60:115 61:125 62:108 63:140 64:122 
1.08984375 1:125 2:96 3:100 4:116 5:93 6:70 7:74 8:91 9:88 10:77 11:73 12:78 13:101 14:85 15:86 16:100 17:99 18:74 19:69 20:81 21:79 22:66 23:51 24:62 25:72 26:53 27:60 28:57 29:87 30:65 31:73 32:81 33:104 34:73 35:64 36:80 37:72 38:55 39:60 40:69 41:77 42:62 43:61 44:60 45:88 46:60 47:64 48:68 49:108 50:84 51:83 52:91 53:79 54:67 55:58 56:83 57:84 58:64 59:67 60:84 61:91 62:78 63:80 64:90 
1.08984375 1:293 2:241 3:208 4:281 5:241 6:203 7:198 8:199 9:216 10:198 11:192 12:205 13:242 14:203 15:247 16:219 17:258 18:198 19:202 20:206 21:202 22:164 23:158 24:166 25:223 26:125 27:140 28:168 29:200 30:177 31:186 32:183 33:232 34:208 35:194 36:226 37:206 38:144 39:138 40:178 41:202 42:158 43:127 44:159 45:179 46:190 47:167 48:200 49:240 50:193 51:206 52:194 53:216 54:179 55:162 56:202 57:220 58:185 59:187 60:203 61:216 62:190 63:196 64:201 
1.08984375 1:304 2:289 3:240 4:258 5:275 6:244 7:245 8:229 9:209 10:232 11:220 12:243 13:222 14:232 15:273 16:215 17:295 18:245 19:236 20:214 21:232 22:230 23:197 24:257 25:268 26:140 27:176 28:207 29:252 30:229 31:232 32:214 33:230 34:253 35:207 36:259 37:237 38:204 39:136 40:206 41:232 42:187 43:158 44:211 45:193 46:223 47:221 48:281 49:262 50:205 51:220 52:207 53:247 54:238 55:213 56:234 57:241 58:224 59:234 60:256 61:231 62:249 63:230 64:277 
1.08984375 1:340 2:292 3:278 4:299 5:280 6:250 7:236 8:251 9:267 10:230 11:246 12:263 13:295 14:249 15:270 16:287 17:306 18:235 19:240 20:271 21:258 22:235 23:208 24:235 25:255 26:179 27:198 28:205 29:254 30:221 31:223 32:276 33:271 34:237 35:232 36:275 37:250 38:204 39:181 40:226 41:235 42:200 43:201 44:230 45:226 46:228 47:238 48:275 49:292 50:252 51:255 52:252 53:265 54:247 55:212 56:261 57:259 58:252 59:221 60:268 61:280 62:288 63:270 64:315 
1.08984375 1:90 2:58 3:67 4:62 5:65 6:53 7:47 8:52 9:62 10:43 11:46 12:44 13:62 14:45 15:48 16:46 17:66 18:56 19:44 20:52 21:49 22:31 23:36 24:42 25:37 26:40 27:38 28:43 29:44 30:37 31:49 32:40 33:61 34:53 35:40 36:44 37:59 38:37 39:31 40:41 41:46 42:41 43:42 44:41 45:44 46:43 47:50 48:43 49:59 50:49 51:44 52:39 53:45 54:37 55:45 56:34 57:53 58:44 59:45 60:51 61:42 62:37 63:50 64:36 
1.08984375 1:393 2:350 3:349 4:337 5:369 6:293 7:332 8:301 9:380 10:309 11:345 12:288 13:347 14:297 15:336 16:295 17:360 18:328 19:331 20:331 21:315 22:208 23:243 24:224 25:322 26:254 27:280 28:241 29:275 30:240 31:265 32:234 33:371 34:324 35:340 36:328 37:345 38:249 39:267 40:252 41:335 42:280 43:293 44:282 45:288 46:262 47:254 48:263 49:304 50:292 51:301 52:276 53:321 54:240 55:255 56:237 57:326 58:270 59:272 60:256 61:264 62:255 63:270 64:246 
1.08984375 1:243 2:222 3:196 4:184 5:216 6:187 7:187 8:162 9:162 10:178 11:209 12:202 13:161 14:159 15:209 16:185 17:202 18:172 19:190 20:157 21:161 22:157 23:147 24:203 25:203 26:134 27:145 28:161 29:190 30:167 31:195 32:178 33:190 34:199 35:168 36:219 37:186 38:139 39:124 40:184 41:207 42:147 43:147 44:181 45:172 46:178 47:181 48:218 49:210 50:158 51:196 52:150 53:159 54:185 55:185 56:180 57:205 58:174 59:181 60:204 61:195 62:206 63:180 64:228 
1.08984375 1:205 2:195 3:204 4:191 5:207 6:178 7:192 8:182 9:207 10:188 11:227 12:195 13:181 14:174 15:224 16:201 17:210 18:182 19:198 20:200 21:181 22:152 23:161 24:170 25:198 26:157 27:199 28:174 29:160 30:181 31:192 32:166 33:214 34:205 35:224 36:209 37:211 38:167 39:193 40:171 41:229 42:203 43:212 44:200 45:189 46:189 47:195 48:194 49:166 50:176 51:190 52:176 53:192 54:167 55:182 56:175 57:219 58:194 59:206 60:197 61:182 62:173 63:206 64:212 
1.08984375 1:63 2:63 3:42 4:49 5:67 6:62 7:36 8:53 9:42 10:40 11:26 12:38 13:60 14:63 15:42 16:80 17:61 18:58 19:40 20:74 21:56 22:64 23:43 24:81 25:32 26:37 27:28 28:53 29:59 30:75 31:51 32:74 33:38 34:34 35:22 36:45 37:40 38:49 39:22 40:45 41:22 42:28 43:15 44:33 45:40 46:49 47:29 48:63 49:55 50:62 51:41 52:73 53:71 54:69 55:49 56:79 57:44 58:51 59:29 60:56 61:76 62:82 63:59 64:98 
1.08984375 1:733 2:678 3:730 4:730 5:685 6:520 7:590 8:615 9:713 10:623 11:670 12:661 13:666 14:537 15:654 16:661 17:726 18:544 19:601 20:562 21:552 22:386 23:451 24:479 25:626 26:463 27:509 28:435 29:597 30:459 31:575 32:533 33:738 34:616 35:670 36:638 37:661 38:471 39:501 40:546 41:676 42:511 43:582 44:585 45:631 46:487 47:586 48:565 49:673 50:571 51:666 52:584 53:535 54:491 55:492 56:523 57:647 58:582 59:594 60:587 61:601 62:559 63:599 64:568 
1.08984375 1:413 2:361 3:374 4:371 5:346 6:267 7:295 8:307 9:385 10:283 11:338 12:309 13:337 14:286 15:353 16:364 17:356 18:269 19:285 20:310 21:282 22:204 23:237 24:251 25:292 26:259 27:251 28:266 29:282 30:250 31:294 32:311 33:380 34:323 35:323 36:328 37:311 38:245 39:242 40:284 41:348 42:245 43:281 44:304 45:311 46:267 47:303 48:336 49:369 50:261 51:333 52:327 53:281 54:258 55:295 56:294 57:329 58:295 59:309 60:337 61:361 62:326 63:324 64:372 
1.08984375 1:259 2:202 3:197 4:229 5:191 6:167 7:168 8:181 9:189 10:168 11:187 12:185 13:200 14:160 15:198 16:203 17:205 18:154 19:179 20:164 21:162 22:134 23:141 24:151 25:176 26:121 27:134 28:131 29:187 30:139 31:155 32:181 33:193 34:176 35:173 36:198 37:173 38:143 39:124 40:168 41:183 42:146 43:163 44:162 45:179 46:133 47:159 48:185 49:229 50:174 51:180 52:166 53:176 54:144 55:130 56:161 57:192 58:173 59:171 60:177 61:184 62:180 63:205 64:202 
1.08984375 1:105 2:87 3:110 4:93 5:101 6:71 7:86 8:78 9:108 10:97 11:102 12:90 13:96 14:75 15:87 16:82 17:100 18:85 19:102 20:84 21:86 22:73 23:70 24:67 25:81 26:81 27:70 28:73 29:85 30:75 31:71 32:61 33:96 34:83 35:98 36:81 37:105 38:78 39:81 40:77 41:88 42:80 43:87 44:79 45:86 46:76 47:82 48:77 49:94 50:80 51:86 52:78 53:80 54:74 55:68 56:69 57:82 58:83 59:75 60:78 61:75 62:66 63:79 64:67 
1.08984375 1:46 2:65 3:54 4:48 5:65 6:73 7:66 8:74 9:52 10:66 11:49 12:58 13:40 14:66 15:63 16:56 17:66 18:72 19:59 20:78 21:66 22:91 23:78 24:95 25:61 26:88 27:75 28:77 29:76 30:87 31:84 32:88 33:56 34:65 35:62 36:53 37:72 38:84 39:69 40:78 41:57 42:69 43:70 44:66 45:53 46:83 47:74 48:68 49:44 50:75 51:50 52:42 53:72 54:82 55:89 56:87 57:66 58:80 59:69 60:76 61:43 62:95 63:74 64:65 
1.08984375 1:365 2:349 3:247 4:372 5:345 6:271 7:206 8:327 9:236 10:226 11:166 12:268 13:337 14:321 15:276 16:370 17:346 18:302 19:246 20:342 21:316 22:272 23:193 24:319 25:244 26:210 27:134 28:209 29:322 30:332 31:243 32:346 33:273 34:211 35:169 36:260 37:255 38:219 39:134 40:253 41:160 42:172 43:114 44:158 45:203 46:253 47:174 48:258 49:348 50:286 51:234 52:326 53:320 54:338 55:265 56:343 57:273 58:253 59:191 60:252 61:333 62:361 63:280 64:393 
1.08984375 1:127 2:94 3:98 4:92 5:100 6:72 7:84 8:84 9:103 10:92 11:95 12:78 13:90 14:64 15:85 16:62 17:94 18:76 19:92 20:75 21:78 22:55 23:61 24:62 25:85 26:57 27:72 28:58 29:71 30:56 31:79 32:61 33:101 34:100 35:91 36:75 37:90 38:64 39:73 40:69 41:96 42:77 43:81 44:68 45:77 46:57 47:79 48:66 49:89 50:69 51:86 52:55 53:70 54:65 55:54 56:51 57:84 58:70 59:74 60:74 61:65 62:64 63:60 64:54 
1.08984375 1:227 2:181 3:205 4:198 5:191 6:133 7:166 8:154 9:199 10:156 11:185 12:180 13:195 14:142 15:188 16:170 17:188 18:142 19:150 20:159 21:140 22:104 23:115 24:121 25:171 26:114 27:133 28:128 29:159 30:106 31:140 32:128 33:208 34:174 35:180 36:181 37:151 38:115 39:140 40:148 41:192 42:139 43:156 44:141 45:159 46:138 47:162 48:150 49:188 50:146 51:184 52:153 53:158 54:128 55:125 56:109 57:182 58:145 59:154 60:159 61:162 62:135 63:151 64:159 
1.08984375 1:86 2:56 3:49 4:74 5:65 6:44 7:38 8:52 9:51 10:41 11:32 12:42 13:78 14:64 15:51 16:96 17:59 18:42 19:36 20:63 21:41 22:29 23:32 24:50 25:34 26:25 27:23 28:43 29:59 30:40 31:32 32:77 33:47 34:37 35:27 36:56 37:40 38:29 39:24 40:32 41:34 42:26 43:24 44:28 45:55 46:33 47:29 48:62 49:73 50:63 51:53 52:92 53:55 54:50 55:31 56:73 57:49 58:33 59:33 60:65 61:93 62:73 63:69 64:98 
1.08984375 1:442 2:360 3:362 4:415 5:358 6:282 7:287 8:310 9:342 10:315 11:328 12:344 13:388 14:310 15:378 16:347 17:378 18:278 19:320 20:332 21:308 22:254 23:227 24:277 25:309 26:214 27:271 28:254 29:312 30:298 31:310 32:308 33:362 34:289 35:315 36:366 37:315 38:244 39:239 40:310 41:328 42:264 43:303 44:323 45:302 46:305 47:309 48:364 49:397 50:309 51:331 52:306 53:328 54:286 55:295 56:330 57:354 58:315 59:316 60:358 61:345 62:327 63:347 64:360 
1.08984375 1:154 2:147 3:135 4:169 5:166 6:161 7:141 8:156 9:154 10:149 11:153 12:143 13:151 14:185 15:169 16:183 17:165 18:161 19:176 20:169 21:155 22:135 23:134 24:186 25:145 26:155 27:130 28:155 29:160 30:165 31:154 32:207 33:134 34:155 35:137 36:160 37:172 38:157 39:143 40:161 41:136 42:145 43:127 44:148 45:156 46:146 47:156 48:169 49:151 50:160 51:151 52:186 53:178 54:157 55:168 56:182 57:151 58:184 59:147 60:180 61:182 62:190 63:187 64:196 
1.08984375 1:25 2:45 3:41 4:34 5:46 6:46 7:62 8:61 9:34 10:57 11:40 12:52 13:27 14:61 15:46 16:70 17:43 18:68 19:51 20:50 21:50 22:71 23:76 24:61 25:58 26:80 27:68 28:76 29:56 30:75 31:65 32:93 33:43 34:46 35:50 36:45 37:61 38:64 39:72 40:75 41:48 42:64 43:57 44:49 45:47 46:72 47:59 48:81 49:34 50:55 51:40 52:71 53:56 54:77 55:72 56:91 57:45 58:71 59:53 60:81 61:74 62:89 63:81 64:99 
1.08984375 1:82 2:63 3:58 4:70 5:63 6:48 7:49 8:46 9:64 10:40 11:47 12:42 13:59 14:51 15:61 16:61 17:61 18:48 19:44 20:50 21:44 22:25 23:33 24:38 25:47 26:37 27:41 28:38 29:48 30:36 31:43 32:55 33:65 34:52 35:47 36:48 37:47 38:30 39:41 40:45 41:50 42:38 43:41 44:45 45:47 46:43 47:47 48:56 49:65 50:42 51:43 52:60 53:50 54:37 55:40 56:52 57:52 58:48 59:45 60:67 61:60 62:50 63:62 64:53 
1.08984375 1:66 2:49 3:49 4:75 5:56 6:26 7:27 8:57 9:48 10:38 11:31 12:52 13:63 14:65 15:55 16:84 17:55 18:41 19:39 20:62 21:42 22:21 23:18 24:49 25:33 26:20 27:17 28:41 29:47 30:54 31:46 32:76 33:46 34:32 35:38 36:48 37:43 38:22 39:23 40:37 41:30 42:23 43:20 44:25 45:43 46:44 47:28 48:69 49:71 50:43 51:43 52:78 53:56 54:61 55:44 56:79 57:53 58:44 59:31 60:65 61:83 62:78 63:68 64:100 
1.08984375 1:121 2:102 3:107 4:123 5:95 6:92 7:103 8:98 9:118 10:99 11:106 12:111 13:110 14:95 15:128 16:124 17:103 18:94 19:95 20:107 21:93 22:68 23:87 24:90 25:102 26:85 27:110 28:87 29:100 30:95 31:102 32:98 33:118 34:99 35:116 36:118 37:112 38:83 39:88 40:107 41:117 42:98 43:117 44:112 45:113 46:100 47:99 48:111 49:111 50:92 51:115 52:105 53:100 54:95 55:106 56:99 57:115 58:108 59:111 60:112 61:104 62:111 63:118 64:142 
1.08984375 1:177 2:133 3:145 4:143 5:130 6:85 7:102 8:86 9:138 10:93 11:115 12:108 13:137 14:92 15:112 16:96 17:130 18:93 19:98 20:100 21:94 22:60 23:66 24:64 25:99 26:73 27:74 28:59 29:84 30:60 31:73 32:71 33:148 34:94 35:106 36:104 37:106 38:75 39:70 40:72 41:114 42:73 43:85 44:78 45:102 46:65 47:89 48:91 49:143 50:83 51:105 52:90 53:91 54:64 55:67 56:66 57:101 58:84 59:76 60:102 61:98 62:71 63:89 64:88 
1.08984375 1:84 2:53 3:70 4:72 5:62 6:47 7:48 8:47 9:65 10:56 11:56 12:64 13:75 14:56 15:69 16:58 17:62 18:48 19:53 20:60 21:50 22:32 23:33 24:41 25:63 26:29 27:37 28:36 29:51 30:41 31:46 32:48 33:65 34:52 35:56 36:69 37:51 38:38 39:44 40:42 41:51 42:40 43:53 44:50 45:52 46:47 47:53 48:57 49:68 50:50 51:61 52:53 53:61 54:39 55:40 56:55 57:64 58:50 59:48 60:58 61:58 62:52 63:53 64:58 
1.08984375 1:119 2:91 3:98 4:85 5:102 6:74 7:83 8:63 9:98 10:77 11:77 12:56 13:84 14:66 15:63 16:50 17:102 18:77 19:76 20:68 21:89 22:66 23:67 24:50 25:79 26:67 27:59 28:61 29:65 30:56 31:49 32:51 33:94 34:83 35:72 36:60 37:70 38:69 39:60 40:61 41:71 42:63 43:61 44:57 45:58 46:57 47:52 48:46 49:77 50:70 51:62 52:46 53:62 54:63 55:57 56:46 57:61 58:53 59:56 60:38 61:49 62:50 63:48 64:40 
1.08984375 1:124 2:164 3:117 4:136 5:183 6:170 7:147 8:183 9:106 10:134 11:106 12:144 13:151 14:157 15:120 16:138 17:173 18:192 19:144 20:159 21:165 22:163 23:143 24:161 25:132 26:127 27:134 28:138 29:167 30:182 31:150 32:172 33:104 34:146 35:96 36:123 37:149 38:130 39:112 40:144 41:101 42:127 43:96 44:132 45:134 46:146 47:136 48:152 49:140 50:180 51:132 52:144 53:172 54:169 55:129 56:182 57:131 58:147 59:120 60:153 61:148 62:168 63:146 64:169 
1.08984375 1:282 2:216 3:220 4:297 5:213 6:171 7:178 8:223 9:221 10:173 11:211 12:244 13:264 14:221 15:264 16:280 17:231 18:169 19:187 20:231 21:188 22:146 23:141 24:165 25:197 26:135 27:151 28:155 29:205 30:156 31:183 32:240 33:241 34:196 35:208 36:253 37:212 38:145 39:140 40:179 41:218 42:161 43:177 44:192 45:218 46:166 47:203 48:235 49:261 50:203 51:233 52:244 53:206 54:178 55:179 56:216 57:263 58:207 59:209 60:230 61:258 62:237 63:260 64:294 
1.08984375 1:255 2:211 3:206 4:235 5:191 6:150 7:164 8:169 9:202 10:143 11:157 12:164 13:206 14:164 15:187 16:183 17:216 18:146 19:152 20:159 21:155 22:118 23:107 24:158 25:177 26:84 27:95 28:112 29:158 30:140 31:146 32:180 33:213 34:164 35:154 36:176 37:168 38:114 39:77 40:141 41:168 42:118 43:91 44:113 45:141 46:122 47:124 48:171 49:223 50:152 51:153 52:166 53:160 54:156 55:120 56:155 57:161 58:155 59:147 60:168 61:193 62:166 63:175 64:195 
1.08984375 1:388 2:301 3:322 4:344 5:300 6:249 7:255 8:288 9:302 10:275 11:289 12:326 13:336 14:291 15:324 16:328 17:320 18:248 19:281 20:286 21:270 22:226 23:190 24:274 25:283 26:195 27:201 28:243 29:309 30:253 31:284 32:299 33:304 34:264 35:275 36:332 37:272 38:208 39:206 40:282 41:281 42:219 43:245 44:257 45:281 46:275 47:274 48:331 49:343 50:278 51:313 52:313 53:294 54:277 55:271 56:300 57:310 58:279 59:267 60:334 61:325 62:324 63:309 64:357 
1.08984375 1:63 2:52 3:50 4:52 5:34 6:36 7:49 8:53 9:48 10:48 11:57 12:51 13:47 14:36 15:68 16:43 17:53 18:27 19:48 20:29 21:27 22:34 23:52 24:45 25:44 26:41 27:57 28:42 29:52 30:48 31:51 32:53 33:47 34:45 35:53 36:72 37:55 38:46 39:41 40:52 41:64 42:49 43:38 44:53 45:50 46:42 47:50 48:66 49:54 50:47 51:52 52:37 53:42 54:42 55:42 56:53 57:62 58:56 59:52 60:61 61:45 62:54 63:63 64:55 
1.08984375 1:178 2:149 3:164 4:182 5:158 6:156 7:132 8:149 9:125 10:148 11:140 12:163 13:161 14:140 15:160 16:167 17:174 18:149 19:145 20:150 21:157 22:149 23:126 24:150 25:153 26:120 27:135 28:137 29:143 30:148 31:153 32:169 33:158 34:141 35:123 36:147 37:142 38:136 39:129 40:148 41:138 42:143 43:136 44:141 45:144 46:161 47:154 48:163 49:163 50:155 51:143 52:145 53:162 54:141 55:158 56:165 57:154 58:144 59:147 60:180 61:162 62:178 63:159 64:170 
1.08984375 1:310 2:229 3:241 4:285 5:247 6:184 7:181 8:218 9:256 10:190 11:198 12:217 13:273 14:221 15:235 16:230 17:249 18:184 19:197 20:209 21:188 22:121 23:131 24:156 25:194 26:132 27:151 28:140 29:203 30:163 31:162 32:199 33:251 34:211 35:203 36:231 37:199 38:129 39:130 40:177 41:208 42:145 43:139 44:158 45:217 46:146 47:166 48:183 49:255 50:205 51:219 52:230 53:206 54:162 55:175 56:175 57:239 58:168 59:162 60:196 61:220 62:189 63:203 64:219 
1.08984375 1:222 2:191 3:183 4:221 5:190 6:151 7:149 8:171 9:184 10:142 11:141 12:162 13:198 14:163 15:182 16:199 17:184 18:161 19:144 20:179 21:154 22:99 23:98 24:141 25:154 26:106 27:110 28:122 29:157 30:128 31:164 32:166 33:197 34:154 35:138 36:175 37:158 38:117 39:99 40:140 41:151 42:107 43:122 44:140 45:145 46:142 47:137 48:169 49:214 50:154 51:163 52:163 53:167 54:125 55:146 56:162 57:176 58:159 59:147 60:168 61:198 62:168 63:168 64:185 
1.08984375 1:88 2:83 3:79 4:111 5:106 6:90 7:89 8:106 9:93 10:100 11:99 12:111 13:105 14:114 15:128 16:104 17:94 18:104 19:107 20:101 21:101 22:100 23:104 24:109 25:99 26:99 27:107 28:107 29:107 30:111 31:118 32:128 33:90 34:106 35:106 36:118 37:102 38:113 39:112 40:119 41:108 42:114 43:115 44:107 45:99 46:107 47:123 48:129 49:89 50:97 51:110 52:117 53:98 54:111 55:107 56:129 57:121 58:133 59:123 60:132 61:106 62:114 63:141 64:142 
1.08984375 1:61 2:51 3:58 4:67 5:59 6:44 7:43 8:56 9:52 10:52 11:53 12:50 13:67 14:61 15:58 16:75 17:56 18:45 19:49 20:63 21:41 22:41 23:49 24:65 25:44 26:43 27:55 28:47 29:56 30:59 31:61 32:73 33:54 34:49 35:47 36:58 37:54 38:46 39:46 40:63 41:55 42:50 43:46 44:47 45:49 46:46 47:46 48:73 49:65 50:56 51:53 52:69 53:59 54:65 55:52 56:64 57:57 58:64 59:45 60:69 61:72 62:75 63:74 64:88 
1.08984375 1:203 2:164 3:173 4:161 5:180 6:151 7:148 8:137 9:167 10:154 11:175 12:150 13:161 14:143 15:153 16:137 17:174 18:160 19:144 20:147 21:157 22:139 23:133 24:123 25:162 26:122 27:130 28:108 29:144 30:135 31:136 32:107 33:171 34:159 35:167 36:152 37:148 38:140 39:116 40:132 41:167 42:123 43:115 44:121 45:153 46:124 47:123 48:110 49:152 50:132 51:162 52:130 53:140 54:122 55:126 56:129 57:153 58:137 59:107 60:130 61:119 62:116 63:119 64:97 
1.08984375 1:80 2:67 3:64 4:94 5:69 6:55 7:53 8:76 9:54 10:42 11:48 12:70 13:91 14:71 15:69 16:107 17:68 18:62 19:50 20:74 21:60 22:39 23:38 24:51 25:54 26:31 27:38 28:52 29:65 30:58 31:57 32:91 33:63 34:52 35:33 36:73 37:55 38:35 39:27 40:58 41:43 42:37 43:23 44:55 45:71 46:57 47:61 48:79 49:94 50:71 51:66 52:93 53:71 54:59 55:57 56:85 57:71 58:65 59:49 60:90 61:101 62:87 63:89 64:112 
1.08984375 1:311 2:244 3:229 4:258 5:229 6:184 7:181 8:239 9:220 10:173 11:181 12:185 13:251 14:220 15:210 16:226 17:247 18:208 19:179 20:213 21:206 22:191 23:136 24:171 25:189 26:138 27:130 28:141 29:222 30:185 31:161 32:206 33:223 34:185 35:158 36:209 37:192 38:144 39:115 40:169 41:174 42:132 43:114 44:140 45:187 46:163 47:129 48:165 49:264 50:196 51:193 52:224 53:221 54:185 55:166 56:194 57:193 58:177 59:135 60:177 61:218 62:198 63:182 64:204 
1.08984375 1:253 2:224 3:227 4:229 5:229 6:172 7:171 8:170 9:234 10:189 11:237 12:199 13:206 14:171 15:244 16:195 17:225 18:168 19:198 20:190 21:171 22:130 23:150 24:135 25:194 26:133 27:168 28:160 29:156 30:133 31:181 32:162 33:254 34:191 35:224 36:215 37:202 38:151 39:166 40:170 41:242 42:181 43:229 44:196 45:193 46:162 47:197 48:203 49:201 50:158 51:209 52:178 53:180 54:133 55:168 56:156 57:215 58:186 59:214 60:199 61:195 62:172 63:193 64:203 
1.08984375 1:70 2:44 3:46 4:69 5:52 6:34 7:35 8:49 9:61 10:32 11:38 12:50 13:62 14:56 15:63 16:95 17:46 18:40 19:36 20:59 21:42 22:26 23:31 24:43 25:38 26:25 27:23 28:45 29:47 30:43 31:44 32:76 33:52 34:39 35:44 36:59 37:35 38:32 39:24 40:42 41:42 42:28 43:23 44:35 45:45 46:38 47:40 48:80 49:60 50:46 51:55 52:85 53:52 54:50 55:42 56:75 57:53 58:48 59:45 60:72 61:93 62:83 63:75 64:108 
1.08984375 1:205 2:221 3:179 4:222 5:209 6:216 7:183 8:231 9:163 10:201 11:182 12:225 13:220 14:219 15:246 16:263 17:230 18:208 19:208 20:228 21:227 22:218 23:199 24:264 25:218 26:160 27:177 28:199 29:235 30:232 31:243 32:289 33:182 34:199 35:174 36:231 37:202 38:198 39:164 40:226 41:191 42:178 43:196 44:207 45:183 46:237 47:201 48:278 49:209 50:210 51:210 52:263 53:236 54:276 55:209 56:277 57:214 58:251 59:218 60:267 61:255 62:311 63:264 64:333 
1.08984375 1:126 2:102 3:102 4:101 5:97 6:87 7:104 8:96 9:100 10:102 11:114 12:102 13:114 14:99 15:109 16:103 17:98 18:85 19:105 20:105 21:103 22:90 23:85 24:96 25:101 26:84 27:106 28:95 29:89 30:95 31:109 32:104 33:101 34:101 35:108 36:115 37:98 38:98 39:96 40:106 41:117 42:109 43:126 44:108 45:105 46:98 47:113 48:107 49:105 50:95 51:103 52:100 53:95 54:99 55:102 56:98 57:107 58:103 59:115 60:117 61:96 62:103 63:115 64:93 
1.08984375 1:120 2:85 3:95 4:87 5:98 6:86 7:80 8:85 9:102 10:77 11:79 12:78 13:88 14:79 15:88 16:78 17:92 18:92 19:82 20:78 21:83 22:68 23:70 24:67 25:89 26:67 27:59 28:64 29:81 30:63 31:78 32:62 33:88 34:94 35:88 36:85 37:80 38:65 39:67 40:69 41:86 42:58 43:44 44:60 45:78 46:72 47:65 48:66 49:87 50:77 51:70 52:79 53:84 54:69 55:62 56:62 57:79 58:79 59:66 60:78 61:70 62:64 63:72 64:67 
1.08984375 1:741 2:572 3:572 4:754 5:564 6:387 7:417 8:496 9:568 10:377 11:485 12:579 13:682 14:526 15:626 16:645 17:594 18:379 19:426 20:510 21:381 22:312 23:295 24:410 25:467 26:232 27:303 28:409 29:469 30:383 31:430 32:567 33:597 34:451 35:461 36:621 37:428 38:282 39:262 40:423 41:498 42:310 43:336 44:460 45:511 46:428 47:466 48:615 49:706 50:461 51:550 52:590 53:536 54:417 55:438 56:519 57:597 58:476 59:481 60:571 61:646 62:574 63:607 64:774 
1.08984375 1:214 2:194 3:178 4:203 5:202 6:179 7:166 8:196 9:162 10:164 11:175 12:185 13:191 14:182 15:200 16:182 17:207 18:182 19:169 20:184 21:184 22:178 23:144 24:180 25:183 26:140 27:156 28:148 29:186 30:180 31:197 32:181 33:176 34:191 35:164 36:194 37:174 38:164 39:130 40:175 41:183 42:158 43:158 44:161 45:168 46:176 47:163 48:186 49:191 50:175 51:175 52:170 53:182 54:165 55:188 56:192 57:197 58:181 59:172 60:198 61:167 62:190 63:192 64:202 
1.08984375 1:119 2:103 3:104 4:115 5:101 6:62 7:74 8:79 9:110 10:71 11:76 12:79 13:108 14:88 15:104 16:102 17:106 18:65 19:63 20:89 21:69 22:45 23:54 24:60 25:77 26:57 27:63 28:69 29:78 30:67 31:62 32:75 33:111 34:79 35:86 36:97 37:72 38:55 39:59 40:64 41:87 42:58 43:55 44:70 45:80 46:68 47:78 48:76 49:105 50:68 51:82 52:97 53:82 54:66 55:79 56:78 57:100 58:64 59:76 60:83 61:90 62:83 63:80 64:88 
1.08984375 1:223 2:171 3:174 4:195 5:158 6:117 7:126 8:140 9:167 10:104 11:135 12:145 13:176 14:149 15:170 16:192 17:166 18:121 19:112 20:147 21:126 22:84 23:79 24:101 25:135 26:71 27:86 28:96 29:146 30:92 31:107 32:123 33:178 34:123 35:123 36:166 37:124 38:78 39:76 40:100 41:139 42:95 43:111 44:119 45:144 46:104 47:116 48:140 49:196 50:125 51:141 52:175 53:139 54:111 55:107 56:126 57:150 58:108 59:132 60:143 61:175 62:139 63:141 64:182 
1.08984375 1:115 2:127 3:101 4:110 5:123 6:119 7:102 8:114 9:98 10:91 11:86 12:93 13:112 14:115 15:101 16:93 17:122 18:121 19:83 20:107 21:106 22:111 23:98 24:115 25:110 26:80 27:79 28:105 29:112 30:100 31:98 32:105 33:108 34:97 35:89 36:103 37:93 38:96 39:79 40:84 41:93 42:79 43:72 44:76 45:92 46:96 47:82 48:97 49:108 50:112 51:94 52:97 53:112 54:104 55:95 56:101 57:97 58:102 59:83 60:92 61:99 62:102 63:94 64:100 
1.08984375 1:706 2:516 3:570 4:633 5:542 6:382 7:418 8:459 9:572 10:415 11:467 12:536 13:614 14:488 15:563 16:588 17:535 18:396 19:423 20:506 21:415 22:298 23:307 24:368 25:455 26:287 27:316 28:359 29:462 30:359 31:401 32:452 33:569 34:461 35:470 36:553 37:424 38:324 39:295 40:392 41:480 42:303 43:352 44:433 45:487 46:403 47:421 48:506 49:615 50:427 51:526 52:557 53:480 54:384 55:397 56:454 57:547 58:430 59:433 60:488 61:566 62:466 63:514 64:585 
1.08984375 1:66 2:65 3:53 4:99 5:66 6:67 7:41 8:109 9:39 10:62 11:35 12:77 13:90 14:109 15:81 16:159 17:68 18:68 19:51 20:115 21:68 22:72 23:53 24:129 25:53 26:53 27:51 28:95 29:107 30:127 31:98 32:172 33:47 34:50 35:30 36:79 37:57 38:58 39:48 40:95 41:33 42:48 43:27 44:66 45:69 46:104 47:66 48:143 49:101 50:99 51:79 52:142 53:111 54:125 55:111 56:170 57:81 58:95 59:62 60:143 61:156 62:178 63:140 64:229 
1.08984375 1:99 2:72 3:83 4:107 5:86 6:69 7:69 8:81 9:85 10:71 11:69 12:92 13:113 14:105 15:111 16:125 17:76 18:69 19:72 20:109 21:79 22:66 23:66 24:83 25:75 26:65 27:65 28:83 29:100 30:72 31:96 32:99 33:83 34:73 35:70 36:110 37:83 38:73 39:67 40:79 41:75 42:70 43:60 44:83 45:89 46:86 47:92 48:106 49:102 50:90 51:92 52:124 53:78 54:86 55:87 56:123 57:101 58:96 59:95 60:114 61:107 62:112 63:111 64:141 
1.08984375 1:234 2:224 3:173 4:178 5:215 6:223 7:169 8:195 9:160 10:179 11:160 12:173 13:167 14:178 15:198 16:173 17:222 18:219 19:171 20:199 21:213 22:210 23:171 24:206 25:203 26:161 27:135 28:173 29:196 30:202 31:197 32:181 33:173 34:186 35:155 36:185 37:181 38:164 39:142 40:187 41:166 42:154 43:145 44:143 45:148 46:198 47:144 48:192 49:180 50:172 51:172 52:150 53:203 54:203 55:190 56:187 57:171 58:180 59:168 60:192 61:167 62:206 63:173 64:195 
1.08984375 1:240 2:186 3:194 4:215 5:184 6:114 7:142 8:150 9:185 10:144 11:163 12:171 13:218 14:146 15:169 16:178 17:187 18:124 19:141 20:153 21:125 22:92 23:85 24:98 25:144 26:72 27:110 28:103 29:139 30:100 31:124 32:138 33:206 34:143 35:160 36:171 37:145 38:92 39:83 40:117 41:167 42:95 43:129 44:137 45:146 46:123 47:137 48:166 49:201 50:136 51:168 52:168 53:151 54:102 55:120 56:135 57:184 58:126 59:127 60:160 61:171 62:140 63:171 64:179 
1.08984375 1:191 2:185 3:161 4:146 5:166 6:174 7:184 8:133 9:170 10:173 11:158 12:135 13:142 14:147 15:120 16:108 17:177 18:165 19:178 20:142 21:168 22:154 23:169 24:121 25:184 26:179 27:167 28:145 29:127 30:140 31:130 32:93 33:178 34:172 35:158 36:133 37:184 38:164 39:176 40:133 41:161 42:160 43:149 44:112 45:134 46:127 47:136 48:108 49:136 50:134 51:139 52:92 53:144 54:120 55:147 56:102 57:126 58:145 59:109 60:112 61:99 62:100 63:110 64:78 
1.08984375 1:345 2:267 3:274 4:251 5:224 6:154 7:195 8:158 9:256 10:193 11:228 12:177 13:216 14:145 15:204 16:158 17:251 18:147 19:183 20:139 21:172 22:114 23:128 24:112 25:198 26:129 27:135 28:119 29:171 30:108 31:128 32:113 33:279 34:179 35:211 36:194 37:179 38:133 39:143 40:136 41:215 42:136 43:148 44:139 45:174 46:133 47:127 48:139 49:261 50:137 51:186 52:135 53:145 54:125 55:116 56:113 57:194 58:133 59:128 60:137 61:159 62:114 63:137 64:133 
1.08984375 1:194 2:196 3:169 4:206 5:186 6:173 7:169 8:208 9:182 10:191 11:174 12:214 13:208 14:212 15:251 16:244 17:190 18:177 19:197 20:227 21:187 22:169 23:158 24:210 25:184 26:180 27:160 28:195 29:199 30:202 31:234 32:248 33:178 34:178 35:190 36:222 37:209 38:176 39:189 40:215 41:183 42:172 43:188 44:219 45:191 46:217 47:221 48:259 49:203 50:184 51:204 52:256 53:210 54:206 55:203 56:249 57:220 58:246 59:240 60:259 61:253 62:238 63:260 64:298 
1.08984375 1:330 2:273 3:251 4:287 5:283 6:219 7:207 8:236 9:248 10:220 11:220 12:233 13:241 14:231 15:261 16:245 17:267 18:239 19:224 20:252 21:241 22:172 23:165 24:190 25:246 26:171 27:162 28:181 29:227 30:182 31:199 32:213 33:278 34:222 35:229 36:243 37:222 38:181 39:168 40:199 41:235 42:172 43:161 44:174 45:202 46:205 47:196 48:208 49:266 50:210 51:216 52:192 53:237 54:196 55:220 56:195 57:244 58:207 59:199 60:222 61:218 62:231 63:217 64:229 
1.0908203125 1:265 2:195 3:192 4:225 5:193 6:152 7:129 8:168 9:178 10:139 11:123 12:143 13:201 14:160 15:158 16:179 17:203 18:153 19:135 20:162 21:170 22:111 23:113 24:114 25:147 26:98 27:97 28:91 29:157 30:124 31:115 32:126 33:188 34:140 35:116 36:152 37:145 38:102 39:88 40:112 41:131 42:88 43:89 44:106 45:150 46:101 47:108 48:102 49:220 50:153 51:140 52:155 53:145 54:143 55:104 56:127 57:140 58:122 59:106 60:120 61:161 62:135 63:111 64:124 
1.0908203125 1:50 2:49 3:56 4:58 5:52 6:44 7:34 8:59 9:49 10:44 11:51 12:58 13:49 14:56 15:55 16:71 17:56 18:42 19:48 20:58 21:49 22:40 23:39 24:58 25:45 26:33 27:39 28:52 29:49 30:59 31:57 32:69 33:59 34:44 35:44 36:48 37:51 38:41 39:36 40:51 41:46 42:49 43:49 44:52 45:56 46:55 47:57 48:73 49:48 50:53 51:53 52:63 53:53 54:61 55:60 56:65 57:56 58:53 59:57 60:78 61:67 62:70 63:76 64:78 
1.0908203125 1:432 2:382 3:365 4:382 5:372 6:296 7:300 8:347 9:352 10:284 11:322 12:333 13:386 14:317 15:354 16:389 17:369 18:314 19:296 20:343 21:303 22:282 23:255 24:276 25:312 26:229 27:254 28:275 29:321 30:275 31:299 32:328 33:363 34:321 35:299 36:367 37:317 38:249 39:248 40:282 41:334 42:278 43:291 44:291 45:319 46:286 47:300 48:330 49:397 50:297 51:330 52:350 53:331 54:289 55:267 56:317 57:353 58:305 59:327 60:335 61:352 62:327 63:368 64:386 
1.0908203125 1:363 2:320 3:327 4:317 5:312 6:251 7:270 8:274 9:340 10:264 11:310 12:284 13:296 14:254 15:316 16:312 17:311 18:248 19:267 20:282 21:262 22:187 23:222 24:229 25:272 26:234 27:236 28:241 29:251 30:229 31:267 32:286 33:336 34:298 35:301 36:292 37:286 38:226 39:229 40:264 41:313 42:234 43:264 44:279 45:286 46:243 47:277 48:298 49:316 50:240 51:303 52:283 53:248 54:236 55:263 56:265 57:302 58:273 59:281 60:299 61:310 62:287 63:299 64:335 
1.0908203125 1:239 2:161 3:175 4:202 5:144 6:85 7:101 8:131 9:173 10:111 11:143 12:155 13:184 14:118 15:153 16:146 17:165 18:78 19:115 20:120 21:93 22:69 23:66 24:68 25:114 26:55 27:74 28:78 29:109 30:72 31:102 32:113 33:181 34:114 35:143 36:143 37:118 38:68 39:63 40:104 41:147 42:80 43:81 44:106 45:134 46:91 47:109 48:127 49:192 50:107 51:148 52:132 53:124 54:74 55:91 56:92 57:148 58:107 59:116 60:121 61:156 62:101 63:129 64:151 
1.0908203125 1:362 2:277 3:264 4:332 5:267 6:202 7:182 8:246 9:249 10:188 11:194 12:241 13:315 14:250 15:243 16:306 17:276 18:193 19:195 20:250 21:199 22:134 23:133 24:186 25:206 26:115 27:120 28:160 29:235 30:198 31:176 32:244 33:273 34:200 35:189 36:239 37:200 38:123 39:113 40:171 41:199 42:120 43:128 44:149 45:217 46:170 47:173 48:230 49:323 50:226 51:224 52:289 53:248 54:193 55:174 56:249 57:247 58:184 59:155 60:239 61:296 62:247 63:237 64:317 
1.0908203125 1:502 2:337 3:358 4:404 5:341 6:230 7:240 8:273 9:339 10:222 11:250 12:256 13:382 14:279 15:293 16:350 17:356 18:235 19:221 20:285 21:241 22:142 23:131 24:194 25:250 26:133 27:138 28:156 29:265 30:174 31:181 32:238 33:360 34:244 35:229 36:287 37:241 38:147 39:125 40:178 41:246 42:136 43:160 44:182 45:260 46:178 47:184 48:225 49:383 50:267 51:258 52:324 53:275 54:189 55:181 56:212 57:286 58:200 59:176 60:252 61:329 62:227 63:257 64:286 
1.0908203125 1:359 2:291 3:291 4:284 5:294 6:250 7:243 8:231 9:291 10:231 11:240 12:218 13:266 14:222 15:258 16:229 17:288 18:261 19:234 20:240 21:261 22:188 23:184 24:183 25:257 26:172 27:178 28:161 29:236 30:183 31:196 32:172 33:306 34:251 35:233 36:233 37:239 38:188 39:165 40:196 41:249 42:174 43:187 44:186 45:216 46:167 47:181 48:199 49:272 50:214 51:221 52:214 53:230 54:190 55:176 56:176 57:227 58:211 59:191 60:197 61:207 62:201 63:192 64:179 
1.0908203125 1:414 2:316 3:287 4:296 5:308 6:231 7:218 8:216 9:302 10:227 11:231 12:201 13:282 14:219 15:215 16:210 17:325 18:251 19:224 20:224 21:258 22:151 23:154 24:135 25:240 26:151 27:143 28:128 29:200 30:149 31:151 32:143 33:305 34:230 35:230 36:227 37:246 38:154 39:136 40:142 41:235 42:143 43:154 44:144 45:189 46:145 47:136 48:151 49:269 50:175 51:219 52:175 53:213 54:162 55:154 56:149 57:216 58:157 59:148 60:147 61:171 62:166 63:167 64:135 
1.0908203125 1:281 2:223 3:211 4:252 5:206 6:164 7:157 8:191 9:192 10:179 11:170 12:182 13:254 14:194 15:204 16:236 17:229 18:162 19:166 20:210 21:194 22:155 23:126 24:155 25:171 26:115 27:122 28:141 29:171 30:150 31:158 32:211 33:216 34:163 35:150 36:203 37:166 38:145 39:109 40:161 41:173 42:127 43:139 44:145 45:169 46:154 47:147 48:191 49:240 50:169 51:196 52:219 53:201 54:166 55:158 56:182 57:196 58:160 59:154 60:192 61:231 62:210 63:197 64:239 
1.0908203125 1:242 2:249 3:237 4:235 5:246 6:224 7:264 8:211 9:249 10:210 11:247 12:245 13:218 14:224 15:250 16:217 17:237 18:224 19:246 20:229 21:234 22:218 23:200 24:212 25:261 26:206 27:225 28:226 29:202 30:210 31:234 32:218 33:262 34:253 35:243 36:250 37:234 38:200 39:218 40:226 41:244 42:247 43:242 44:229 45:216 46:228 47:248 48:246 49:221 50:218 51:225 52:191 53:222 54:222 55:237 56:214 57:254 58:215 59:249 60:237 61:220 62:234 63:227 64:238 
1.0908203125 1:483 2:388 3:349 4:413 5:392 6:304 7:252 8:347 9:328 10:275 11:251 12:288 13:376 14:360 15:316 16:385 17:405 18:322 19:285 20:352 21:337 22:271 23:221 24:275 25:292 26:213 27:169 28:219 29:352 30:280 31:240 32:332 33:342 34:277 35:229 36:303 37:289 38:219 39:172 40:253 41:232 42:183 43:156 44:203 45:268 46:248 47:193 48:284 49:402 50:307 51:278 52:366 53:346 54:310 55:248 56:329 57:299 58:262 59:198 60:283 61:358 62:346 63:294 64:341 
1.0908203125 1:132 2:127 3:154 4:118 5:139 6:93 7:135 8:107 9:173 10:140 11:179 12:133 13:102 14:94 15:151 16:113 17:135 18:105 19:146 20:97 21:103 22:84 23:118 24:87 25:142 26:106 27:155 28:110 29:88 30:87 31:132 32:95 33:162 34:139 35:187 36:150 37:141 38:121 39:146 40:117 41:177 42:152 43:200 44:159 45:141 46:121 47:163 48:120 49:102 50:102 51:137 52:91 53:101 54:94 55:114 56:90 57:147 58:127 59:154 60:142 61:105 62:98 63:125 64:115 
1.0908203125 1:56 2:68 3:57 4:52 5:56 6:59 7:57 8:53 9:51 10:46 11:51 12:53 13:69 14:50 15:56 16:84 17:61 18:50 19:49 20:60 21:54 22:62 23:56 24:66 25:58 26:56 27:55 28:59 29:56 30:62 31:64 32:80 33:53 34:44 35:42 36:59 37:58 38:52 39:57 40:57 41:43 42:53 43:55 44:61 45:61 46:59 47:58 48:88 49:63 50:62 51:52 52:84 53:53 54:65 55:58 56:85 57:47 58:69 59:51 60:92 61:79 62:91 63:82 64:101 
1.0908203125 1:167 2:150 3:141 4:149 5:151 6:113 7:122 8:128 9:134 10:111 11:134 12:110 13:122 14:116 15:130 16:134 17:151 18:127 19:119 20:132 21:134 22:117 23:87 24:116 25:129 26:85 27:79 28:84 29:126 30:113 31:108 32:105 33:151 34:125 35:122 36:112 37:117 38:108 39:71 40:105 41:128 42:92 43:97 44:95 45:109 46:98 47:94 48:98 49:138 50:111 51:106 52:105 53:128 54:116 55:97 56:102 57:120 58:113 59:102 60:109 61:107 62:117 63:113 64:110 
1.0908203125 1:118 2:79 3:111 4:109 5:89 6:46 7:68 8:80 9:116 10:67 11:102 12:91 13:105 14:79 15:111 16:106 17:84 18:52 19:71 20:81 21:57 22:25 23:48 24:44 25:84 26:42 27:64 28:65 29:74 30:49 31:60 32:79 33:109 34:75 35:105 36:110 37:68 38:44 39:62 40:67 41:92 42:64 43:83 44:93 45:91 46:74 47:80 48:104 49:106 50:76 51:88 52:97 53:75 54:59 55:77 56:70 57:108 58:68 59:83 60:99 61:101 62:80 63:108 64:98 
1.0908203125 1:171 2:158 3:138 4:166 5:159 6:132 7:155 8:148 9:126 10:135 11:152 12:166 13:150 14:147 15:192 16:161 17:167 18:148 19:155 20:135 21:139 22:148 23:112 24:159 25:157 26:108 27:120 28:140 29:171 30:152 31:164 32:161 33:141 34:144 35:126 36:193 37:141 38:124 39:99 40:169 41:149 42:126 43:113 44:168 45:126 46:161 47:162 48:200 49:154 50:143 51:159 52:152 53:167 54:154 55:159 56:171 57:173 58:164 59:171 60:174 61:165 62:192 63:165 64:203 
1.0908203125 1:251 2:190 3:184 4:192 5:180 6:120 7:137 8:137 9:191 10:140 11:151 12:144 13:198 14:128 15:158 16:144 17:179 18:119 19:136 20:133 21:133 22:88 23:80 24:93 25:159 26:65 27:85 28:83 29:135 30:90 31:111 32:104 33:192 34:151 35:155 36:155 37:129 38:81 39:76 40:108 41:157 42:82 43:85 44:108 45:132 46:102 47:104 48:120 49:195 50:113 51:150 52:144 53:126 54:105 55:99 56:101 57:147 58:107 59:111 60:122 61:141 62:112 63:115 64:127 
1.0908203125 1:559 2:452 3:431 4:455 5:450 6:412 7:340 8:388 9:416 10:357 11:325 12:339 13:416 14:407 15:338 16:388 17:473 18:407 19:378 20:393 21:429 22:374 23:312 24:343 25:354 26:320 27:262 28:287 29:399 30:351 31:330 32:317 33:428 34:352 35:313 36:345 37:367 38:320 39:282 40:302 41:326 42:258 43:230 44:254 45:315 46:307 47:254 48:302 49:436 50:378 51:315 52:352 53:405 54:352 55:290 56:363 57:342 58:336 59:252 60:297 61:352 62:346 63:309 64:328 
1.0908203125 1:125 2:111 3:98 4:117 5:100 6:81 7:90 8:89 9:89 10:83 11:95 12:86 13:111 14:99 15:103 16:98 17:118 18:88 19:90 20:81 21:88 22:59 23:57 24:84 25:89 26:51 27:56 28:81 29:82 30:76 31:85 32:90 33:95 34:84 35:79 36:114 37:96 38:64 39:51 40:70 41:96 42:61 43:59 44:68 45:83 46:80 47:84 48:85 49:112 50:76 51:86 52:95 53:93 54:84 55:80 56:89 57:98 58:86 59:75 60:96 61:94 62:92 63:87 64:88 
1.0908203125 1:291 2:234 3:243 4:295 5:231 6:176 7:199 8:220 9:234 10:183 11:224 12:273 13:274 14:229 15:294 16:288 17:235 18:173 19:202 20:239 21:191 22:127 23:134 24:192 25:222 26:112 27:147 28:203 29:216 30:178 31:229 32:260 33:237 34:214 35:215 36:289 37:195 38:146 39:137 40:224 41:230 42:169 43:180 44:231 45:236 46:209 47:248 48:320 49:300 50:204 51:253 52:258 53:233 54:195 55:214 56:246 57:270 58:238 59:259 60:305 61:293 62:273 63:302 64:369 
1.0908203125 1:160 2:97 3:119 4:121 5:94 6:46 7:74 8:70 9:120 10:68 11:99 12:106 13:114 14:73 15:113 16:105 17:102 18:47 19:72 20:74 21:55 22:31 23:44 24:38 25:85 26:41 27:63 28:48 29:64 30:39 31:62 32:66 33:126 34:74 35:111 36:109 37:79 38:46 39:59 40:61 41:114 42:65 43:87 44:70 45:92 46:52 47:79 48:85 49:109 50:65 51:90 52:97 53:68 54:45 55:60 56:61 57:102 58:71 59:87 60:83 61:95 62:71 63:90 64:97 
1.0908203125 1:156 2:114 3:110 4:123 5:118 6:97 7:84 8:93 9:96 10:84 11:85 12:80 13:122 14:101 15:90 16:107 17:118 18:103 19:84 20:102 21:111 22:65 23:71 24:59 25:98 26:65 27:67 28:51 29:93 30:65 31:63 32:73 33:118 34:81 35:72 36:93 37:82 38:76 39:64 40:67 41:87 42:68 43:56 44:57 45:78 46:58 47:58 48:71 49:111 50:93 51:78 52:98 53:97 54:68 55:62 56:74 57:84 58:72 59:60 60:76 61:91 62:78 63:82 64:82 
1.0908203125 1:376 2:296 3:297 4:302 5:301 6:202 7:201 8:229 9:294 10:204 11:246 12:222 13:287 14:217 15:238 16:240 17:296 18:224 19:217 20:225 21:220 22:119 23:146 24:145 25:231 26:137 27:155 28:144 29:206 30:138 31:171 32:172 33:311 34:219 35:234 36:241 37:222 38:143 39:160 40:158 41:242 42:174 43:186 44:156 45:203 46:163 47:162 48:170 49:288 50:193 51:217 52:210 53:220 54:166 55:160 56:154 57:239 58:168 59:171 60:175 61:216 62:183 63:183 64:195 
1.0908203125 1:307 2:295 3:264 4:285 5:292 6:269 7:255 8:255 9:247 10:256 11:242 12:255 13:276 14:257 15:267 16:272 17:312 18:262 19:262 20:272 21:286 22:235 23:224 24:249 25:264 26:215 27:210 28:224 29:255 30:228 31:245 32:257 33:264 34:252 35:218 36:273 37:270 38:235 39:206 40:242 41:240 42:227 43:200 44:213 45:230 46:233 47:224 48:275 49:268 50:261 51:255 52:238 53:261 54:255 55:228 56:238 57:257 58:255 59:228 60:269 61:265 62:265 63:274 64:267 
1.0908203125 1:333 2:250 3:277 4:237 5:236 6:161 7:189 8:154 9:273 10:184 11:203 12:167 13:215 14:155 15:195 16:147 17:256 18:163 19:185 20:161 21:165 22:102 23:113 24:116 25:195 26:132 27:136 28:94 29:147 30:115 31:122 32:106 33:268 34:200 35:204 36:182 37:197 38:125 39:146 40:121 41:204 42:140 43:146 44:122 45:163 46:110 47:135 48:91 49:239 50:126 51:161 52:128 53:167 54:108 55:110 56:98 57:182 58:133 59:128 60:115 61:130 62:104 63:110 64:83 
1.0908203125 1:159 2:141 3:136 4:163 5:137 6:109 7:105 8:136 9:138 10:102 11:120 12:139 13:158 14:135 15:136 16:167 17:136 18:108 19:114 20:144 21:128 22:84 23:79 24:103 25:114 26:74 27:79 28:113 29:127 30:110 31:104 32:138 33:137 34:116 35:111 36:140 37:117 38:86 39:76 40:105 41:113 42:86 43:78 44:97 45:126 46:114 47:103 48:138 49:167 50:121 51:137 52:145 53:121 54:115 55:120 56:134 57:140 58:122 59:97 60:131 61:163 62:132 63:148 64:158 
1.0908203125 1:278 2:257 3:259 4:271 5:276 6:221 7:250 8:253 9:259 10:247 11:266 12:239 13:257 14:233 15:270 16:237 17:258 18:241 19:251 20:241 21:236 22:199 23:198 24:225 25:260 26:202 27:215 28:202 29:238 30:214 31:235 32:238 33:277 34:278 35:243 36:254 37:266 38:203 39:221 40:223 41:252 42:226 43:254 44:234 45:244 46:200 47:238 48:238 49:252 50:223 51:257 52:227 53:214 54:235 55:210 56:223 57:282 58:238 59:231 60:244 61:224 62:236 63:253 64:224 
1.0908203125 1:99 2:82 3:76 4:92 5:81 6:62 7:69 8:80 9:86 10:70 11:73 12:83 13:89 14:74 15:87 16:74 17:81 18:70 19:74 20:82 21:73 22:56 23:45 24:56 25:71 26:53 27:62 28:54 29:72 30:55 31:70 32:63 33:85 34:78 35:78 36:76 37:80 38:51 39:62 40:57 41:76 42:62 43:67 44:63 45:70 46:61 47:70 48:73 49:83 50:61 51:84 52:70 53:73 54:61 55:65 56:66 57:84 58:65 59:67 60:73 61:68 62:76 63:66 64:65 
1.0908203125 1:297 2:269 3:238 4:305 5:282 6:254 7:224 8:279 9:259 10:222 11:255 12:217 13:278 14:272 15:284 16:284 17:270 18:267 19:235 20:296 21:263 22:204 23:223 24:232 25:245 26:209 27:243 28:217 29:255 30:232 31:233 32:277 33:276 34:251 35:227 36:262 37:264 38:227 39:210 40:231 41:261 42:241 43:231 44:249 45:228 46:225 47:242 48:264 49:266 50:251 51:252 52:251 53:260 54:237 55:257 56:254 57:252 58:260 59:253 60:275 61:263 62:280 63:282 64:308 
1.0908203125 1:177 2:162 3:143 4:131 5:158 6:131 7:132 8:143 9:152 10:137 11:137 12:122 13:144 14:122 15:135 16:117 17:140 18:138 19:137 20:126 21:129 22:113 23:128 24:118 25:147 26:99 27:123 28:107 29:137 30:126 31:115 32:120 33:158 34:138 35:135 36:142 37:131 38:127 39:106 40:112 41:136 42:116 43:104 44:102 45:112 46:111 47:102 48:111 49:137 50:125 51:133 52:115 53:123 54:117 55:111 56:124 57:138 58:124 59:95 60:104 61:118 62:117 63:113 64:107 
1.0908203125 1:78 2:48 3:47 4:76 5:83 6:48 7:39 8:60 9:68 10:48 11:49 12:54 13:87 14:80 15:76 16:94 17:55 18:57 19:52 20:87 21:53 22:38 23:39 24:60 25:44 26:30 27:41 28:48 29:76 30:51 31:47 32:77 33:47 34:46 35:43 36:70 37:56 38:40 39:31 40:48 41:47 42:38 43:35 44:52 45:69 46:57 47:55 48:67 49:69 50:78 51:76 52:100 53:60 54:64 55:54 56:82 57:48 58:59 59:47 60:93 61:95 62:73 63:70 64:111 
1.0908203125 1:142 2:127 3:137 4:137 5:126 6:116 7:110 8:102 9:141 10:118 11:142 12:122 13:127 14:111 15:136 16:116 17:132 18:105 19:126 20:110 21:103 22:93 23:106 24:88 25:130 26:73 27:116 28:88 29:109 30:83 31:105 32:95 33:152 34:124 35:137 36:131 37:128 38:89 39:92 40:110 41:141 42:117 43:142 44:124 45:112 46:105 47:123 48:117 49:117 50:97 51:122 52:108 53:117 54:92 55:99 56:91 57:133 58:111 59:124 60:122 61:100 62:101 63:127 64:103 
1.0908203125 1:401 2:280 3:292 4:338 5:267 6:160 7:181 8:224 9:283 10:167 11:202 12:240 13:338 14:237 15:250 16:322 17:273 18:163 19:192 20:251 21:181 22:111 23:105 24:143 25:196 26:99 27:115 28:132 29:227 30:141 31:149 32:204 33:297 34:187 35:174 36:257 37:196 38:114 39:98 40:146 41:195 42:116 43:148 44:161 45:229 46:145 47:169 48:218 49:339 50:201 51:234 52:297 53:235 54:155 55:159 56:207 57:241 58:172 59:156 60:227 61:278 62:234 63:232 64:299 
1.0908203125 1:311 2:275 3:267 4:244 5:261 6:243 7:226 8:202 9:271 10:228 11:236 12:206 13:241 14:220 15:218 16:212 17:275 18:240 19:249 20:235 21:249 22:210 23:200 24:187 25:240 26:204 27:171 28:166 29:198 30:184 31:185 32:164 33:266 34:221 35:225 36:224 37:259 38:206 39:189 40:179 41:233 42:195 43:183 44:143 45:207 46:167 47:165 48:133 49:245 50:195 51:199 52:184 53:231 54:187 55:166 56:162 57:193 58:206 59:164 60:156 61:181 62:176 63:152 64:140 
1.0908203125 1:132 2:105 3:101 4:145 5:115 6:91 7:86 8:115 9:97 10:81 11:78 12:119 13:140 14:120 15:112 16:164 17:112 18:95 19:89 20:112 21:88 22:68 23:63 24:99 25:83 26:63 27:56 28:82 29:118 30:92 31:90 32:149 33:88 34:81 35:75 36:120 37:88 38:58 39:55 40:93 41:77 42:53 43:56 44:98 45:116 46:90 47:92 48:147 49:151 50:125 51:109 52:155 53:118 54:101 55:80 56:141 57:108 58:97 59:94 60:145 61:170 62:139 63:151 64:199 
1.0908203125 1:455 2:371 3:335 4:384 5:347 6:228 7:264 8:277 9:323 10:243 11:274 12:311 13:357 14:290 15:334 16:324 17:355 18:242 19:263 20:279 21:252 22:214 23:173 24:217 25:308 26:147 27:169 28:195 29:269 30:205 31:232 32:277 33:333 34:271 35:278 36:348 37:261 38:178 39:155 40:223 41:292 42:176 43:176 44:230 45:261 46:228 47:245 48:304 49:402 50:231 51:274 52:290 53:280 54:236 55:227 56:265 57:308 58:251 59:255 60:301 61:314 62:286 63:305 64:352 
1.0908203125 1:175 2:146 3:154 4:152 5:153 6:131 7:126 8:147 9:125 10:142 11:129 12:143 13:149 14:138 15:130 16:189 17:155 18:143 19:124 20:146 21:134 22:113 23:109 24:140 25:131 26:97 27:113 28:111 29:147 30:135 31:142 32:167 33:138 34:126 35:121 36:137 37:138 38:117 39:99 40:130 41:125 42:103 43:117 44:131 45:134 46:134 47:119 48:154 49:159 50:141 51:139 52:167 53:144 54:135 55:118 56:173 57:142 58:142 59:117 60:155 61:180 62:164 63:166 64:189 
1.0908203125 1:232 2:263 3:220 4:256 5:263 6:265 7:277 8:254 9:218 10:272 11:287 12:262 13:265 14:271 15:297 16:307 17:251 18:268 19:279 20:286 21:267 22:277 23:311 24:291 25:305 26:275 27:338 28:322 29:250 30:306 31:300 32:297 33:252 34:271 35:278 36:305 37:292 38:304 39:312 40:304 41:285 42:323 43:380 44:328 45:260 46:320 47:338 48:323 49:236 50:256 51:261 52:289 53:263 54:300 55:340 56:303 57:299 58:342 59:311 60:328 61:271 62:310 63:346 64:348 
1.0908203125 1:98 2:82 3:88 4:81 5:83 6:77 7:86 8:75 9:96 10:81 11:84 12:90 13:73 14:61 15:105 16:70 17:84 18:79 19:83 20:72 21:71 22:60 23:67 24:64 25:83 26:61 27:74 28:68 29:69 30:56 31:78 32:63 33:95 34:88 35:96 36:87 37:89 38:64 39:81 40:66 41:91 42:75 43:90 44:76 45:86 46:75 47:89 48:76 49:72 50:71 51:83 52:65 53:76 54:61 55:52 56:60 57:97 58:83 59:84 60:91 61:67 62:58 63:84 64:70 
1.0908203125 1:172 2:140 3:126 4:153 5:135 6:144 7:132 8:146 9:106 10:121 11:106 12:127 13:124 14:138 15:131 16:149 17:156 18:141 19:115 20:142 21:156 22:122 23:96 24:140 25:131 26:95 27:92 28:127 29:145 30:142 31:141 32:155 33:114 34:134 35:87 36:120 37:112 38:121 39:88 40:142 41:94 42:111 43:89 44:114 45:117 46:125 47:117 48:153 49:148 50:141 51:132 52:123 53:151 54:127 55:130 56:154 57:124 58:136 59:122 60:143 61:159 62:158 63:140 64:188 
1.0908203125 1:228 2:188 3:149 4:194 5:160 6:140 7:127 8:165 9:143 10:117 11:111 12:131 13:174 14:153 15:136 16:169 17:191 18:140 19:128 20:152 21:155 22:122 23:86 24:141 25:134 26:81 27:72 28:103 29:159 30:147 31:131 32:159 33:151 34:124 35:89 36:131 37:137 38:98 39:65 40:124 41:93 42:96 43:58 44:97 45:114 46:116 47:99 48:149 49:188 50:139 51:136 52:151 53:159 54:144 55:113 56:165 57:125 58:130 59:104 60:146 61:168 62:166 63:143 64:206 
1.0908203125 1:77 2:52 3:73 4:89 5:74 6:46 7:62 8:52 9:80 10:58 11:75 12:82 13:95 14:70 15:83 16:98 17:63 18:48 19:57 20:71 21:45 22:21 23:41 24:45 25:62 26:34 27:53 28:58 29:68 30:43 31:66 32:67 33:78 34:60 35:79 36:83 37:60 38:35 39:51 40:63 41:72 42:55 43:70 44:73 45:83 46:61 47:74 48:91 49:73 50:73 51:85 52:99 53:61 54:50 55:53 56:83 57:87 58:62 59:72 60:95 61:88 62:74 63:94 64:95 
1.0908203125 1:364 2:293 3:284 4:322 5:297 6:244 7:267 8:247 9:258 10:241 11:299 12:289 13:316 14:267 15:330 16:277 17:305 18:250 19:275 20:270 21:254 22:219 23:190 24:241 25:257 26:186 27:196 28:249 29:258 30:229 31:274 32:276 33:277 34:248 35:246 36:327 37:262 38:181 39:189 40:286 41:292 42:221 43:256 44:271 45:261 46:272 47:284 48:320 49:316 50:263 51:282 52:267 53:287 54:260 55:243 56:262 57:291 58:270 59:290 60:327 61:294 62:285 63:294 64:322 
1.0908203125 1:118 2:92 3:101 4:116 5:93 6:80 7:83 8:74 9:96 10:71 11:87 12:99 13:113 14:87 15:112 16:102 17:98 18:71 19:73 20:89 21:82 22:58 23:68 24:60 25:87 26:53 27:60 28:91 29:77 30:66 31:86 32:93 33:102 34:85 35:82 36:103 37:70 38:54 39:65 40:88 41:90 42:58 43:64 44:94 45:95 46:88 47:99 48:113 49:109 50:81 51:96 52:102 53:87 54:76 55:75 56:99 57:100 58:95 59:95 60:110 61:107 62:97 63:104 64:121 
1.0908203125 1:190 2:164 3:143 4:146 5:153 6:129 7:108 8:112 9:139 10:102 11:89 12:101 13:140 14:117 15:103 16:121 17:169 18:120 19:99 20:115 21:130 22:81 23:84 24:83 25:110 26:72 27:73 28:72 29:119 30:75 31:79 32:84 33:135 34:114 35:89 36:106 37:115 38:82 39:63 40:73 41:93 42:75 43:60 44:58 45:98 46:78 47:64 48:64 49:149 50:103 51:99 52:110 53:106 54:86 55:72 56:88 57:103 58:84 59:64 60:72 61:108 62:83 63:78 64:76 
1.0908203125 1:278 2:258 3:261 4:258 5:285 6:214 7:230 8:247 9:261 10:208 11:240 12:214 13:242 14:218 15:228 16:227 17:276 18:244 19:220 20:217 21:240 22:153 23:182 24:161 25:235 26:172 27:195 28:179 29:229 30:167 31:190 32:197 33:265 34:244 35:237 36:226 37:215 38:185 39:171 40:180 41:234 42:176 43:188 44:198 45:199 46:202 47:180 48:211 49:236 50:229 51:204 52:210 53:218 54:184 55:198 56:194 57:243 58:195 59:173 60:200 61:213 62:208 63:214 64:234 
1.0908203125 1:247 2:184 3:209 4:201 5:178 6:129 7:144 8:144 9:202 10:151 11:172 12:162 13:185 14:139 15:188 16:158 17:188 18:129 19:135 20:136 21:129 22:88 23:118 24:99 25:163 26:106 27:130 28:127 29:137 30:101 31:133 32:112 33:216 34:154 35:187 36:183 37:143 38:113 39:138 40:120 41:191 42:121 43:144 44:138 45:159 46:134 47:151 48:135 49:190 50:127 51:155 52:146 53:139 54:104 55:126 56:119 57:185 58:136 59:148 60:151 61:141 62:115 63:149 64:128 
1.0908203125 1:85 2:47 3:66 4:65 5:65 6:35 7:61 8:37 9:82 10:47 11:79 12:57 13:80 14:57 15:77 16:60 17:49 18:45 19:57 20:62 21:39 22:29 23:34 24:22 25:49 26:42 27:55 28:47 29:53 30:28 31:41 32:24 33:60 34:51 35:71 36:76 37:71 38:34 39:65 40:37 41:79 42:57 43:72 44:60 45:75 46:39 47:68 48:43 49:69 50:54 51:70 52:67 53:39 54:26 55:33 56:49 57:49 58:61 59:62 60:60 61:56 62:24 63:47 64:60 
1.0908203125 1:100 2:66 3:84 4:79 5:71 6:36 7:56 8:51 9:77 10:48 11:69 12:62 13:82 14:48 15:67 16:52 17:70 18:46 19:51 20:52 21:50 22:21 23:28 24:27 25:48 26:21 27:45 28:38 29:52 30:24 31:40 32:39 33:77 34:52 35:58 36:62 37:53 38:33 39:31 40:39 41:64 42:46 43:57 44:53 45:58 46:39 47:50 48:60 49:82 50:49 51:62 52:52 53:46 54:36 55:37 56:37 57:61 58:41 59:49 60:53 61:57 62:46 63:48 64:52 
1.0908203125 1:439 2:335 3:339 4:374 5:358 6:275 7:254 8:287 9:343 10:270 11:299 12:300 13:343 14:318 15:301 16:323 17:357 18:279 19:295 20:304 21:307 22:240 23:221 24:244 25:291 26:184 27:219 28:214 29:276 30:239 31:226 32:278 33:351 34:281 35:289 36:310 37:287 38:230 39:185 40:222 41:305 42:210 43:217 44:228 45:272 46:237 47:242 48:260 49:339 50:278 51:289 52:293 53:283 54:267 55:249 56:265 57:292 58:260 59:226 60:268 61:309 62:271 63:281 64:292 
1.0908203125 1:145 2:103 3:109 4:106 5:109 6:92 7:96 8:85 9:111 10:95 11:114 12:97 13:105 14:82 15:112 16:89 17:105 18:87 19:103 20:94 21:92 22:63 23:77 24:66 25:100 26:60 27:69 28:76 29:87 30:72 31:88 32:75 33:112 34:99 35:120 36:101 37:102 38:70 39:67 40:76 41:115 42:70 43:70 44:81 45:88 46:82 47:89 48:98 49:101 50:92 51:84 52:83 53:87 54:73 55:65 56:94 57:107 58:90 59:83 60:102 61:84 62:84 63:94 64:93 
1.0908203125 1:71 2:56 3:72 4:50 5:54 6:51 7:76 8:40 9:63 10:75 11:67 12:56 13:45 14:41 15:49 16:29 17:64 18:58 19:60 20:40 21:55 22:55 23:66 24:42 25:71 26:76 27:76 28:61 29:42 30:47 31:51 32:25 33:66 34:70 35:70 36:46 37:68 38:68 39:87 40:55 41:69 42:68 43:76 44:49 45:51 46:52 47:58 48:44 49:47 50:36 51:59 52:24 53:45 54:44 55:56 56:27 57:49 58:59 59:44 60:38 61:29 62:33 63:36 64:23 
1.0908203125 1:286 2:221 3:234 4:248 5:206 6:159 7:182 8:173 9:208 10:203 11:223 12:202 13:228 14:169 15:231 16:218 17:234 18:166 19:194 20:181 21:188 22:136 23:148 24:154 25:186 26:132 27:169 28:171 29:190 30:158 31:173 32:175 33:233 34:183 35:196 36:215 37:199 38:159 39:172 40:184 41:216 42:190 43:202 44:188 45:188 46:174 47:190 48:202 49:236 50:149 51:211 52:198 53:183 54:172 55:156 56:184 57:218 58:189 59:202 60:192 61:192 62:195 63:208 64:188 
1.0908203125 1:461 2:380 3:355 4:367 5:357 6:266 7:251 8:247 9:341 10:270 11:261 12:256 13:337 14:235 15:257 16:251 17:383 18:262 19:270 20:253 21:279 22:182 23:168 24:205 25:281 26:182 27:150 28:164 29:254 30:214 31:203 32:188 33:351 34:261 35:262 36:249 37:271 38:187 39:178 40:197 41:253 42:171 43:172 44:164 45:237 46:190 47:162 48:171 49:368 50:217 51:240 52:207 53:262 54:199 55:180 56:209 57:249 58:210 59:177 60:175 61:208 62:212 63:190 64:191 
1.0908203125 1:353 2:261 3:259 4:284 5:256 6:191 7:195 8:216 9:238 10:179 11:194 12:205 13:253 14:201 15:210 16:256 17:258 18:203 19:181 20:213 21:194 22:144 23:114 24:158 25:202 26:108 27:111 28:135 29:206 30:155 31:166 32:183 33:265 34:200 35:180 36:216 37:191 38:127 39:97 40:149 41:202 42:118 43:121 44:135 45:186 46:153 47:150 48:169 49:281 50:193 51:195 52:203 53:215 54:148 55:150 56:186 57:220 58:159 59:150 60:182 61:231 62:191 63:186 64:219 
1.0908203125 1:366 2:310 3:288 4:293 5:297 6:231 7:228 8:250 9:260 10:216 11:238 12:234 13:259 14:253 15:238 16:266 17:310 18:248 19:232 20:249 21:267 22:209 23:168 24:212 25:251 26:157 27:171 28:181 29:256 30:218 31:203 32:235 33:282 34:237 35:211 36:253 37:225 38:174 39:147 40:214 41:230 42:183 43:155 44:182 45:195 46:212 47:179 48:236 49:299 50:210 51:216 52:217 53:251 54:242 55:217 56:235 57:243 58:204 59:186 60:224 61:236 62:263 63:238 64:260 
1.0908203125 1:256 2:194 3:181 4:206 5:183 6:134 7:131 8:158 9:182 10:136 11:150 12:144 13:189 14:154 15:164 16:177 17:186 18:138 19:136 20:159 21:142 22:107 23:103 24:114 25:145 26:89 27:94 28:108 29:147 30:122 31:125 32:140 33:190 34:141 35:138 36:162 37:153 38:95 39:80 40:120 41:151 42:98 43:92 44:119 45:146 46:112 47:116 48:142 49:205 50:132 51:156 52:153 53:142 54:130 55:122 56:141 57:154 58:125 59:124 60:144 61:168 62:148 63:143 64:174 
1.0908203125 1:137 2:96 3:126 4:104 5:99 6:63 7:72 8:67 9:116 10:89 11:107 12:89 13:94 14:65 15:92 16:82 17:97 18:69 19:80 20:74 21:64 22:33 23:57 24:46 25:84 26:52 27:69 28:57 29:62 30:54 31:68 32:58 33:124 34:76 35:100 36:86 37:88 38:55 39:66 40:71 41:99 42:71 43:101 44:81 45:88 46:58 47:77 48:83 49:105 50:59 51:94 52:65 53:70 54:49 55:67 56:57 57:88 58:68 59:75 60:78 61:83 62:67 63:73 64:76 
1.0908203125 1:51 2:45 3:55 4:48 5:50 6:31 7:42 8:40 9:55 10:51 11:50 12:43 13:44 14:36 15:48 16:48 17:48 18:32 19:43 20:41 21:38 22:25 23:41 24:30 25:44 26:40 27:40 28:44 29:37 30:29 31:40 32:39 33:56 34:49 35:49 36:48 37:39 38:45 39:48 40:38 41:51 42:38 43:45 44:46 45:51 46:38 47:48 48:42 49:44 50:36 51:51 52:35 53:38 54:33 55:37 56:36 57:53 58:41 59:45 60:45 61:38 62:42 63:49 64:48 
1.0908203125 1:171 2:121 3:136 4:167 5:121 6:64 7:95 8:99 9:142 10:82 11:111 12:110 13:140 14:102 15:135 16:138 17:120 18:75 19:87 20:96 21:81 22:39 23:47 24:57 25:100 26:53 27:73 28:64 29:90 30:61 31:79 32:98 33:157 34:95 35:105 36:121 37:85 38:60 39:62 40:83 41:114 42:68 43:82 44:104 45:113 46:73 47:85 48:113 49:147 50:87 51:116 52:127 53:92 54:61 55:86 56:88 57:123 58:87 59:102 60:105 61:138 62:92 63:119 64:136 
1.0908203125 1:337 2:256 3:255 4:281 5:270 6:174 7:202 8:215 9:273 10:203 11:231 12:234 13:274 14:218 15:245 16:261 17:259 18:186 19:229 20:236 21:195 22:149 23:155 24:165 25:219 26:165 27:161 28:153 29:202 30:168 31:177 32:204 33:270 34:215 35:219 36:252 37:228 38:150 39:163 40:181 41:236 42:166 43:175 44:175 45:221 46:169 47:191 48:204 49:263 50:203 51:237 52:225 53:218 54:191 55:178 56:189 57:229 58:188 59:185 60:222 61:235 62:222 63:212 64:246 
1.0908203125 1:262 2:209 3:250 4:266 5:221 6:151 7:188 8:199 9:240 10:192 11:256 12:239 13:255 14:211 15:247 16:243 17:231 18:164 19:198 20:203 21:175 22:137 23:155 24:159 25:222 26:134 27:185 28:161 29:189 30:159 31:208 32:223 33:247 34:193 35:243 36:259 37:187 38:162 39:156 40:207 41:239 42:180 43:207 44:224 45:210 46:207 47:196 48:278 49:247 50:192 51:235 52:224 53:214 54:176 55:203 56:213 57:242 58:206 59:202 60:266 61:248 62:230 63:266 64:259 
1.0908203125 1:262 2:221 3:248 4:238 5:226 6:171 7:208 8:180 9:232 10:217 11:255 12:226 13:206 14:186 15:251 16:212 17:230 18:186 19:220 20:212 21:210 22:134 23:164 24:164 25:210 26:170 27:217 28:180 29:179 30:166 31:204 32:195 33:245 34:212 35:236 36:220 37:215 38:180 39:220 40:214 41:248 42:215 43:264 44:237 45:216 46:214 47:226 48:225 49:232 50:165 51:225 52:181 53:198 54:187 55:185 56:185 57:224 58:227 59:228 60:237 61:206 62:190 63:236 64:217 
1.0908203125 1:86 2:56 3:78 4:57 5:59 6:36 7:56 8:41 9:77 10:60 11:83 12:71 13:70 14:34 15:64 16:42 17:56 18:38 19:59 20:40 21:34 22:27 23:38 24:31 25:52 26:43 27:57 28:41 29:42 30:30 31:53 32:41 33:73 34:60 35:79 36:64 37:63 38:35 39:58 40:49 41:78 42:54 43:82 44:72 45:63 46:48 47:63 48:59 49:62 50:37 51:74 52:45 53:38 54:32 55:41 56:44 57:70 58:48 59:64 60:48 61:47 62:44 63:51 64:63 
1.0908203125 1:71 2:69 3:67 4:74 5:78 6:55 7:65 8:58 9:63 10:58 11:48 12:50 13:68 14:68 15:61 16:58 17:78 18:67 19:61 20:67 21:66 22:60 23:54 24:54 25:57 26:59 27:49 28:60 29:61 30:56 31:57 32:57 33:63 34:64 35:43 36:52 37:67 38:59 39:54 40:55 41:46 42:54 43:49 44:57 45:53 46:52 47:56 48:61 49:69 50:55 51:47 52:58 53:63 54:60 55:52 56:63 57:57 58:64 59:60 60:54 61:51 62:63 63:62 64:73 
1.0908203125 1:32 2:38 3:27 4:38 5:45 6:54 7:38 8:60 9:34 10:43 11:42 12:41 13:41 14:50 15:47 16:67 17:41 18:55 19:50 20:64 21:61 22:72 23:62 24:75 25:37 26:56 27:53 28:61 29:50 30:79 31:66 32:85 33:30 34:46 35:36 36:39 37:50 38:63 39:48 40:66 41:41 42:54 43:42 44:53 45:39 46:58 47:54 48:74 49:32 50:57 51:46 52:60 53:55 54:81 55:59 56:78 57:40 58:74 59:53 60:69 61:69 62:87 63:70 64:103 
1.0908203125 1:177 2:133 3:176 4:169 5:155 6:119 7:139 8:124 9:175 10:136 11:159 12:151 13:159 14:127 15:159 16:152 17:150 18:124 19:140 20:126 21:110 22:78 23:103 24:95 25:151 26:92 27:130 28:95 29:118 30:88 31:125 32:115 33:183 34:156 35:154 36:155 37:140 38:99 39:122 40:111 41:166 42:120 43:160 44:150 45:146 46:111 47:138 48:137 49:145 50:123 51:150 52:143 53:136 54:90 55:104 56:115 57:157 58:124 59:147 60:135 61:142 62:120 63:142 64:149 
1.0908203125 1:102 2:105 3:72 4:76 5:110 6:98 7:86 8:104 9:105 10:61 11:62 12:66 13:96 14:86 15:77 16:87 17:100 18:109 19:86 20:102 21:99 22:103 23:63 24:81 25:61 26:87 27:52 28:68 29:99 30:93 31:70 32:72 33:68 34:82 35:65 36:76 37:83 38:64 39:56 40:69 41:56 42:49 43:42 44:53 45:74 46:73 47:52 48:59 49:84 50:101 51:71 52:88 53:105 54:81 55:64 56:79 57:69 58:75 59:45 60:70 61:76 62:78 63:64 64:81 
1.0908203125 1:61 2:70 3:71 4:69 5:67 6:67 7:68 8:69 9:75 10:75 11:83 12:73 13:67 14:63 15:70 16:67 17:62 18:64 19:78 20:70 21:69 22:60 23:66 24:57 25:71 26:66 27:75 28:63 29:65 30:56 31:78 32:61 33:80 34:74 35:79 36:60 37:85 38:62 39:69 40:75 41:76 42:79 43:81 44:76 45:81 46:66 47:77 48:67 49:68 50:62 51:77 52:64 53:54 54:63 55:72 56:58 57:72 58:71 59:73 60:78 61:62 62:63 63:70 64:60 
1.0908203125 1:351 2:303 3:292 4:299 5:298 6:243 7:258 8:250 9:285 10:235 11:262 12:286 13:289 14:238 15:301 16:284 17:296 18:249 19:246 20:251 21:240 22:196 23:213 24:239 25:273 26:174 27:199 28:225 29:249 30:205 31:236 32:269 33:286 34:266 35:259 36:308 37:247 38:218 39:173 40:213 41:278 42:198 43:199 44:227 45:244 46:245 47:234 48:291 49:311 50:230 51:271 52:250 53:257 54:231 55:228 56:256 57:283 58:244 59:243 60:275 61:281 62:285 63:278 64:317 
1.0908203125 1:412 2:312 3:327 4:360 5:295 6:189 7:182 8:259 9:293 10:203 11:199 12:238 13:351 14:245 15:232 16:315 17:307 18:187 19:187 20:257 21:206 22:116 23:122 24:164 25:212 26:102 27:119 28:147 29:231 30:157 31:179 32:201 33:327 34:202 35:192 36:241 37:196 38:127 39:117 40:152 41:213 42:132 43:139 44:150 45:216 46:163 47:165 48:198 49:364 50:223 51:227 52:281 53:241 54:176 55:160 56:192 57:244 58:155 59:178 60:206 61:298 62:205 63:211 64:283 
1.0908203125 1:75 2:53 3:57 4:50 5:50 6:36 7:47 8:37 9:53 10:49 11:67 12:69 13:66 14:40 15:59 16:42 17:50 18:28 19:54 20:39 21:35 22:25 23:28 24:34 25:49 26:21 27:35 28:43 29:44 30:38 31:43 32:44 33:52 34:47 35:61 36:61 37:45 38:26 39:29 40:48 41:60 42:39 43:49 44:44 45:55 46:44 47:49 48:69 49:58 50:41 51:65 52:53 53:42 54:35 55:44 56:49 57:60 58:39 59:41 60:60 61:56 62:49 63:50 64:60 
1.0908203125 1:220 2:153 3:173 4:199 5:162 6:119 7:105 8:161 9:167 10:118 11:132 12:161 13:195 14:133 15:168 16:203 17:165 18:119 19:117 20:153 21:125 22:77 23:83 24:99 25:130 26:78 27:94 28:97 29:135 30:102 31:125 32:144 33:168 34:138 35:133 36:168 37:130 38:82 39:93 40:116 41:153 42:101 43:110 44:116 45:143 46:102 47:124 48:164 49:192 50:136 51:154 52:175 53:138 54:106 55:118 56:129 57:158 58:124 59:144 60:158 61:188 62:155 63:168 64:194 
1.0908203125 1:96 2:113 3:88 4:80 5:118 6:137 7:107 8:92 9:95 10:112 11:74 12:93 13:83 14:108 15:71 16:71 17:108 18:139 19:117 20:113 21:136 22:151 23:122 24:133 25:108 26:125 27:94 28:97 29:96 30:127 31:113 32:107 33:93 34:104 35:84 36:74 37:109 38:130 39:101 40:104 41:75 42:102 43:47 44:66 45:75 46:106 47:78 48:70 49:80 50:97 51:84 52:62 53:115 54:124 55:94 56:113 57:78 58:105 59:75 60:72 61:73 62:106 63:69 64:71 
1.0908203125 1:182 2:154 3:130 4:183 5:161 6:132 7:128 8:165 9:111 10:110 11:126 12:146 13:180 14:170 15:145 16:184 17:172 18:145 19:130 20:156 21:142 22:120 23:89 24:167 25:132 26:84 27:87 28:114 29:162 30:165 31:141 32:185 33:124 34:138 35:93 36:155 37:140 38:101 39:66 40:138 41:120 42:95 43:82 44:111 45:131 46:125 47:123 48:167 49:171 50:148 51:139 52:181 53:161 54:165 55:134 56:182 57:148 58:156 59:113 60:174 61:170 62:183 63:183 64:215 
1.0908203125 1:170 2:166 3:152 4:149 5:159 6:141 7:144 8:159 9:124 10:131 11:173 12:178 13:131 14:139 15:199 16:153 17:166 18:135 19:156 20:143 21:137 22:132 23:142 24:163 25:163 26:121 27:146 28:173 29:161 30:178 31:183 32:151 33:128 34:159 35:129 36:185 37:146 38:135 39:134 40:178 41:153 42:163 43:163 44:185 45:165 46:186 47:172 48:219 49:173 50:142 51:168 52:141 53:159 54:166 55:183 56:172 57:162 58:178 59:182 60:205 61:171 62:178 63:174 64:208 
1.0908203125 1:177 2:176 3:141 4:145 5:177 6:159 7:156 8:140 9:143 10:159 11:135 12:150 13:135 14:144 15:143 16:115 17:181 18:158 19:158 20:154 21:176 22:158 23:138 24:146 25:162 26:142 27:125 28:136 29:145 30:144 31:136 32:136 33:149 34:159 35:143 36:139 37:152 38:147 39:133 40:145 41:151 42:136 43:105 44:106 45:127 46:137 47:133 48:135 49:132 50:138 51:144 52:95 53:147 54:154 55:138 56:129 57:135 58:140 59:133 60:139 61:106 62:144 63:136 64:133 
1.0908203125 1:256 2:227 3:210 4:202 5:241 6:177 7:169 8:152 9:219 10:180 11:177 12:165 13:214 14:175 15:143 16:143 17:230 18:186 19:179 20:181 21:188 22:143 23:141 24:122 25:179 26:141 27:126 28:104 29:162 30:108 31:120 32:98 33:208 34:169 35:181 36:152 37:183 38:147 39:132 40:116 41:175 42:120 43:122 44:103 45:159 46:102 47:105 48:102 49:201 50:156 51:170 52:136 53:165 54:127 55:108 56:97 57:138 58:137 59:95 60:95 61:132 62:113 63:98 64:98 
1.0908203125 1:129 2:99 3:114 4:109 5:102 6:82 7:97 8:80 9:115 10:98 11:119 12:92 13:107 14:80 15:115 16:85 17:110 18:79 19:97 20:80 21:79 22:60 23:76 24:69 25:100 26:74 27:84 28:77 29:77 30:65 31:85 32:81 33:110 34:101 35:116 36:108 37:106 38:73 39:86 40:82 41:121 42:87 43:96 44:90 45:102 46:82 47:95 48:72 49:101 50:81 51:97 52:86 53:79 54:69 55:77 56:76 57:99 58:88 59:96 60:91 61:80 62:75 63:83 64:69 
1.0908203125 1:209 2:159 3:175 4:208 5:168 6:134 7:167 8:163 9:167 10:169 11:186 12:211 13:193 14:176 15:224 16:224 17:163 18:138 19:153 20:191 21:140 22:115 23:125 24:166 25:174 26:119 27:155 28:185 29:154 30:154 31:221 32:208 33:191 34:174 35:188 36:219 37:170 38:115 39:156 40:200 41:200 42:153 43:196 44:211 45:193 46:183 47:219 48:267 49:187 50:160 51:217 52:195 53:167 54:182 55:186 56:207 57:231 58:200 59:224 60:254 61:220 62:230 63:249 64:292 
1.0908203125 1:405 2:312 3:286 4:358 5:312 6:211 7:212 8:239 9:301 10:199 11:220 12:252 13:325 14:240 15:279 16:298 17:311 18:210 19:202 20:240 21:220 22:147 23:142 24:183 25:218 26:130 27:143 28:185 29:244 30:169 31:200 32:233 33:298 34:225 35:224 36:264 37:214 38:137 39:135 40:192 41:224 42:156 43:142 44:184 45:239 46:196 47:198 48:233 49:346 50:226 51:260 52:276 53:217 54:197 55:188 56:231 57:268 58:193 59:202 60:244 61:301 62:229 63:234 64:291 
1.0908203125 1:166 2:135 3:129 4:155 5:140 6:110 7:99 8:119 9:118 10:91 11:78 12:109 13:144 14:100 15:106 16:126 17:142 18:115 19:100 20:110 21:111 22:83 23:69 24:93 25:90 26:71 27:61 28:80 29:119 30:93 31:86 32:106 33:119 34:113 35:70 36:89 37:103 38:70 39:58 40:87 41:74 42:66 43:58 44:82 45:100 46:81 47:90 48:101 49:158 50:104 51:96 52:118 53:114 54:93 55:76 56:104 57:110 58:90 59:83 60:100 61:117 62:114 63:102 64:136 
1.0908203125 1:304 2:244 3:225 4:288 5:249 6:190 7:194 8:208 9:227 10:192 11:193 12:227 13:264 14:217 15:259 16:242 17:264 18:191 19:199 20:224 21:206 22:164 23:149 24:157 25:221 26:125 27:133 28:161 29:202 30:170 31:187 32:184 33:243 34:206 35:203 36:244 37:197 38:141 39:133 40:171 41:213 42:145 43:138 44:168 45:188 46:190 47:176 48:217 49:250 50:199 51:211 52:222 53:227 54:181 55:164 56:206 57:236 58:180 59:200 60:214 61:232 62:202 63:209 64:224 
1.0908203125 1:65 2:53 3:42 4:71 5:64 6:43 7:43 8:62 9:54 10:37 11:44 12:51 13:67 14:61 15:57 16:93 17:57 18:53 19:50 20:65 21:55 22:36 23:34 24:47 25:48 26:33 27:28 28:43 29:56 30:54 31:40 32:88 33:49 34:41 35:40 36:57 37:47 38:36 39:28 40:43 41:37 42:36 43:25 44:30 45:49 46:49 47:33 48:67 49:60 50:64 51:53 52:81 53:60 54:57 55:47 56:85 57:49 58:48 59:31 60:73 61:90 62:86 63:72 64:113 
1.0908203125 1:315 2:276 3:279 4:255 5:273 6:219 7:243 8:215 9:265 10:224 11:268 12:248 13:257 14:213 15:255 16:230 17:269 18:220 19:234 20:234 21:236 22:202 23:215 24:231 25:255 26:194 27:211 28:213 29:206 30:216 31:219 32:212 33:279 34:263 35:249 36:245 37:215 38:224 39:207 40:199 41:262 42:222 43:223 44:203 45:225 46:232 47:209 48:236 49:262 50:190 51:242 52:217 53:234 54:239 55:208 56:207 57:255 58:205 59:208 60:237 61:227 62:228 63:223 64:233 
1.0908203125 1:292 2:232 3:233 4:276 5:250 6:176 7:147 8:194 9:234 10:160 11:181 12:198 13:240 14:201 15:208 16:239 17:244 18:176 19:187 20:199 21:186 22:148 23:125 24:153 25:196 26:98 27:111 28:125 29:183 30:156 31:139 32:201 33:244 34:173 35:170 36:209 37:168 38:123 39:108 40:147 41:170 42:119 43:132 44:147 45:173 46:151 47:148 48:173 49:253 50:185 51:182 52:200 53:203 54:165 55:150 56:184 57:197 58:169 59:144 60:174 61:228 62:195 63:190 64:228 
1.0908203125 1:84 2:103 3:60 4:72 5:95 6:103 7:80 8:96 9:65 10:72 11:49 12:70 13:80 14:98 15:63 16:86 17:91 18:97 19:87 20:112 21:107 22:96 23:76 24:109 25:65 26:87 27:55 28:79 29:91 30:112 31:80 32:100 33:63 34:74 35:48 36:56 37:82 38:80 39:56 40:86 41:44 42:63 43:37 44:50 45:67 46:71 47:53 48:82 49:81 50:99 51:60 52:83 53:104 54:109 55:74 56:91 57:68 58:82 59:53 60:73 61:89 62:98 63:81 64:103 
1.0908203125 1:375 2:303 3:256 4:329 5:278 6:215 7:203 8:250 9:256 10:193 11:205 12:265 13:301 14:237 15:283 16:296 17:284 18:197 19:208 20:230 21:194 22:146 23:162 24:206 25:231 26:121 27:169 28:174 29:251 30:216 31:232 32:252 33:273 34:212 35:210 36:297 37:203 38:145 39:124 40:237 41:232 42:164 43:159 44:201 45:219 46:210 47:211 48:266 49:331 50:233 51:244 52:257 53:245 54:202 55:206 56:257 57:274 58:231 59:223 60:265 61:298 62:248 63:268 64:307 
1.0908203125 1:463 2:333 3:375 4:400 5:307 6:213 7:235 8:239 9:344 10:228 11:262 12:277 13:358 14:260 15:279 16:316 17:337 18:208 19:234 20:258 21:239 22:126 23:134 24:149 25:256 26:113 27:149 28:151 29:230 30:159 31:178 32:216 33:373 34:242 35:251 36:290 37:225 38:136 39:131 40:179 41:262 42:149 43:182 44:191 45:241 46:174 47:192 48:237 49:398 50:210 51:250 52:261 53:267 54:173 55:169 56:215 57:295 58:181 59:191 60:224 61:294 62:232 63:243 64:266 
1.0908203125 1:206 2:164 3:173 4:184 5:176 6:139 7:150 8:138 9:176 10:137 11:161 12:143 13:173 14:135 15:168 16:169 17:169 18:148 19:140 20:165 21:148 22:100 23:108 24:124 25:136 26:114 27:115 28:113 29:147 30:124 31:138 32:129 33:178 34:149 35:148 36:153 37:155 38:117 39:104 40:130 41:152 42:120 43:122 44:128 45:139 46:128 47:137 48:142 49:173 50:141 51:156 52:139 53:143 54:124 55:117 56:145 57:164 58:135 59:125 60:161 61:151 62:143 63:146 64:165 
1.0908203125 1:186 2:153 3:146 4:190 5:161 6:115 7:106 8:137 9:161 10:110 11:101 12:131 13:173 14:145 15:141 16:175 17:162 18:126 19:109 20:151 21:132 22:77 23:80 24:97 25:110 26:70 27:81 28:89 29:130 30:105 31:107 32:123 33:151 34:120 35:111 36:130 37:118 38:78 39:65 40:99 41:116 42:69 43:72 44:95 45:127 46:99 47:97 48:130 49:175 50:119 51:137 52:159 53:137 54:116 55:100 56:131 57:125 58:111 59:99 60:137 61:161 62:136 63:131 64:159 
1.0908203125 1:75 2:55 3:59 4:56 5:52 6:41 7:45 8:47 9:49 10:47 11:56 12:37 13:48 14:44 15:39 16:38 17:62 18:44 19:43 20:41 21:50 22:31 23:28 24:35 25:49 26:29 27:31 28:19 29:46 30:34 31:30 32:30 33:59 34:49 35:46 36:34 37:40 38:43 39:28 40:29 41:50 42:34 43:38 44:32 45:34 46:28 47:32 48:26 49:49 50:36 51:40 52:34 53:49 54:29 55:27 56:28 57:41 58:30 59:29 60:31 61:35 62:28 63:31 64:31 
1.0908203125 1:157 2:130 3:118 4:122 5:123 6:76 7:72 8:83 9:122 10:80 11:95 12:85 13:123 14:76 15:86 16:85 17:129 18:68 19:85 20:79 21:73 22:62 23:55 24:74 25:88 26:56 27:48 28:56 29:77 30:74 31:67 32:74 33:123 34:81 35:93 36:94 37:84 38:60 39:56 40:64 41:88 42:61 43:60 44:49 45:66 46:62 47:60 48:64 49:117 50:74 51:86 52:71 53:81 54:66 55:66 56:70 57:93 58:67 59:56 60:61 61:83 62:72 63:68 64:76 
1.0908203125 1:96 2:75 3:88 4:76 5:81 6:62 7:82 8:64 9:87 10:81 11:91 12:79 13:84 14:61 15:77 16:66 17:78 18:69 19:77 20:62 21:63 22:58 23:53 24:62 25:80 26:60 27:77 28:58 29:74 30:59 31:64 32:58 33:82 34:82 35:89 36:78 37:76 38:66 39:76 40:65 41:93 42:74 43:84 44:71 45:69 46:67 47:75 48:67 49:79 50:62 51:83 52:68 53:67 54:50 55:64 56:63 57:72 58:68 59:70 60:69 61:69 62:58 63:64 64:58 
1.0908203125 1:59 2:62 3:43 4:77 5:82 6:66 7:62 8:74 9:60 10:53 11:40 12:53 13:82 14:79 15:79 16:96 17:78 18:79 19:63 20:73 21:68 22:52 23:55 24:87 25:59 26:54 27:40 28:69 29:80 30:73 31:62 32:99 33:48 34:59 35:40 36:88 37:67 38:65 39:47 40:59 41:43 42:54 43:21 44:46 45:53 46:62 47:56 48:67 49:55 50:83 51:59 52:95 53:76 54:79 55:58 56:94 57:73 58:77 59:63 60:70 61:78 62:94 63:87 64:76 
1.0908203125 1:245 2:180 3:193 4:189 5:177 6:160 7:145 8:146 9:177 10:160 11:166 12:163 13:165 14:146 15:174 16:156 17:194 18:140 19:158 20:155 21:154 22:126 23:118 24:142 25:170 26:106 27:103 28:111 29:160 30:126 31:141 32:146 33:180 34:173 35:156 36:164 37:160 38:127 39:108 40:143 41:161 42:128 43:100 44:129 45:147 46:126 47:134 48:138 49:188 50:134 51:158 52:129 53:157 54:127 55:119 56:141 57:166 58:144 59:149 60:141 61:141 62:147 63:152 64:141 
1.0908203125 1:351 2:265 3:260 4:243 5:258 6:170 7:204 8:176 9:282 10:197 11:231 12:202 13:233 14:156 15:215 16:159 17:257 18:171 19:212 20:169 21:182 22:118 23:130 24:124 25:203 26:130 27:146 28:125 29:176 30:119 31:144 32:140 33:280 34:213 35:228 36:200 37:206 38:137 39:147 40:146 41:233 42:155 43:151 44:151 45:189 46:133 47:170 48:143 49:231 50:158 51:211 52:147 53:164 54:129 55:123 56:132 57:204 58:154 59:162 60:156 61:153 62:141 63:148 64:157 
1.0908203125 1:406 2:319 3:325 4:361 5:320 6:262 7:277 8:269 9:322 10:272 11:282 12:294 13:339 14:277 15:281 16:316 17:311 18:274 19:278 20:292 21:286 22:210 23:229 24:225 25:287 26:225 27:227 28:227 29:269 30:231 31:213 32:250 33:335 34:270 35:285 36:275 37:280 38:232 39:218 40:230 41:294 42:214 43:215 44:223 45:290 46:230 47:221 48:258 49:358 50:264 51:282 52:281 53:269 54:246 55:243 56:238 57:262 58:249 59:223 60:254 61:288 62:259 63:277 64:281 
1.0908203125 1:449 2:379 3:396 4:363 5:400 6:299 7:346 8:286 9:383 10:355 11:364 12:292 13:348 14:286 15:306 16:291 17:398 18:338 19:345 20:303 21:334 22:273 23:270 24:237 25:349 26:269 27:274 28:257 29:302 30:226 31:262 32:236 33:399 34:342 35:343 36:313 37:358 38:284 39:283 40:264 41:369 42:274 43:281 44:268 45:280 46:283 47:277 48:229 49:341 50:271 51:309 52:248 53:293 54:258 55:250 56:238 57:297 58:291 59:273 60:251 61:243 62:245 63:268 64:231 
1.0908203125 1:46 2:41 3:50 4:44 5:38 6:42 7:47 8:50 9:43 10:45 11:40 12:52 13:45 14:49 15:53 16:72 17:43 18:42 19:43 20:56 21:52 22:46 23:41 24:51 25:45 26:45 27:40 28:59 29:49 30:53 31:55 32:79 33:50 34:38 35:44 36:45 37:49 38:38 39:56 40:52 41:42 42:41 43:43 44:48 45:43 46:62 47:63 48:79 49:42 50:55 51:42 52:70 53:46 54:64 55:45 56:82 57:48 58:64 59:51 60:87 61:76 62:74 63:80 64:95 
1.0908203125 1:55 2:63 3:50 4:77 5:64 6:46 7:48 8:65 9:53 10:48 11:51 12:60 13:72 14:64 15:63 16:90 17:59 18:53 19:58 20:70 21:58 22:42 23:44 24:46 25:48 26:47 27:42 28:52 29:54 30:46 31:55 32:81 33:59 34:50 35:43 36:59 37:57 38:50 39:44 40:44 41:48 42:42 43:53 44:49 45:62 46:55 47:52 48:70 49:72 50:56 51:60 52:79 53:62 54:52 55:53 56:80 57:63 58:58 59:46 60:77 61:83 62:83 63:75 64:90 
1.0908203125 1:160 2:113 3:122 4:130 5:119 6:86 7:99 8:100 9:118 10:102 11:119 12:112 13:113 14:97 15:115 16:109 17:121 18:104 19:106 20:98 21:106 22:67 23:63 24:72 25:113 26:47 27:63 28:76 29:88 30:74 31:83 32:101 33:124 34:100 35:109 36:113 37:94 38:76 39:57 40:88 41:107 42:74 43:81 44:92 45:94 46:83 47:95 48:121 49:120 50:86 51:113 52:89 53:111 54:79 55:80 56:85 57:109 58:92 59:91 60:112 61:117 62:102 63:112 64:118 
1.0908203125 1:177 2:173 3:155 4:202 5:183 6:145 7:153 8:183 9:140 10:143 11:156 12:181 13:185 14:177 15:199 16:218 17:181 18:162 19:156 20:180 21:161 22:122 23:116 24:161 25:166 26:106 27:115 28:153 29:169 30:166 31:166 32:214 33:154 34:159 35:138 36:190 37:149 38:118 39:107 40:170 41:151 42:127 43:113 44:159 45:171 46:168 47:157 48:203 49:194 50:169 51:171 52:203 53:186 54:175 55:165 56:200 57:184 58:168 59:167 60:205 61:213 62:216 63:206 64:260 
1.0908203125 1:18 2:21 3:20 4:22 5:19 6:13 7:16 8:20 9:18 10:19 11:21 12:22 13:33 14:19 15:21 16:29 17:21 18:15 19:18 20:19 21:17 22:8 23:9 24:16 25:20 26:8 27:10 28:16 29:20 30:17 31:17 32:28 33:14 34:15 35:16 36:26 37:13 38:11 39:12 40:22 41:15 42:12 43:16 44:21 45:24 46:20 47:16 48:30 49:28 50:16 51:25 52:31 53:25 54:18 55:17 56:23 57:19 58:19 59:17 60:30 61:27 62:28 63:32 64:42 
1.0908203125 1:291 2:214 3:221 4:265 5:207 6:148 7:148 8:185 9:228 10:154 11:175 12:191 13:266 14:186 15:208 16:246 17:217 18:139 19:160 20:207 21:163 22:111 23:103 24:135 25:167 26:94 27:103 28:130 29:177 30:136 31:152 32:167 33:230 34:157 35:169 36:209 37:161 38:110 39:105 40:144 41:170 42:112 43:122 44:140 45:171 46:139 47:154 48:188 49:253 50:177 51:197 52:221 53:193 54:143 55:138 56:167 57:201 58:160 59:144 60:190 61:238 62:181 63:182 64:230 
1.0908203125 1:80 2:74 3:68 4:85 5:66 6:72 7:62 8:89 9:61 10:61 11:55 12:82 13:68 14:98 15:83 16:127 17:71 18:67 19:59 20:111 21:85 22:57 23:57 24:103 25:62 26:66 27:52 28:104 29:92 30:102 31:103 32:130 33:75 34:62 35:50 36:81 37:71 38:60 39:58 40:105 41:56 42:65 43:45 44:82 45:64 46:103 47:88 48:124 49:80 50:85 51:82 52:95 53:86 54:113 55:108 56:129 57:89 58:102 59:97 60:110 61:119 62:134 63:128 64:172 
1.0908203125 1:437 2:362 3:370 4:402 5:365 6:293 7:313 8:307 9:374 10:314 11:355 12:322 13:354 14:305 15:367 16:355 17:361 18:309 19:322 20:325 21:310 22:241 23:254 24:269 25:333 26:238 27:274 28:248 29:300 30:250 31:293 32:308 33:410 34:313 35:338 36:341 37:331 38:277 39:264 40:287 41:357 42:283 43:281 44:307 45:305 46:258 47:321 48:328 49:363 50:293 51:334 52:309 53:312 54:263 55:262 56:287 57:339 58:324 59:318 60:334 61:344 62:312 63:335 64:350 
1.0908203125 1:266 2:201 3:197 4:211 5:196 6:142 7:124 8:153 9:202 10:126 11:118 12:126 13:204 14:152 15:139 16:162 17:210 18:142 19:120 20:142 21:141 22:92 23:92 24:119 25:137 26:94 27:78 28:88 29:151 30:122 31:117 32:136 33:195 34:125 35:126 36:153 37:122 38:93 39:76 40:118 41:130 42:77 43:52 44:83 45:123 46:102 47:74 48:110 49:204 50:146 51:128 52:147 53:156 54:117 55:105 56:135 57:131 58:112 59:94 60:111 61:151 62:138 63:119 64:137 
1.0908203125 1:255 2:171 3:186 4:211 5:150 6:81 7:92 8:119 9:176 10:87 11:113 12:130 13:189 14:113 15:127 16:148 17:174 18:84 19:87 20:110 21:82 22:37 23:46 24:51 25:100 26:45 27:61 28:50 29:104 30:48 31:70 32:83 33:186 34:98 35:110 36:129 37:114 38:51 39:49 40:58 41:117 42:68 43:61 44:64 45:123 46:49 47:66 48:93 49:208 50:88 51:122 52:123 53:110 54:47 55:69 56:76 57:131 58:72 59:75 60:86 61:129 62:93 63:102 64:133 
1.0908203125 1:94 2:85 3:72 4:84 5:81 6:61 7:77 8:65 9:70 10:61 11:91 12:77 13:69 14:77 15:101 16:73 17:87 18:62 19:80 20:76 21:69 22:71 23:52 24:68 25:79 26:46 27:47 28:65 29:71 30:69 31:68 32:72 33:78 34:77 35:75 36:88 37:79 38:59 39:40 40:73 41:83 42:66 43:55 44:64 45:61 46:65 47:72 48:89 49:76 50:59 51:71 52:68 53:77 54:69 55:68 56:73 57:87 58:78 59:75 60:80 61:77 62:77 63:80 64:81 
1.0908203125 1:214 2:165 3:191 4:191 5:163 6:109 7:138 8:120 9:188 10:139 11:173 12:145 13:186 14:125 15:164 16:144 17:169 18:116 19:139 20:143 21:125 22:85 23:85 24:91 25:133 26:86 27:101 28:95 29:120 30:91 31:107 32:113 33:199 34:138 35:160 36:147 37:146 38:90 39:99 40:118 41:167 42:106 43:122 44:121 45:132 46:105 47:126 48:129 49:178 50:110 51:155 52:134 53:133 54:102 55:94 56:101 57:156 58:122 59:121 60:130 61:140 62:110 63:136 64:129 
1.0908203125 1:409 2:350 3:350 4:364 5:378 6:299 7:301 8:308 9:343 10:312 11:313 12:321 13:342 14:329 15:361 16:309 17:378 18:341 19:318 20:346 21:341 22:240 23:261 24:290 25:302 26:261 27:289 28:239 29:307 30:276 31:303 32:285 33:342 34:304 35:307 36:331 37:349 38:291 39:248 40:289 41:317 42:289 43:287 44:277 45:293 46:273 47:264 48:298 49:344 50:290 51:313 52:296 53:316 54:302 55:281 56:283 57:323 58:315 59:281 60:290 61:305 62:305 63:282 64:299 
1.0908203125 1:68 2:46 3:41 4:42 5:50 6:40 7:44 8:41 9:34 10:34 11:49 12:47 13:46 14:39 15:40 16:37 17:46 18:39 19:45 20:40 21:38 22:33 23:30 24:43 25:41 26:24 27:30 28:36 29:46 30:46 31:38 32:45 33:41 34:41 35:37 36:40 37:37 38:27 39:24 40:41 41:41 42:27 43:35 44:43 45:35 46:44 47:40 48:49 49:42 50:48 51:40 52:36 53:46 54:44 55:33 56:49 57:44 58:44 59:32 60:41 61:43 62:44 63:44 64:50 
1.0908203125 1:63 2:52 3:58 4:50 5:55 6:32 7:45 8:36 9:51 10:41 11:47 12:50 13:43 14:37 15:45 16:32 17:53 18:42 19:43 20:33 21:35 22:28 23:30 24:31 25:46 26:34 27:37 28:26 29:34 30:30 31:31 32:36 33:55 34:44 35:46 36:39 37:42 38:31 39:36 40:38 41:48 42:36 43:44 44:36 45:44 46:32 47:30 48:34 49:52 50:29 51:41 52:31 53:40 54:33 55:32 56:25 57:40 58:36 59:36 60:27 61:36 62:32 63:34 64:45 
1.0908203125 1:262 2:184 3:204 4:183 5:181 6:136 7:154 8:152 9:195 10:155 11:181 12:170 13:174 14:146 15:180 16:154 17:177 18:151 19:164 20:156 21:149 22:80 23:103 24:100 25:169 26:109 27:112 28:108 29:158 30:94 31:135 32:108 33:205 34:153 35:163 36:165 37:160 38:117 39:123 40:136 41:172 42:132 43:156 44:138 45:162 46:122 47:136 48:145 49:189 50:134 51:169 52:146 53:159 54:99 55:118 56:106 57:151 58:140 59:149 60:148 61:148 62:121 63:138 64:126 
1.0908203125 1:94 2:79 3:85 4:93 5:81 6:69 7:71 8:89 9:86 10:74 11:61 12:77 13:87 14:82 15:71 16:81 17:83 18:79 19:71 20:74 21:79 22:44 23:58 24:47 25:74 26:61 27:58 28:47 29:78 30:64 31:65 32:82 33:87 34:73 35:70 36:79 37:75 38:48 39:57 40:78 41:69 42:54 43:46 44:51 45:69 46:51 47:59 48:62 49:87 50:78 51:71 52:71 53:73 54:67 55:54 56:74 57:81 58:69 59:55 60:65 61:77 62:72 63:76 64:78 
1.0908203125 1:287 2:213 3:205 4:278 5:202 6:127 7:155 8:174 9:205 10:164 11:209 12:221 13:241 14:182 15:247 16:219 17:232 18:128 19:175 20:176 21:138 22:109 23:112 24:149 25:187 26:90 27:110 28:130 29:172 30:149 31:167 32:193 33:212 34:162 35:201 36:235 37:170 38:111 39:98 40:168 41:196 42:129 43:113 44:168 45:178 46:161 47:167 48:230 49:251 50:154 51:218 52:196 53:201 54:161 55:153 56:189 57:222 58:164 59:175 60:216 61:229 62:213 63:200 64:243 
1.0908203125 1:318 2:264 3:258 4:289 5:250 6:213 7:206 8:253 9:247 10:209 11:237 12:260 13:277 14:226 15:290 16:267 17:265 18:200 19:228 20:244 21:220 22:182 23:169 24:217 25:216 26:149 27:199 28:225 29:225 30:213 31:243 32:245 33:262 34:228 35:223 36:273 37:226 38:173 39:185 40:227 41:253 42:211 43:238 44:232 45:228 46:225 47:248 48:290 49:284 50:229 51:243 52:250 53:242 54:220 55:229 56:228 57:271 58:242 59:260 60:273 61:280 62:256 63:266 64:321 
1.0908203125 1:305 2:221 3:253 4:288 5:227 6:129 7:163 8:190 9:254 10:169 11:199 12:202 13:262 14:190 15:225 16:256 17:239 18:150 19:167 20:192 21:153 22:74 23:105 24:114 25:162 26:104 27:127 28:144 29:171 30:132 31:142 32:187 33:258 34:170 35:187 36:222 37:179 38:101 39:120 40:141 41:200 42:121 43:134 44:169 45:203 46:141 47:149 48:210 49:265 50:167 51:216 52:227 53:190 54:142 55:149 56:186 57:222 58:147 59:164 60:187 61:243 62:205 63:205 64:234 
1.0908203125 1:56 2:43 3:56 4:62 5:58 6:50 7:35 8:79 9:47 10:48 11:43 12:70 13:53 14:79 15:58 16:116 17:50 18:64 19:53 20:86 21:63 22:52 23:43 24:90 25:36 26:50 27:37 28:75 29:81 30:84 31:85 32:124 33:54 34:35 35:38 36:58 37:54 38:54 39:43 40:79 41:43 42:46 43:41 44:54 45:55 46:77 47:58 48:116 49:57 50:79 51:60 52:96 53:79 54:92 55:77 56:125 57:60 58:86 59:63 60:106 61:107 62:134 63:115 64:163 
1.0908203125 1:359 2:280 3:235 4:269 5:299 6:290 7:226 8:281 9:256 10:226 11:169 12:191 13:240 14:304 15:226 16:259 17:284 18:298 19:232 20:297 21:288 22:312 23:231 24:277 25:234 26:215 27:165 28:218 29:266 30:275 31:222 32:272 33:246 34:243 35:183 36:223 37:241 38:230 39:163 40:204 41:192 42:170 43:124 44:134 45:205 46:211 47:150 48:183 49:254 50:274 51:191 52:236 53:284 54:276 55:212 56:272 57:214 58:227 59:162 60:205 61:248 62:255 63:211 64:241 
1.0908203125 1:94 2:76 3:81 4:76 5:76 6:56 7:52 8:59 9:75 10:56 11:48 12:65 13:81 14:61 15:67 16:76 17:76 18:59 19:48 20:63 21:54 22:35 23:41 24:36 25:66 26:40 27:34 28:37 29:57 30:40 31:46 32:49 33:73 34:57 35:57 36:74 37:58 38:34 39:39 40:44 41:58 42:31 43:36 44:45 45:57 46:43 47:50 48:55 49:84 50:50 51:57 52:68 53:59 54:41 55:45 56:52 57:63 58:48 59:52 60:57 61:68 62:54 63:58 64:63 
1.0908203125 1:135 2:98 3:107 4:119 5:98 6:62 7:81 8:78 9:98 10:67 11:88 12:95 13:111 14:80 15:110 16:104 17:106 18:65 19:74 20:79 21:70 22:54 23:47 24:51 25:80 26:41 27:56 28:66 29:77 30:58 31:68 32:77 33:98 34:81 35:84 36:106 37:73 38:45 39:54 40:69 41:89 42:60 43:71 44:82 45:90 46:69 47:81 48:91 49:120 50:74 51:82 52:97 53:84 54:61 55:61 56:81 57:103 58:73 59:87 60:87 61:99 62:81 63:92 64:105 
1.0908203125 1:178 2:131 3:129 4:125 5:119 6:95 7:121 8:100 9:121 10:111 11:128 12:100 13:118 14:100 15:120 16:90 17:128 18:105 19:111 20:92 21:112 22:96 23:88 24:90 25:124 26:90 27:85 28:92 29:97 30:103 31:87 32:92 33:137 34:111 35:108 36:121 37:109 38:92 39:95 40:87 41:120 42:97 43:91 44:86 45:98 46:91 47:84 48:95 49:120 50:87 51:111 52:86 53:97 54:103 55:87 56:101 57:113 58:85 59:90 60:89 61:95 62:95 63:87 64:74 
1.0908203125 1:468 2:387 3:386 4:478 5:427 6:327 7:360 8:430 9:409 10:367 11:400 12:444 13:455 14:417 15:467 16:521 17:388 18:367 19:400 20:434 21:372 22:316 23:307 24:373 25:392 26:296 27:337 28:379 29:401 30:385 31:407 32:493 33:412 34:380 35:382 36:479 37:386 38:319 39:327 40:408 41:384 42:347 43:343 44:422 45:419 46:392 47:435 48:524 49:450 50:409 51:452 52:465 53:404 54:406 55:411 56:474 57:468 58:430 59:417 60:524 61:502 62:502 63:534 64:633 
1.0908203125 1:333 2:274 3:263 4:285 5:277 6:210 7:232 8:237 9:251 10:243 11:229 12:240 13:263 14:211 15:251 16:222 17:269 18:237 19:248 20:221 21:217 22:195 23:183 24:181 25:234 26:169 27:193 28:157 29:232 30:171 31:213 32:205 33:272 34:228 35:225 36:233 37:263 38:191 39:171 40:196 41:230 42:191 43:195 44:206 45:224 46:179 47:199 48:224 49:281 50:216 51:226 52:204 53:219 54:180 55:167 56:206 57:244 58:218 59:205 60:222 61:212 62:212 63:227 64:218 
1.0908203125 1:144 2:138 3:133 4:122 5:141 6:105 7:114 8:121 9:140 10:114 11:108 12:117 13:114 14:106 15:105 16:117 17:135 18:115 19:109 20:115 21:102 22:90 23:104 24:98 25:131 26:95 27:100 28:86 29:106 30:106 31:104 32:109 33:143 34:129 35:126 36:116 37:126 38:98 39:91 40:99 41:124 42:100 43:84 44:82 45:81 46:99 47:114 48:93 49:114 50:98 51:111 52:85 53:105 54:101 55:104 56:106 57:119 58:105 59:99 60:101 61:108 62:106 63:105 64:114 
1.0908203125 1:196 2:149 3:164 4:184 5:163 6:154 7:146 8:157 9:139 10:133 11:152 12:166 13:190 14:164 15:170 16:212 17:163 18:163 19:135 20:180 21:164 22:126 23:121 24:153 25:151 26:114 27:122 28:133 29:168 30:137 31:148 32:173 33:150 34:154 35:128 36:175 37:154 38:116 39:121 40:141 41:150 42:135 43:145 44:144 45:156 46:151 47:148 48:171 49:184 50:153 51:162 52:193 53:161 54:168 55:132 56:174 57:168 58:150 59:155 60:182 61:182 62:184 63:190 64:203 
1.0908203125 1:73 2:87 3:40 4:89 5:103 6:71 7:45 8:74 9:43 10:45 11:14 12:43 13:83 14:78 15:52 16:87 17:91 18:83 19:49 20:81 21:71 22:79 23:42 24:72 25:36 26:52 27:12 28:38 29:83 30:66 31:37 32:69 33:40 34:45 35:9 36:46 37:54 38:41 39:16 40:37 41:14 42:17 43:9 44:12 45:47 46:37 47:18 48:39 49:85 50:77 51:46 52:80 53:77 54:73 55:35 56:71 57:48 58:34 59:17 60:47 61:79 62:76 63:40 64:76 
1.0908203125 1:92 2:85 3:80 4:98 5:89 6:59 7:66 8:73 9:83 10:58 11:66 12:75 13:86 14:65 15:76 16:82 17:81 18:63 19:61 20:63 21:57 22:40 23:44 24:57 25:63 26:41 27:52 28:45 29:76 30:60 31:54 32:70 33:89 34:73 35:66 36:71 37:60 38:39 39:38 40:62 41:77 42:43 43:53 44:55 45:70 46:52 47:51 48:70 49:93 50:65 51:74 52:73 53:63 54:60 55:53 56:67 57:77 58:57 59:57 60:67 61:77 62:67 63:78 64:73 
1.0908203125 1:181 2:217 3:181 4:228 5:228 6:220 7:212 8:229 9:179 10:227 11:209 12:204 13:201 14:227 15:244 16:234 17:221 18:239 19:225 20:237 21:236 22:228 23:222 24:242 25:227 26:231 27:223 28:221 29:228 30:236 31:243 32:256 33:202 34:224 35:189 36:215 37:239 38:231 39:222 40:248 41:214 42:228 43:229 44:219 45:203 46:237 47:213 48:234 49:202 50:208 51:224 52:222 53:219 54:249 55:247 56:243 57:210 58:254 59:230 60:242 61:225 62:259 63:240 64:253 
1.0908203125 1:388 2:311 3:296 4:330 5:302 6:213 7:212 8:258 9:254 10:205 11:214 12:255 13:334 14:254 15:254 16:306 17:323 18:225 19:197 20:263 21:231 22:173 23:147 24:209 25:233 26:145 27:127 28:178 29:248 30:203 31:198 32:236 33:273 34:218 35:198 36:266 37:231 38:158 39:136 40:174 41:207 42:144 43:128 44:167 45:231 46:187 47:176 48:232 49:341 50:230 51:236 52:285 53:245 54:216 55:188 56:243 57:262 58:205 59:177 60:225 61:283 62:249 63:242 64:285 
1.0908203125 1:300 2:257 3:257 4:331 5:249 6:210 7:229 8:269 9:222 10:212 11:267 12:315 13:327 14:276 15:305 16:368 17:256 18:221 19:219 20:270 21:223 22:158 23:175 24:242 25:239 26:155 27:214 28:231 29:269 30:254 31:279 32:347 33:264 34:235 35:221 36:319 37:238 38:181 39:170 40:272 41:268 42:214 43:241 44:295 45:282 46:259 47:304 48:379 49:325 50:243 51:318 52:352 53:257 54:249 55:265 56:365 57:311 58:280 59:296 60:382 61:364 62:348 63:382 64:455 
1.0908203125 1:97 2:86 3:70 4:78 5:75 6:71 7:68 8:74 9:74 10:66 11:56 12:64 13:76 14:69 15:74 16:72 17:83 18:69 19:69 20:70 21:78 22:61 23:50 24:61 25:68 26:49 27:41 28:54 29:73 30:55 31:58 32:75 33:71 34:58 35:56 36:72 37:68 38:52 39:45 40:59 41:53 42:51 43:41 44:47 45:64 46:65 47:52 48:52 49:80 50:74 51:64 52:67 53:71 54:66 55:49 56:66 57:63 58:58 59:54 60:67 61:76 62:64 63:59 64:72 
1.0908203125 1:32 2:43 3:34 4:44 5:44 6:57 7:39 8:56 9:34 10:42 11:30 12:44 13:52 14:68 15:43 16:80 17:44 18:48 19:41 20:78 21:60 22:64 23:52 24:86 25:39 26:48 27:40 28:63 29:57 30:82 31:65 32:91 33:31 34:41 35:29 36:48 37:40 38:56 39:33 40:69 41:29 42:40 43:25 44:44 45:40 46:65 47:41 48:75 49:46 50:63 51:45 52:69 53:68 54:85 55:66 56:83 57:48 58:68 59:43 60:69 61:78 62:88 63:80 64:115 
1.0908203125 1:180 2:149 3:155 4:177 5:161 6:135 7:146 8:130 9:151 10:141 11:142 12:137 13:152 14:147 15:156 16:168 17:162 18:146 19:139 20:130 21:136 22:123 23:129 24:150 25:135 26:122 27:138 28:140 29:139 30:127 31:133 32:162 33:156 34:141 35:132 36:155 37:146 38:134 39:122 40:135 41:149 42:123 43:137 44:141 45:152 46:129 47:137 48:152 49:163 50:135 51:144 52:157 53:135 54:146 55:138 56:145 57:150 58:151 59:133 60:151 61:160 62:162 63:160 64:161 
1.0908203125 1:313 2:222 3:230 4:288 5:225 6:151 7:154 8:199 9:209 10:155 11:175 12:213 13:251 14:207 15:219 16:244 17:230 18:160 19:168 20:210 21:175 22:104 23:113 24:134 25:196 26:103 27:117 28:131 29:178 30:143 31:131 32:196 33:250 34:172 35:164 36:205 37:177 38:110 39:111 40:131 41:177 42:116 43:134 44:145 45:170 46:159 47:147 48:199 49:260 50:174 51:189 52:214 53:192 54:161 55:169 56:183 57:210 58:155 59:146 60:185 61:242 62:197 63:200 64:242 
1.0908203125 1:413 2:296 3:343 4:365 5:294 6:197 7:242 8:236 9:333 10:226 11:284 12:266 13:328 14:254 15:290 16:312 17:313 18:217 19:233 20:247 21:208 22:144 23:150 24:160 25:247 26:149 27:166 28:192 29:221 30:154 31:203 32:217 33:353 34:241 35:274 36:284 37:252 38:154 39:173 40:181 41:282 42:176 43:218 44:218 45:256 46:195 47:239 48:265 49:338 50:214 51:258 52:284 53:257 54:167 55:189 56:217 57:291 58:209 59:226 60:278 61:293 62:228 63:273 64:267 
1.0908203125 1:428 2:329 3:357 4:401 5:326 6:225 7:226 8:269 9:361 10:246 11:251 12:304 13:377 14:296 15:306 16:367 17:332 18:225 19:248 20:296 21:244 22:179 23:167 24:194 25:260 26:151 27:185 28:190 29:270 30:203 31:220 32:265 33:365 34:233 35:268 36:317 37:261 38:167 39:181 40:205 41:275 42:171 43:209 44:213 45:281 46:209 47:228 48:274 49:390 50:258 51:288 52:328 53:271 54:213 55:212 56:289 57:288 58:246 59:223 60:284 61:340 62:278 63:288 64:339 
1.0908203125 1:454 2:496 3:359 4:414 5:491 6:532 7:389 8:529 9:374 10:444 11:299 12:351 13:405 14:477 15:323 16:392 17:514 18:521 19:472 20:471 21:538 22:542 23:389 24:493 25:391 26:386 27:315 28:385 29:520 30:529 31:423 32:446 33:350 34:412 35:293 36:320 37:469 38:368 39:313 40:419 41:280 42:318 43:207 44:291 45:341 46:403 47:297 48:352 49:405 50:511 51:343 52:388 53:481 54:520 55:386 56:476 57:331 58:421 59:275 60:365 61:385 62:455 63:350 64:421 
1.0908203125 1:206 2:156 3:147 4:156 5:153 6:108 7:117 8:118 9:140 10:119 11:133 12:118 13:142 14:113 15:124 16:111 17:149 18:110 19:117 20:117 21:101 22:109 23:90 24:110 25:136 26:84 27:68 28:80 29:125 30:109 31:110 32:114 33:154 34:127 35:128 36:124 37:120 38:86 39:71 40:105 41:128 42:72 43:64 44:82 45:99 46:93 47:80 48:100 49:155 50:102 51:118 52:89 53:119 54:107 55:91 56:124 57:129 58:107 59:82 60:91 61:99 62:127 63:99 64:108 
1.0908203125 1:110 2:97 3:88 4:88 5:102 6:87 7:89 8:89 9:89 10:90 11:78 12:57 13:93 14:85 15:81 16:67 17:104 18:90 19:80 20:84 21:80 22:84 23:79 24:83 25:84 26:80 27:73 28:66 29:85 30:86 31:75 32:79 33:85 34:101 35:78 36:79 37:87 38:75 39:67 40:78 41:83 42:67 43:57 44:69 45:65 46:64 47:62 48:69 49:84 50:78 51:67 52:71 53:90 54:80 55:68 56:74 57:88 58:70 59:68 60:67 61:61 62:78 63:76 64:72 
1.0908203125 1:235 2:186 3:171 4:211 5:195 6:136 7:143 8:169 9:166 10:142 11:155 12:172 13:192 14:173 15:182 16:203 17:179 18:153 19:157 20:185 21:165 22:115 23:113 24:121 25:160 26:111 27:101 28:130 29:155 30:127 31:127 32:150 33:184 34:152 35:148 36:176 37:157 38:119 39:113 40:113 41:158 42:109 43:113 44:122 45:160 46:134 47:136 48:155 49:205 50:151 51:158 52:174 53:158 54:144 55:133 56:155 57:177 58:140 59:133 60:160 61:185 62:157 63:166 64:165 
