svm_type c_svc
kernel_type rbf
gamma 2
nr_class 2
total_sv 1069
rho 0.090739
label 1 -1
nr_sv 486 583
SV
1.08984375 1:80 2:54 3:66 4:50 5:63 6:32 7:36 8:36 9:66 10:44 11:42 12:39 13:41 14:37 15:47 16:39 
1.08984375 1:29 2:18 3:28 4:19 5:22 6:6 7:18 8:11 9:25 10:17 11:24 12:22 13:18 14:16 15:18 16:20 
1.08984375 1:32 2:25 3:26 4:23 5:32 6:15 7:12 8:20 9:29 10:19 11:26 12:17 13:12 14:20 15:28 16:14 
1.08984375 1:26 2:13 3:20 4:33 5:24 6:20 7:13 8:20 9:17 10:14 11:17 12:18 13:24 14:30 15:17 16:35 
1.08984375 1:96 2:56 3:82 4:92 5:62 6:45 7:35 8:47 9:91 10:36 11:63 12:56 13:76 14:52 15:67 16:87 
1.08984375 1:76 2:49 3:37 4:51 5:51 6:35 7:26 8:32 9:53 10:28 11:42 12:27 13:32 14:32 15:46 16:46 
1.08984375 1:111 2:70 3:82 4:61 5:71 6:42 7:29 8:68 9:97 10:38 11:48 12:44 13:45 14:60 15:68 16:68 
1.08984375 1:172 2:129 3:104 4:119 5:136 6:129 7:91 8:119 9:131 10:100 11:122 12:102 13:85 14:117 15:138 16:123 
1.08984375 1:16 2:14 3:17 4:23 5:22 6:29 7:11 8:27 9:18 10:19 11:17 12:14 13:14 14:27 15:23 16:50 
1.08984375 1:29 2:17 3:20 4:23 5:18 6:14 7:9 8:30 9:17 10:15 11:11 12:24 13:25 14:25 15:27 16:58 
1.08984375 1:97 2:72 3:55 4:61 5:71 6:63 7:56 8:57 9:62 10:61 11:71 12:71 13:55 14:51 15:83 16:63 
1.08984375 1:83 2:74 3:82 4:73 5:103 6:66 7:45 8:55 9:77 10:54 11:62 12:61 13:49 14:75 15:65 16:75 
1.08984375 1:34 2:25 3:29 4:19 5:28 6:18 7:11 8:20 9:25 10:13 11:23 12:25 13:19 14:21 15:24 16:33 
1.08984375 1:36 2:16 3:17 4:21 5:15 6:16 7:25 8:13 9:26 10:31 11:25 12:16 13:12 14:6 15:32 16:28 
1.08984375 1:55 2:24 3:23 4:40 5:21 6:15 7:16 8:32 9:29 10:24 11:22 12:30 13:36 14:21 15:45 16:50 
1.08984375 1:28 2:15 3:18 4:21 5:22 6:13 7:9 8:22 9:15 10:20 11:12 12:20 13:17 14:18 15:28 16:30 
1.08984375 1:36 2:32 3:52 4:28 5:41 6:25 7:31 8:26 9:49 10:35 11:32 12:21 13:22 14:31 15:22 16:20 
1.08984375 1:29 2:24 3:16 4:35 5:25 6:21 7:19 8:29 9:19 10:16 11:10 12:21 13:31 14:33 15:21 16:39 
1.08984375 1:97 2:64 3:58 4:62 5:76 6:43 7:39 8:40 9:64 10:36 11:33 12:37 13:43 14:55 15:41 16:64 
1.08984375 1:179 2:136 3:118 4:136 5:152 6:125 7:67 8:136 9:136 10:103 11:113 12:128 13:102 14:116 15:182 16:177 
1.08984375 1:130 2:87 3:78 4:100 5:86 6:61 7:65 8:58 9:102 10:69 11:95 12:72 13:76 14:53 15:101 16:106 
1.08984375 1:125 2:96 3:105 4:113 5:121 6:69 7:67 8:87 9:121 10:86 11:98 12:107 13:71 14:93 15:143 16:144 
1.08984375 1:172 2:118 3:83 4:153 5:119 6:92 7:91 8:142 9:110 10:98 11:99 12:112 13:125 14:136 15:146 16:192 
1.08984375 1:16 2:21 3:12 4:27 5:24 6:30 7:24 8:37 9:9 10:28 11:11 12:24 13:27 14:36 15:25 16:67 
1.08984375 1:98 2:75 3:57 4:67 5:96 6:80 7:50 8:71 9:48 10:66 11:38 12:43 13:54 14:76 15:51 16:88 
1.08984375 1:32 2:28 3:28 4:33 5:30 6:10 7:12 8:15 9:31 10:16 11:13 12:22 13:28 14:13 15:29 16:30 
1.08984375 1:145 2:54 3:137 4:57 5:80 6:36 7:45 8:52 9:121 10:76 11:93 12:51 13:47 14:47 15:66 16:54 
1.08984375 1:257 2:191 3:152 4:181 5:219 6:172 7:112 8:164 9:183 10:144 11:151 12:162 13:122 14:160 15:225 16:199 
1.08984375 1:18 2:22 3:22 4:32 5:35 6:31 7:21 8:44 9:14 10:31 11:17 12:40 13:26 14:47 15:43 16:60 
1.08984375 1:89 2:42 3:45 4:53 5:44 6:34 7:38 8:37 9:52 10:42 11:43 12:44 13:44 14:35 15:55 16:57 
1.08984375 1:60 2:32 3:27 4:40 5:30 6:24 7:17 8:34 9:30 10:24 11:27 12:22 13:38 14:25 15:33 16:37 
1.08984375 1:125 2:86 3:75 4:101 5:98 6:63 7:50 8:71 9:100 10:55 11:49 12:70 13:64 14:78 15:100 16:80 
1.08984375 1:137 2:113 3:84 4:75 5:112 6:100 7:53 8:93 9:107 10:49 11:67 12:104 13:53 14:96 15:123 16:111 
1.08984375 1:150 2:98 3:100 4:107 5:116 6:102 7:60 8:88 9:105 10:72 11:82 12:92 13:84 14:94 15:109 16:145 
1.08984375 1:41 2:26 3:14 4:17 5:27 6:12 7:11 8:17 9:16 10:16 11:16 12:21 13:13 14:13 15:29 16:14 
1.08984375 1:143 2:148 3:138 4:143 5:176 6:68 7:98 8:85 9:159 10:106 11:121 12:88 13:93 14:105 15:117 16:102 
1.08984375 1:107 2:85 3:78 4:46 5:70 6:68 7:49 8:79 9:91 10:44 11:62 12:82 13:48 14:69 15:90 16:99 
1.08984375 1:77 2:81 3:83 4:80 5:97 6:56 7:61 8:62 9:101 10:68 11:92 12:69 13:46 14:71 15:94 16:88 
1.08984375 1:26 2:21 3:11 4:25 5:29 6:29 7:8 8:27 9:8 10:11 11:8 12:14 13:20 14:32 15:14 16:46 
1.08984375 1:320 2:253 3:301 4:242 5:265 6:146 7:148 8:229 9:299 10:221 11:228 12:201 13:231 14:168 15:273 16:246 
1.08984375 1:190 2:120 3:134 4:126 5:123 6:82 7:93 8:107 9:154 10:100 11:112 12:111 13:102 14:103 15:139 16:174 
1.08984375 1:115 2:72 3:71 4:71 5:70 6:60 7:35 8:69 9:77 10:58 11:69 12:54 13:66 14:44 15:84 16:96 
1.08984375 1:42 2:29 3:52 4:33 5:47 6:26 7:23 8:26 9:33 10:41 11:30 12:33 13:34 14:26 15:32 16:26 
1.08984375 1:23 2:30 3:17 4:14 5:29 6:31 7:30 8:44 9:23 10:31 11:24 12:29 13:8 14:42 15:37 16:26 
1.08984375 1:172 2:105 3:71 4:147 5:149 6:106 7:47 8:142 9:80 10:79 11:43 12:57 13:93 14:154 15:99 16:169 
1.08984375 1:51 2:39 3:42 4:23 5:38 6:21 7:18 8:30 9:42 10:30 11:32 12:25 13:24 14:17 15:37 16:22 
1.08984375 1:95 2:67 3:77 4:72 5:65 6:41 7:46 8:47 9:89 10:50 11:59 12:57 13:62 14:41 15:73 16:64 
1.08984375 1:33 2:19 3:11 4:37 5:20 6:15 7:10 8:16 9:12 10:10 11:12 12:10 13:35 14:17 15:11 16:52 
1.08984375 1:203 2:108 3:130 4:146 5:144 6:99 7:66 8:125 9:132 10:96 11:127 12:127 13:108 14:131 15:159 16:146 
1.08984375 1:54 2:60 3:60 4:75 5:84 6:50 7:50 8:71 9:54 10:74 11:48 12:54 13:56 14:71 15:73 16:89 
1.08984375 1:12 2:22 3:15 4:12 5:21 6:19 7:40 8:30 9:16 10:35 11:17 12:24 13:12 14:34 15:20 16:53 
1.08984375 1:39 2:23 3:12 4:24 5:22 6:8 7:15 8:17 9:22 10:15 11:16 12:18 13:15 14:16 15:28 16:27 
1.08984375 1:31 2:9 3:18 4:31 5:25 6:6 7:4 8:24 9:16 10:11 11:5 12:12 13:16 14:33 15:18 16:49 
1.08984375 1:50 2:35 3:42 4:50 5:41 6:28 7:35 8:37 9:51 10:38 11:49 12:35 13:35 14:40 15:47 16:58 
1.08984375 1:85 2:37 3:48 4:45 5:46 6:27 7:23 8:19 9:47 10:32 11:31 12:34 13:36 14:19 15:42 16:38 
1.08984375 1:33 2:16 3:27 4:31 5:26 6:13 7:10 8:16 9:28 10:15 11:17 12:20 13:20 14:21 15:26 16:22 
1.08984375 1:54 2:35 3:32 4:22 5:36 6:27 7:28 8:18 9:33 10:25 11:25 12:18 13:19 14:22 15:17 16:18 
1.08984375 1:45 2:97 3:40 4:44 5:90 6:53 7:42 8:78 9:30 10:44 11:44 12:66 13:61 14:69 15:58 16:64 
1.08984375 1:118 2:69 3:79 4:124 5:86 6:63 7:40 8:68 9:104 10:59 11:73 12:65 13:82 14:66 15:109 16:134 
1.08984375 1:126 2:66 3:66 4:70 5:66 6:55 7:24 8:69 9:87 10:40 11:39 12:40 13:49 14:53 15:77 16:93 
1.08984375 1:163 2:94 3:132 4:126 5:116 6:91 7:60 8:122 9:124 10:83 11:88 12:118 13:112 14:121 15:133 16:146 
1.08984375 1:30 2:14 3:20 4:15 5:7 6:14 7:17 8:27 9:27 10:22 11:17 12:19 13:15 14:15 15:31 16:24 
1.08984375 1:86 2:56 3:51 4:58 5:68 6:59 7:45 8:60 9:48 10:50 11:56 12:69 13:49 14:67 15:71 16:74 
1.08984375 1:124 2:84 3:90 4:111 5:89 6:45 7:46 8:73 9:108 10:55 11:53 12:56 13:88 14:69 15:83 16:88 
1.08984375 1:102 2:72 3:54 4:79 5:76 6:36 7:34 8:64 9:72 10:45 11:46 12:51 13:57 14:57 15:80 16:83 
1.08984375 1:29 2:36 3:36 4:51 5:44 6:40 7:33 8:50 9:45 10:50 11:43 12:41 13:34 14:41 15:67 16:55 
1.08984375 1:28 2:15 3:19 4:29 5:21 6:17 7:15 8:28 9:20 10:25 11:21 12:12 13:21 14:24 15:24 16:43 
1.08984375 1:76 2:61 3:76 4:62 5:66 6:57 7:42 8:54 9:78 10:49 11:44 12:48 13:54 14:52 15:58 16:31 
1.08984375 1:36 2:28 3:14 4:39 5:29 6:14 7:13 8:24 9:18 10:13 11:10 12:28 13:34 14:25 15:32 16:52 
1.08984375 1:135 2:81 3:71 4:101 5:88 6:68 7:42 8:86 9:79 10:53 11:50 12:48 13:86 14:82 15:67 16:83 
1.08984375 1:111 2:73 3:88 4:84 5:93 6:53 7:44 8:50 9:101 10:61 11:97 12:68 13:51 14:53 15:98 16:90 
1.08984375 1:26 2:12 3:18 4:33 5:18 6:14 7:9 8:16 9:25 10:10 11:8 12:13 13:19 14:21 15:22 16:59 
1.08984375 1:86 2:79 3:69 4:94 5:97 6:101 7:48 8:107 9:77 10:66 11:81 12:81 13:67 14:107 15:108 16:150 
1.08984375 1:49 2:34 3:38 4:46 5:39 6:38 7:31 8:41 9:42 10:37 11:55 12:41 13:36 14:40 15:52 16:38 
1.08984375 1:42 2:40 3:36 4:34 5:38 6:27 7:25 8:27 9:46 10:26 11:12 12:28 13:26 14:24 15:39 16:24 
1.08984375 1:349 2:163 3:187 4:272 5:186 6:132 7:90 8:159 9:248 10:82 11:138 12:196 13:187 14:190 15:250 16:337 
1.08984375 1:90 2:81 3:59 4:75 5:81 6:67 7:44 8:84 9:79 10:52 11:67 12:65 13:54 14:76 15:94 16:76 
1.08984375 1:57 2:27 3:29 4:51 5:31 6:16 7:27 8:24 9:48 10:19 11:21 12:26 13:28 14:36 15:37 16:35 
1.08984375 1:101 2:52 3:45 4:83 5:55 6:39 7:26 8:36 9:65 10:21 11:52 12:42 13:60 14:44 15:57 16:79 
1.08984375 1:50 2:56 3:29 4:42 5:44 6:46 7:36 8:43 9:44 10:25 11:27 12:37 13:39 14:42 15:41 16:38 
1.08984375 1:294 2:159 3:209 4:257 5:189 6:130 7:100 8:145 9:241 10:109 11:131 12:172 13:195 14:166 15:213 16:246 
1.08984375 1:33 2:19 3:14 4:43 5:29 6:25 7:20 8:62 9:11 10:23 11:11 12:31 13:35 14:69 15:32 16:108 
1.08984375 1:36 2:21 3:25 4:63 5:32 6:29 7:24 8:33 9:35 10:31 11:22 12:34 13:41 14:37 15:52 16:53 
1.08984375 1:99 2:90 3:58 4:59 5:95 6:84 7:53 8:84 9:72 10:54 11:54 12:70 13:40 14:88 15:85 16:79 
1.08984375 1:108 2:57 3:70 4:75 5:65 6:34 7:25 8:42 9:79 10:29 11:51 12:54 13:57 14:46 15:68 16:80 
1.08984375 1:80 2:71 3:65 4:46 5:74 6:53 7:89 8:37 9:68 10:80 11:47 12:49 13:39 14:49 15:44 16:31 
1.08984375 1:175 2:63 3:98 4:58 5:58 6:52 7:53 8:48 9:103 10:58 11:55 12:48 13:57 14:38 15:59 16:59 
1.08984375 1:74 2:64 3:69 4:102 5:92 6:63 7:53 8:91 9:73 10:88 11:67 12:86 13:70 14:84 15:125 16:123 
1.08984375 1:142 2:98 3:89 4:100 5:117 6:64 7:63 8:76 9:115 10:68 11:57 12:74 13:55 14:90 15:105 16:99 
1.090820312409422 1:123 2:62 3:49 4:82 5:68 6:52 7:31 8:51 9:56 10:38 11:38 12:37 13:68 14:50 15:52 16:48 
1.090820312410428 1:25 2:16 3:21 4:20 5:24 6:18 7:8 8:25 9:18 10:13 11:20 12:27 13:15 14:28 15:29 16:37 
1.090820312411435 1:188 2:138 3:114 4:153 5:142 6:112 7:77 8:115 9:144 10:90 11:127 12:109 13:119 14:106 15:152 16:170 
1.090820312411435 1:159 2:114 3:126 4:106 5:115 6:76 7:84 8:99 9:141 10:95 11:104 12:101 13:89 14:89 15:128 16:155 
1.090820312417473 1:114 2:33 3:67 4:61 5:42 6:28 7:14 8:36 9:67 10:30 11:34 12:42 13:52 14:29 15:58 16:65 
1.090820312419486 1:163 2:85 3:83 4:124 5:94 6:54 7:39 8:85 9:98 10:42 11:47 12:64 13:99 14:91 15:83 16:138 
1.090820312435589 1:223 2:107 3:95 4:153 5:114 6:62 7:43 8:73 9:122 10:50 11:63 12:64 13:119 14:73 15:98 16:130 
1.090820312435589 1:151 2:114 3:97 4:100 5:117 6:80 7:58 8:73 9:119 10:68 11:74 12:63 13:75 14:66 15:95 16:77 
1.090820312435589 1:178 2:103 3:102 4:96 5:129 6:61 7:48 8:50 9:118 10:56 11:60 12:44 13:54 14:68 15:68 16:65 
1.090820312435589 1:128 2:58 3:67 4:103 5:83 6:69 7:35 8:59 9:72 10:51 11:59 12:51 13:72 14:68 15:73 16:113 
1.090820312435589 1:100 2:106 3:92 4:84 5:102 6:81 7:91 8:77 9:121 10:71 11:96 12:97 13:58 14:93 15:107 16:101 
1.090820312435589 1:214 2:123 3:106 4:160 5:158 6:106 7:60 8:122 9:111 10:80 11:60 12:76 13:119 14:137 15:101 16:157 
1.090820312451692 1:53 2:49 3:74 4:37 5:54 6:33 7:43 8:33 9:81 10:49 11:80 12:54 13:25 14:32 15:67 16:49 
1.090820312451692 1:29 2:22 3:14 4:23 5:20 6:26 7:25 8:22 9:13 10:23 11:21 12:28 13:26 14:22 15:25 16:52 
1.090820312411435 1:76 2:54 3:49 4:49 5:62 6:49 7:18 8:49 9:60 10:30 11:43 12:30 13:30 14:45 15:53 16:48 
1.090820312435589 1:49 2:23 3:41 4:47 5:26 6:10 7:22 8:19 9:53 10:15 11:32 12:34 13:32 14:29 15:39 16:47 
1.090820312435589 1:71 2:61 3:53 4:61 5:67 6:53 7:36 8:70 9:66 10:40 11:51 12:70 13:42 14:72 15:87 16:81 
1.090820312451692 1:108 2:57 3:71 4:65 5:54 6:38 7:25 8:42 9:85 10:26 11:33 12:39 13:54 14:38 15:54 16:51 
1.090820312451692 1:247 2:155 3:143 4:157 5:186 6:151 7:98 8:143 9:144 10:122 11:85 12:98 13:124 14:150 15:124 16:135 
1.090820312451692 1:56 2:35 3:32 4:47 5:44 6:24 7:19 8:33 9:42 10:21 11:23 12:33 13:27 14:40 15:46 16:34 
1.090820312483897 1:128 2:78 3:87 4:111 5:90 6:56 7:41 8:79 9:108 10:50 11:69 12:109 13:78 14:82 15:139 16:160 
1.090820312483897 1:71 2:18 3:41 4:48 5:24 6:14 7:17 8:15 9:55 10:21 11:35 12:22 13:28 14:17 15:40 16:46 
1.090820312483897 1:66 2:41 3:26 4:53 5:49 6:29 7:25 8:21 9:36 10:29 11:27 12:15 13:35 14:25 15:29 16:39 
1.090820312483897 1:167 2:98 3:98 4:106 5:113 6:47 7:49 8:59 9:118 10:57 11:78 12:48 13:71 14:66 15:76 16:88 
1.090820312483897 1:130 2:114 3:95 4:107 5:133 6:100 7:76 8:88 9:99 10:96 11:76 12:93 13:84 14:87 15:117 16:124 
1.090820312483897 1:159 2:69 3:92 4:70 5:82 6:36 7:46 8:48 9:106 10:62 11:53 12:32 13:42 14:45 15:63 16:32 
1.0908203125 1:67 2:46 3:53 4:67 5:54 6:35 7:29 8:44 9:56 10:31 11:27 12:46 13:56 14:50 15:51 16:72 
1.0908203125 1:110 2:112 3:101 4:100 5:108 6:76 7:70 8:99 9:122 10:87 11:97 12:80 13:83 14:78 15:118 16:95 
1.0908203125 1:38 2:29 3:33 4:37 5:37 6:18 7:17 8:25 9:36 10:22 11:25 12:26 13:25 14:28 15:35 16:25 
1.0908203125 1:122 2:113 3:71 4:127 5:128 6:81 7:78 8:93 9:103 10:87 11:113 12:75 13:80 14:99 15:116 16:136 
1.0908203125 1:68 2:63 3:60 4:48 5:52 6:45 7:44 8:58 9:73 10:44 11:40 12:32 13:45 14:47 15:46 16:45 
1.0908203125 1:17 2:22 3:21 4:48 5:33 6:17 7:8 8:20 9:15 10:14 11:17 12:23 13:43 14:25 15:23 16:42 
1.0908203125 1:60 2:44 3:55 4:53 5:54 6:41 7:26 8:33 9:66 10:32 11:61 12:42 13:32 14:37 15:59 16:44 
1.0908203125 1:182 2:67 3:83 4:142 5:91 6:46 7:33 8:54 9:95 10:39 11:58 12:60 13:105 14:72 15:79 16:133 
1.0908203125 1:128 2:87 3:105 4:101 5:121 6:86 7:67 8:63 9:103 10:93 11:67 12:47 13:69 14:71 15:71 16:57 
1.0908203125 1:54 2:44 3:34 4:56 5:45 6:28 7:17 8:41 9:29 10:22 11:23 12:45 13:60 14:37 15:45 16:94 
1.0908203125 1:211 2:106 3:110 4:135 5:118 6:86 7:54 8:84 9:150 10:53 11:68 12:98 13:83 14:97 15:137 16:156 
1.0908203125 1:74 2:57 3:55 4:54 5:63 6:45 7:30 8:65 9:47 10:46 11:49 12:47 13:56 14:55 15:55 16:92 
1.0908203125 1:93 2:102 3:71 4:127 5:115 6:111 7:137 8:99 9:105 10:123 11:154 12:122 13:80 14:126 15:142 16:145 
1.0908203125 1:36 2:38 3:37 4:28 5:37 6:25 7:21 8:23 9:45 10:28 11:28 12:37 13:21 14:15 15:52 16:26 
1.0908203125 1:77 2:64 3:37 4:41 5:63 6:47 7:34 8:66 9:35 10:43 11:37 12:52 13:43 14:56 15:60 16:82 
1.0908203125 1:111 2:59 3:44 4:55 5:69 6:47 7:20 8:69 9:41 10:37 11:27 12:40 13:47 14:62 15:55 16:89 
1.0908203125 1:24 2:22 3:32 4:44 5:25 6:8 7:15 8:20 9:35 10:16 11:26 12:32 13:38 14:22 15:36 16:40 
1.0908203125 1:154 2:105 3:99 4:120 5:128 6:85 7:55 8:99 9:105 10:70 11:109 12:127 13:90 14:107 15:149 16:126 
1.0908203125 1:54 2:31 3:31 4:44 5:32 6:26 7:26 8:24 9:41 10:19 11:22 12:49 13:33 14:32 15:52 16:49 
1.0908203125 1:87 2:57 3:38 4:53 5:58 6:36 7:27 8:32 9:45 10:30 11:23 12:22 13:45 14:30 15:32 16:33 
1.0908203125 1:113 2:124 3:93 4:85 5:115 6:55 7:73 8:70 9:118 10:58 11:76 12:70 13:69 14:76 15:80 16:105 
1.0908203125 1:114 2:54 3:67 4:72 5:51 6:37 7:50 8:42 9:94 10:44 11:51 12:57 13:48 14:45 15:78 16:48 
1.0908203125 1:23 2:17 3:27 4:42 5:25 6:7 7:18 8:5 9:24 10:25 11:32 12:21 13:37 14:6 15:25 16:13 
1.0908203125 1:46 2:21 3:27 4:25 5:24 6:10 7:8 8:11 9:24 10:10 11:27 12:22 13:25 14:12 15:21 16:22 
1.0908203125 1:183 2:108 3:131 4:139 5:139 6:109 7:61 8:88 9:141 10:69 11:91 12:88 13:97 14:111 15:107 16:131 
1.0908203125 1:54 2:41 3:48 4:35 5:45 6:27 7:20 8:30 9:56 10:25 11:25 12:37 13:23 14:29 15:50 16:38 
1.0908203125 1:33 2:19 3:30 4:10 5:20 6:18 7:42 8:11 9:26 10:39 11:22 12:22 13:12 14:15 15:16 16:9 
1.0908203125 1:135 2:53 3:83 4:89 5:81 6:59 7:47 8:67 9:79 10:75 11:88 12:68 13:65 14:67 15:92 16:84 
1.0908203125 1:225 2:108 3:125 4:99 5:132 6:69 7:54 8:93 9:123 10:82 11:59 12:57 13:77 14:89 15:83 16:76 
1.0908203125 1:158 2:93 3:78 4:92 5:92 6:54 7:33 8:72 9:101 10:37 11:49 12:52 13:70 14:67 15:79 16:99 
1.0908203125 1:172 2:101 3:93 4:91 5:118 6:81 7:54 8:94 9:111 10:54 11:70 12:70 13:56 14:111 15:88 16:122 
1.0908203125 1:116 2:57 3:60 4:70 5:64 6:44 7:29 8:52 9:70 10:35 11:41 12:43 13:53 14:53 15:59 16:76 
1.0908203125 1:66 2:24 3:49 4:27 5:34 6:13 7:19 8:21 9:42 10:28 11:39 12:28 13:24 14:22 15:30 16:37 
1.0908203125 1:23 2:15 3:23 4:16 5:16 6:11 7:18 8:11 9:25 10:19 11:14 12:18 13:13 14:11 15:21 16:22 
1.0908203125 1:82 2:33 3:41 4:60 5:33 6:15 7:23 8:26 9:58 10:23 11:37 12:29 13:43 14:26 15:46 16:64 
1.0908203125 1:137 2:78 3:102 4:111 5:103 6:55 7:56 8:63 9:110 10:68 11:67 12:64 13:78 14:76 15:84 16:110 
1.0908203125 1:115 2:61 3:104 4:99 5:80 6:55 7:52 8:71 9:112 10:57 11:85 12:86 13:72 14:85 15:99 16:123 
1.0908203125 1:120 2:69 3:96 4:80 5:101 6:54 7:61 8:66 9:88 10:87 11:109 12:89 13:56 14:72 15:107 16:95 
1.0908203125 1:35 2:16 3:39 4:14 5:17 6:9 7:14 8:16 9:32 10:20 11:34 12:23 13:20 14:11 15:22 16:25 
1.0908203125 1:36 2:27 3:15 4:27 5:36 6:20 7:22 8:19 9:17 10:27 11:19 12:21 13:16 14:23 15:28 16:29 
1.0908203125 1:10 2:18 3:14 4:16 5:25 6:32 7:15 8:31 9:10 10:25 11:21 12:18 13:13 14:28 15:24 16:50 
1.0908203125 1:70 2:58 3:66 4:64 5:60 6:30 7:37 8:36 9:80 10:39 11:67 12:45 13:48 14:36 15:61 16:66 
1.0908203125 1:29 2:54 3:29 4:37 5:54 6:32 7:20 8:35 9:28 10:22 11:13 12:24 13:37 14:33 15:26 16:27 
1.0908203125 1:24 2:28 3:35 4:25 5:30 6:23 7:24 8:26 9:29 10:32 11:32 12:31 13:29 14:20 15:33 16:23 
1.0908203125 1:150 2:111 3:110 4:102 5:108 6:90 7:71 8:85 9:136 10:61 11:76 12:102 13:78 14:92 15:119 16:146 
1.0908203125 1:202 2:85 3:86 4:131 5:92 6:53 7:36 8:70 9:101 10:42 11:60 12:54 13:108 14:71 15:76 16:122 
1.0908203125 1:27 2:14 3:34 4:16 5:15 6:10 7:9 8:17 9:26 10:9 11:17 12:27 13:23 14:18 15:19 16:24 
1.0908203125 1:93 2:54 3:53 4:80 5:58 6:33 7:24 8:44 9:68 10:35 11:48 12:41 13:61 14:37 15:67 16:94 
1.0908203125 1:37 2:46 3:45 4:24 5:58 6:61 7:41 8:50 9:36 10:51 11:13 12:32 13:21 14:52 15:33 16:27 
1.0908203125 1:76 2:62 3:39 4:72 5:71 6:46 7:19 8:77 9:48 10:33 11:38 12:47 13:54 14:72 15:70 16:90 
1.0908203125 1:79 2:63 3:52 4:46 5:62 6:50 7:52 8:73 9:50 10:47 11:70 12:95 13:49 14:77 15:88 16:76 
1.0908203125 1:73 2:69 3:63 4:42 5:79 6:62 7:52 8:54 9:65 10:58 11:35 12:56 13:30 14:58 15:64 16:54 
1.0908203125 1:103 2:78 3:90 4:74 5:97 6:59 7:48 8:34 9:75 10:62 11:44 12:35 13:70 14:39 15:34 16:39 
1.0908203125 1:52 2:34 3:46 4:42 5:37 6:23 7:29 8:30 9:52 10:35 11:39 12:32 13:32 14:27 15:45 16:25 
1.0908203125 1:86 2:57 3:68 4:79 5:64 6:45 7:49 8:70 9:88 10:53 11:73 12:93 13:51 14:73 15:118 16:127 
1.0908203125 1:186 2:98 3:90 4:121 5:93 6:63 7:48 8:79 9:110 10:49 11:56 12:82 13:105 14:73 15:104 16:123 
1.0908203125 1:81 2:55 3:33 4:43 5:55 6:32 7:19 8:40 9:31 10:27 11:22 12:38 13:45 14:32 15:44 16:57 
1.0908203125 1:127 2:82 3:78 4:117 5:101 6:65 7:44 8:63 9:107 10:45 11:53 12:74 13:69 14:81 15:104 16:90 
1.0908203125 1:22 2:22 3:19 4:31 5:29 6:12 7:12 8:21 9:20 10:13 11:10 12:11 13:23 14:27 15:13 16:59 
1.0908203125 1:139 2:90 3:107 4:88 5:94 6:96 7:80 8:76 9:123 10:66 11:88 12:90 13:68 14:94 15:92 16:101 
1.0908203125 1:135 2:71 3:80 4:96 5:91 6:63 7:28 8:61 9:92 10:36 11:53 12:50 13:64 14:73 15:70 16:107 
1.0908203125 1:32 2:45 3:22 4:29 5:52 6:38 7:23 8:43 9:15 10:32 11:13 12:24 13:29 14:41 15:26 16:45 
1.0908203125 1:174 2:96 3:75 4:113 5:83 6:58 7:44 8:111 9:112 10:51 11:67 12:81 13:89 14:91 15:125 16:128 
1.0908203125 1:227 2:84 3:116 4:132 5:106 6:57 7:41 8:63 9:139 10:42 11:72 12:67 13:87 14:84 15:91 16:128 
1.0908203125 1:86 2:63 3:63 4:66 5:73 6:41 7:33 8:52 9:69 10:47 11:48 12:49 13:49 14:48 15:70 16:68 
1.0908203125 1:81 2:51 3:49 4:76 5:66 6:33 7:21 8:40 9:54 10:26 11:28 12:40 13:55 14:50 15:51 16:69 
1.0908203125 1:34 2:19 3:21 4:15 5:22 6:14 7:6 8:16 9:21 10:12 11:19 12:6 13:12 14:13 15:12 16:13 
1.0908203125 1:78 2:30 3:44 4:34 5:34 6:24 7:16 8:34 9:49 10:24 11:21 12:14 13:24 14:30 15:28 16:34 
1.0908203125 1:36 2:29 3:40 4:27 5:28 6:19 7:25 8:27 9:37 10:29 11:35 12:25 13:31 14:22 15:26 16:23 
1.0908203125 1:14 2:33 3:12 4:48 5:38 6:20 7:18 8:35 9:27 10:26 11:7 12:15 13:27 14:32 15:38 16:36 
1.0908203125 1:107 2:58 3:75 4:57 5:68 6:55 7:28 8:64 9:79 10:52 11:40 12:48 13:43 14:50 15:76 16:61 
1.0908203125 1:153 2:85 3:109 4:60 5:86 6:46 7:43 8:56 9:114 10:59 11:58 12:56 13:54 14:41 15:77 16:64 
1.0908203125 1:174 2:106 3:124 4:128 5:120 6:91 7:96 8:77 9:122 10:93 11:83 12:92 13:115 14:94 15:88 16:128 
1.0908203125 1:193 2:137 3:154 4:117 5:164 6:101 7:104 8:87 9:156 10:124 11:111 12:94 13:88 14:94 15:116 16:98 
1.0908203125 1:21 2:15 3:17 4:17 5:19 6:18 7:18 8:22 9:16 10:21 11:11 12:28 13:14 14:23 15:30 16:48 
1.0908203125 1:24 2:22 3:18 4:35 5:31 6:15 7:16 8:18 9:18 10:19 11:19 12:21 13:26 14:24 15:24 16:46 
1.0908203125 1:66 2:41 3:54 4:36 5:54 6:29 7:14 8:28 9:52 10:22 11:31 12:41 13:25 14:33 15:47 16:60 
1.0908203125 1:72 2:73 3:56 4:81 5:81 6:44 7:39 8:72 9:67 10:41 11:49 12:69 13:61 14:78 15:83 16:113 
1.0908203125 1:7 2:6 3:10 4:11 5:9 6:3 7:3 8:7 9:6 10:5 11:6 12:9 13:12 14:8 15:7 16:19 
1.0908203125 1:127 2:56 3:76 4:110 5:74 6:49 7:30 8:54 9:85 10:43 11:45 12:54 13:83 14:59 15:76 16:99 
1.0908203125 1:40 2:23 3:19 4:32 5:33 6:22 7:24 8:50 9:24 10:29 11:17 12:37 13:16 14:55 15:48 16:79 
1.0908203125 1:192 2:125 3:138 4:139 5:145 6:103 7:82 8:104 9:157 10:115 11:119 12:104 13:100 14:91 15:156 16:162 
1.0908203125 1:128 2:59 3:56 4:67 5:59 6:35 7:30 8:63 9:70 10:36 11:21 12:23 13:53 14:57 15:43 16:60 
1.0908203125 1:132 2:34 3:49 4:65 5:41 6:14 7:17 8:22 9:58 10:25 11:27 12:18 13:49 14:21 15:35 16:62 
1.0908203125 1:39 2:26 3:30 4:34 5:37 6:27 7:12 8:27 9:40 10:19 11:24 12:27 13:13 14:31 15:44 16:35 
1.0908203125 1:97 2:44 3:76 4:67 5:63 6:35 7:24 8:36 9:76 10:43 11:49 12:41 13:47 14:36 15:61 16:57 
1.0908203125 1:168 2:125 3:128 4:148 5:174 6:99 7:80 8:114 9:126 10:123 11:121 12:94 13:101 14:120 15:135 16:120 
1.0908203125 1:26 2:21 3:17 4:9 5:19 6:12 7:7 8:22 9:15 10:6 11:16 12:20 13:13 14:21 15:17 16:20 
1.0908203125 1:31 2:17 3:22 4:11 5:19 6:9 7:13 8:12 9:20 10:15 11:18 12:11 13:11 14:12 15:11 16:20 
1.0908203125 1:107 2:63 3:76 4:64 5:76 6:29 7:36 8:46 9:69 10:55 11:60 12:55 13:58 14:40 15:67 16:51 
1.0908203125 1:38 2:35 3:32 4:33 5:34 6:12 7:21 8:35 9:38 10:30 11:14 12:14 13:28 14:25 15:29 16:35 
1.0908203125 1:131 2:44 3:91 4:95 5:71 6:45 7:26 8:67 9:97 10:41 11:47 12:71 13:61 14:79 15:93 16:105 
1.0908203125 1:143 2:91 3:83 4:105 5:99 6:76 7:53 8:90 9:100 10:64 11:102 12:99 13:80 14:87 15:127 16:134 
1.0908203125 1:141 2:59 3:88 4:105 5:79 6:25 7:42 8:52 9:95 10:44 11:57 12:59 13:78 14:70 15:68 16:114 
1.0908203125 1:24 2:16 3:23 4:22 5:32 6:19 7:8 8:46 9:12 10:24 11:15 12:26 13:17 14:46 15:31 16:83 
1.0908203125 1:138 2:116 3:71 4:109 5:124 6:124 7:68 8:114 9:98 10:71 11:44 12:53 13:74 14:119 15:83 16:101 
1.0908203125 1:41 2:25 3:23 4:34 5:27 6:13 7:16 8:14 9:32 10:15 11:10 12:18 13:23 14:17 15:26 16:28 
1.0908203125 1:62 2:30 3:30 4:46 5:33 6:20 7:16 8:22 9:41 10:15 11:31 12:33 13:32 14:26 15:43 16:44 
1.0908203125 1:78 2:38 3:48 4:40 5:39 6:38 7:38 8:40 9:57 10:34 11:37 12:32 13:30 14:45 15:37 16:32 
1.0908203125 1:180 2:150 3:162 4:188 5:173 6:120 7:112 8:159 9:179 10:130 11:132 12:175 13:147 14:164 15:211 16:282 
1.0908203125 1:145 2:103 3:98 4:87 5:113 6:71 7:51 8:82 9:96 10:85 11:77 12:76 13:79 14:58 15:108 16:95 
1.0908203125 1:63 2:54 3:53 4:36 5:51 6:30 7:39 8:47 9:71 10:40 11:28 12:28 13:20 14:43 15:48 16:53 
1.0908203125 1:75 2:62 3:48 4:87 5:73 6:58 7:37 8:56 9:57 10:43 11:65 12:57 13:67 14:61 15:72 16:90 
1.0908203125 1:31 2:38 3:4 4:41 5:44 6:29 7:6 8:24 9:2 10:11 11:3 12:7 13:37 14:25 15:10 16:32 
1.0908203125 1:43 2:34 3:28 4:30 5:25 6:15 7:13 8:31 9:37 10:12 11:23 12:19 13:30 14:23 15:27 16:34 
1.0908203125 1:74 2:90 3:69 4:97 5:107 6:85 7:86 8:101 9:75 10:105 11:94 12:77 13:73 14:99 15:103 16:107 
1.0908203125 1:178 2:95 3:84 4:128 5:107 6:70 7:49 8:84 9:98 10:57 11:48 12:72 13:102 14:88 15:94 16:123 
1.0908203125 1:132 2:91 3:88 4:130 5:96 6:65 7:53 8:120 9:100 10:64 11:110 12:125 13:113 14:114 15:148 16:200 
1.0908203125 1:40 2:31 3:26 4:29 5:33 6:25 7:15 8:27 9:25 10:21 11:14 12:22 13:28 14:23 15:27 16:29 
1.0908203125 1:12 2:15 3:13 4:25 5:23 6:30 7:15 8:33 9:13 10:19 11:10 12:17 13:17 14:37 15:21 16:53 
1.0908203125 1:81 2:54 3:51 4:64 5:57 6:55 7:51 8:51 9:58 10:52 11:56 12:53 13:54 14:53 15:61 16:77 
1.0908203125 1:145 2:63 3:68 4:106 5:83 6:42 7:46 8:50 9:88 10:37 11:52 12:57 13:66 14:79 15:68 16:114 
1.0908203125 1:190 2:87 3:112 4:130 5:108 6:55 7:56 8:57 9:134 10:59 11:81 12:92 13:87 14:75 15:117 16:126 
1.0908203125 1:198 2:83 3:122 4:157 5:111 6:72 7:54 8:83 9:133 10:68 11:76 12:81 13:118 14:97 15:106 16:151 
1.0908203125 1:174 2:232 3:154 4:128 5:251 6:192 7:108 8:238 9:108 10:154 11:76 12:134 13:155 14:211 15:134 16:153 
1.0908203125 1:94 2:45 3:60 4:40 5:44 6:38 7:25 8:60 9:72 10:32 11:22 12:25 13:28 14:52 15:45 16:46 
1.0908203125 1:45 2:43 3:27 4:32 5:39 6:29 7:28 8:38 9:42 10:30 11:25 12:16 13:21 14:32 15:33 16:29 
1.0908203125 1:95 2:63 3:59 4:90 5:79 6:47 7:41 8:43 9:72 10:41 11:41 12:56 13:61 14:59 15:69 16:74 
1.0908203125 1:147 2:103 3:103 4:102 5:135 6:69 7:62 8:66 9:108 10:73 11:108 12:86 13:65 14:87 15:102 16:94 
1.0908203125 1:43 2:27 3:35 4:58 5:36 6:21 7:11 8:30 9:42 10:20 11:27 12:40 13:42 14:30 15:56 16:41 
1.0908203125 1:87 2:58 3:68 4:43 5:60 6:44 7:45 8:37 9:69 10:47 11:42 12:28 13:40 14:37 15:31 16:42 
1.0908203125 1:54 2:53 3:48 4:42 5:60 6:62 7:39 8:60 9:49 10:46 11:40 12:40 13:34 14:60 15:48 16:55 
1.0908203125 1:62 2:51 3:51 4:60 5:51 6:49 7:30 8:53 9:63 10:29 11:56 12:56 13:48 14:54 15:67 16:60 
1.0908203125 1:133 2:77 3:78 4:144 5:122 6:76 7:67 8:87 9:85 10:80 11:124 12:126 13:92 14:119 15:146 16:193 
1.0908203125 1:84 2:55 3:71 4:76 5:66 6:56 7:54 8:75 9:76 10:70 11:71 12:69 13:59 14:70 15:91 16:95 
1.0908203125 1:131 2:94 3:88 4:145 5:128 6:78 7:63 8:78 9:84 10:78 11:94 12:109 13:115 14:97 15:120 16:152 
1.0908203125 1:139 2:78 3:75 4:97 5:86 6:60 7:54 8:55 9:90 10:60 11:90 12:64 13:74 14:57 15:85 16:83 
1.0908203125 1:61 2:42 3:48 4:43 5:51 6:38 7:47 8:44 9:55 10:53 11:60 12:53 13:27 14:47 15:66 16:43 
1.0908203125 1:147 2:73 3:84 4:119 5:85 6:42 7:49 8:51 9:124 10:35 11:53 12:51 13:66 14:77 15:78 16:92 
1.0908203125 1:176 2:90 3:75 4:104 5:104 6:87 7:39 8:63 9:71 10:52 11:40 12:48 13:94 14:64 15:57 16:92 
1.0908203125 1:121 2:84 3:87 4:62 5:88 6:75 7:53 8:71 9:95 10:58 11:67 12:65 13:50 14:70 15:78 16:102 
1.0908203125 1:119 2:77 3:94 4:111 5:83 6:39 7:40 8:81 9:119 10:54 11:74 12:75 13:80 14:73 15:114 16:135 
1.0908203125 1:23 2:10 3:18 4:24 5:21 6:13 7:11 8:18 9:15 10:18 11:12 12:20 13:16 14:22 15:24 16:35 
1.0908203125 1:123 2:106 3:66 4:128 5:113 6:95 7:44 8:133 9:85 10:58 11:103 12:122 13:102 14:126 15:155 16:208 
1.0908203125 1:19 2:16 3:20 4:19 5:26 6:11 7:10 8:14 9:16 10:14 11:13 12:13 13:13 14:20 15:13 16:24 
1.0908203125 1:21 2:10 3:11 4:26 5:19 6:19 7:20 8:29 9:11 10:36 11:15 12:12 13:17 14:22 15:28 16:21 
1.0908203125 1:23 2:18 3:22 4:22 5:28 6:12 7:20 8:34 9:21 10:40 11:25 12:16 13:13 14:24 15:35 16:38 
1.0908203125 1:90 2:78 3:91 4:87 5:98 6:47 7:55 8:54 9:109 10:79 11:85 12:69 13:48 14:50 15:112 16:80 
1.0908203125 1:203 2:118 3:136 4:150 5:139 6:86 7:93 8:97 9:161 10:105 11:108 12:103 13:104 14:106 15:140 16:133 
1.0908203125 1:97 2:62 3:58 4:89 5:63 6:42 7:29 8:61 9:74 10:37 11:63 12:55 13:72 14:54 15:79 16:91 
1.0908203125 1:212 2:80 3:133 4:104 5:99 6:46 7:36 8:57 9:149 10:50 11:80 12:56 13:68 14:62 15:87 16:93 
1.0908203125 1:32 2:19 3:19 4:29 5:26 6:22 7:18 8:21 9:25 10:20 11:16 12:19 13:16 14:26 15:27 16:35 
1.0908203125 1:74 2:74 3:52 4:45 5:66 6:54 7:43 8:71 9:66 10:36 11:50 12:76 13:39 14:70 15:83 16:82 
1.0908203125 1:40 2:49 3:44 4:32 5:57 6:37 7:22 8:38 9:38 10:38 11:46 12:38 13:30 14:30 15:48 16:37 
1.0908203125 1:28 2:27 3:16 4:48 5:39 6:24 7:20 8:34 9:15 10:23 11:25 12:33 13:37 14:43 15:35 16:65 
1.0908203125 1:137 2:41 3:67 4:96 5:54 6:47 7:29 8:37 9:82 10:33 11:37 12:42 13:67 14:46 15:62 16:81 
1.0908203125 1:93 2:43 3:57 4:80 5:61 6:35 7:31 8:47 9:62 10:38 11:44 12:55 13:57 14:58 15:67 16:91 
1.0908203125 1:63 2:35 3:45 4:72 5:57 6:35 7:27 8:32 9:60 10:41 11:35 12:28 13:34 14:40 15:58 16:60 
1.0908203125 1:104 2:48 3:80 4:71 5:61 6:49 7:39 8:61 9:84 10:46 11:55 12:61 13:54 14:67 15:72 16:103 
1.0908203125 1:120 2:65 3:98 4:90 5:89 6:52 7:46 8:45 9:110 10:56 11:55 12:56 13:54 14:59 15:78 16:65 
1.0908203125 1:192 2:59 3:74 4:112 5:70 6:38 7:26 8:47 9:81 10:33 11:47 12:57 13:94 14:51 15:71 16:115 
1.0908203125 1:50 2:49 3:36 4:53 5:62 6:56 7:45 8:65 9:46 10:46 11:28 12:50 13:30 14:77 15:61 16:71 
1.0908203125 1:215 2:94 3:138 4:172 5:140 6:72 7:74 8:96 9:138 10:96 11:107 12:123 13:126 14:120 15:145 16:197 
1.0908203125 1:147 2:66 3:71 4:87 5:80 6:42 7:27 8:55 9:68 10:32 11:59 12:73 13:76 14:64 15:75 16:101 
1.0908203125 1:139 2:89 3:79 4:158 5:103 6:66 7:68 8:97 9:103 10:77 11:96 12:106 13:120 14:102 15:139 16:219 
1.0908203125 1:136 2:102 3:105 4:97 5:115 6:90 7:50 8:91 9:120 10:61 11:94 12:94 13:69 14:93 15:120 16:117 
1.0908203125 1:35 2:39 3:24 4:50 5:51 6:40 7:23 8:49 9:22 10:34 11:26 12:32 13:39 14:50 15:41 16:54 
1.0908203125 1:116 2:75 3:77 4:70 5:87 6:62 7:34 8:64 9:73 10:45 11:42 12:48 13:61 14:65 15:56 16:95 
1.0908203125 1:26 2:17 3:11 4:21 5:18 6:21 7:27 8:34 9:12 10:29 11:5 12:21 13:19 14:33 15:24 16:49 
1.0908203125 1:134 2:104 3:127 4:140 5:101 6:67 7:90 8:84 9:182 10:94 11:133 12:97 13:88 14:77 15:156 16:104 
1.0908203125 1:61 2:29 3:37 4:27 5:44 6:25 7:18 8:30 9:29 10:36 11:21 12:19 13:20 14:27 15:29 16:13 
1.0908203125 1:75 2:68 3:85 4:69 5:78 6:50 7:51 8:55 9:85 10:60 11:78 12:55 13:59 14:56 15:64 16:64 
1.0908203125 1:89 2:46 3:47 4:59 5:55 6:41 7:26 8:41 9:59 10:29 11:36 12:37 13:38 14:47 15:52 16:70 
1.0908203125 1:41 2:42 3:52 4:46 5:54 6:43 7:54 8:42 9:55 10:84 11:45 12:37 13:31 14:24 15:70 16:31 
1.0908203125 1:59 2:46 3:42 4:51 5:54 6:39 7:18 8:28 9:49 10:21 11:30 12:36 13:36 14:33 15:46 16:51 
1.0908203125 1:208 2:135 3:125 4:135 5:156 6:126 7:95 8:116 9:148 10:112 11:124 12:113 13:91 14:120 15:153 16:137 
1.0908203125 1:127 2:89 3:73 4:91 5:91 6:65 7:40 8:88 9:94 10:46 11:58 12:74 13:68 14:84 15:101 16:102 
1.0908203125 1:44 2:20 3:20 4:24 5:26 6:13 7:5 8:15 9:14 10:14 11:8 12:18 13:24 14:12 15:21 16:33 
1.0908203125 1:26 2:26 3:20 4:28 5:26 6:24 7:22 8:33 9:27 10:28 11:11 12:20 13:20 14:27 15:34 16:31 
1.0908203125 1:128 2:55 3:87 4:66 5:58 6:35 7:38 8:49 9:95 10:34 11:47 12:43 13:55 14:56 15:47 16:56 
1.0908203125 1:65 2:46 3:47 4:47 5:47 6:38 7:32 8:35 9:60 10:41 11:44 12:38 13:33 14:27 15:60 16:26 
1.0908203125 1:119 2:89 3:89 4:111 5:115 6:57 7:54 8:69 9:95 10:71 11:65 12:67 13:79 14:78 15:90 16:82 
1.0908203125 1:46 2:31 3:26 4:46 5:41 6:46 7:18 8:126 9:28 10:64 11:24 12:27 13:33 14:90 15:76 16:73 
1.0908203125 1:26 2:21 3:21 4:23 5:28 6:18 7:25 8:18 9:20 10:26 11:21 12:20 13:16 14:24 15:21 16:25 
1.0908203125 1:38 2:19 3:22 4:27 5:25 6:13 7:11 8:15 9:25 10:18 11:18 12:14 13:18 14:14 15:24 16:25 
1.0908203125 1:209 2:130 3:107 4:166 5:156 6:104 7:81 8:141 9:130 10:85 11:104 12:110 13:116 14:163 15:138 16:145 
1.0908203125 1:26 2:33 3:37 4:29 5:46 6:39 7:17 8:34 9:30 10:33 11:30 12:33 13:23 14:31 15:42 16:44 
1.090820312435589 1:59 2:38 3:36 4:49 5:49 6:46 7:29 8:41 9:45 10:41 11:36 12:41 13:29 14:40 15:62 16:63 
1.090820312451692 1:88 2:59 3:56 4:62 5:69 6:47 7:33 8:54 9:65 10:54 11:59 12:52 13:42 14:43 15:83 16:80 
1.090820312451692 1:23 2:30 3:20 4:27 5:28 6:27 7:22 8:25 9:29 10:22 11:17 12:21 13:20 14:23 15:30 16:30 
1.090820312483897 1:167 2:103 3:143 4:126 5:136 6:62 7:88 8:86 9:139 10:121 11:111 12:109 13:97 14:86 15:138 16:131 
1.090820312483897 1:63 2:46 3:43 4:52 5:62 6:30 7:29 8:30 9:50 10:39 11:41 12:35 13:29 14:36 15:52 16:29 
1.090820312483897 1:34 2:18 3:21 4:36 5:18 6:9 7:11 8:16 9:22 10:11 11:12 12:24 13:34 14:16 15:26 16:39 
1.0908203125 1:63 2:35 3:41 4:24 5:33 6:21 7:17 8:11 9:38 10:14 11:29 12:20 13:28 14:12 15:15 16:20 
1.0908203125 1:64 2:58 3:52 4:57 5:67 6:38 7:36 8:48 9:61 10:52 11:67 12:59 13:39 14:41 15:84 16:58 
1.0908203125 1:41 2:24 3:26 4:37 5:24 6:11 7:14 8:17 9:34 10:11 11:24 12:26 13:29 14:20 15:31 16:40 
1.0908203125 1:144 2:131 3:103 4:116 5:154 6:168 7:129 8:122 9:116 10:119 11:88 12:94 13:80 14:155 15:97 16:101 
1.0908203125 1:86 2:69 3:82 4:86 5:72 6:62 7:53 8:62 9:88 10:56 11:85 12:72 13:76 14:62 15:82 16:89 
1.0908203125 1:90 2:38 3:57 4:47 5:50 6:27 7:26 8:25 9:70 10:31 11:35 12:32 13:21 14:32 15:51 16:57 
1.0908203125 1:24 2:31 3:20 4:28 5:35 6:29 7:26 8:36 9:23 10:24 11:11 12:27 13:21 14:42 15:28 16:30 
1.0908203125 1:45 2:38 3:37 4:41 5:41 6:29 7:25 8:38 9:43 10:21 11:33 12:38 13:32 14:45 15:40 16:55 
1.0908203125 1:97 2:135 3:57 4:120 5:140 6:125 7:105 8:142 9:90 10:107 11:108 12:101 13:82 14:145 15:136 16:174 
1.0908203125 1:106 2:126 3:112 4:86 5:144 6:102 7:97 8:97 9:126 10:97 11:110 12:129 13:53 14:115 15:144 16:158 
1.0908203125 1:83 2:32 3:46 4:48 5:42 6:17 7:19 8:18 9:54 10:23 11:19 12:28 13:29 14:24 15:41 16:33 
1.0908203125 1:104 2:42 3:43 4:60 5:54 6:22 7:15 8:30 9:52 10:18 11:28 12:24 13:39 14:39 15:36 16:83 
1.0908203125 1:139 2:89 3:107 4:119 5:95 6:80 7:59 8:66 9:139 10:45 11:73 12:93 13:81 14:86 15:111 16:145 
1.0908203125 1:45 2:41 3:51 4:46 5:45 6:35 7:37 8:22 9:71 10:40 11:63 12:36 13:22 14:23 15:59 16:21 
1.0908203125 1:58 2:35 3:51 4:37 5:31 6:26 7:28 8:39 9:61 10:34 11:29 12:42 13:31 14:29 15:58 16:77 
1.0908203125 1:293 2:91 3:120 4:186 5:119 6:52 7:34 8:82 9:133 10:41 11:61 12:70 13:144 14:103 15:91 16:185 
1.0908203125 1:75 2:46 3:54 4:48 5:57 6:30 7:24 8:31 9:48 10:30 11:39 12:29 13:43 14:36 15:29 16:32 
1.0908203125 1:142 2:56 3:69 4:78 5:56 6:42 7:23 8:61 9:69 10:29 11:31 12:41 13:78 14:55 15:47 16:69 
1.0908203125 1:143 2:89 3:77 4:95 5:93 6:48 7:60 8:45 9:105 10:48 11:64 12:69 13:63 14:61 15:85 16:87 
1.0908203125 1:112 2:52 3:62 4:75 5:69 6:33 7:30 8:38 9:70 10:42 11:38 12:54 13:49 14:43 15:75 16:72 
1.0908203125 1:40 2:18 3:25 4:37 5:26 6:11 7:12 8:20 9:31 10:16 11:17 12:18 13:22 14:24 15:29 16:36 
1.0908203125 1:124 2:44 3:57 4:107 5:73 6:39 7:22 8:47 9:72 10:33 11:27 12:47 13:63 14:65 15:73 16:106 
1.0908203125 1:200 2:111 3:103 4:159 5:112 6:72 7:52 8:94 9:141 10:52 11:87 12:91 13:120 14:95 15:129 16:137 
1.0908203125 1:35 2:26 3:20 4:28 5:33 6:35 7:20 8:54 9:17 10:31 11:9 12:20 13:24 14:50 15:28 16:44 
1.0908203125 1:84 2:36 3:57 4:65 5:46 6:22 7:19 8:22 9:59 10:26 11:45 12:30 13:53 14:25 15:39 16:32 
1.0908203125 1:57 2:45 3:53 4:45 5:54 6:61 7:50 8:42 9:59 10:51 11:60 12:47 13:30 14:50 15:54 16:37 
1.0908203125 1:14 2:16 3:6 4:29 5:20 6:20 7:13 8:20 9:12 10:13 11:12 12:16 13:18 14:24 15:23 16:55 
1.0908203125 1:29 2:12 3:14 4:10 5:16 6:5 7:2 8:9 9:14 10:8 11:5 12:2 13:6 14:7 15:8 16:5 
1.0908203125 1:53 2:50 3:30 4:29 5:44 6:21 7:30 8:27 9:41 10:23 11:31 12:23 13:24 14:28 15:27 16:16 
1.0908203125 1:42 2:36 3:36 4:30 5:34 6:30 7:17 8:31 9:40 10:24 11:31 12:33 13:27 14:22 15:45 16:25 
1.0908203125 1:260 2:114 3:153 4:160 5:147 6:109 7:66 8:133 9:169 10:105 11:114 12:163 13:111 14:127 15:218 16:211 
1.0908203125 1:183 2:108 3:92 4:130 5:122 6:105 7:73 8:126 9:109 10:71 11:53 12:73 13:99 14:142 15:88 16:119 
1.0908203125 1:91 2:75 3:85 4:58 5:89 6:35 7:65 8:38 9:83 10:77 11:53 12:43 13:46 14:40 15:53 16:50 
1.0908203125 1:83 2:54 3:70 4:104 5:70 6:55 7:33 8:70 9:70 10:49 11:70 12:86 13:88 14:70 15:102 16:135 
1.0908203125 1:157 2:58 3:83 4:78 5:69 6:49 7:52 8:87 9:102 10:42 11:59 12:69 13:48 14:108 15:78 16:84 
1.0908203125 1:124 2:73 3:98 4:69 5:84 6:71 7:47 8:70 9:101 10:71 11:67 12:49 13:54 14:57 15:77 16:64 
1.0908203125 1:126 2:60 3:54 4:77 5:81 6:51 7:26 8:52 9:49 10:46 11:22 12:22 13:61 14:53 15:37 16:49 
1.0908203125 1:6 2:14 3:12 4:15 5:14 6:15 7:12 8:33 9:10 10:19 11:9 12:27 13:17 14:26 15:32 16:42 
1.0908203125 1:157 2:103 3:94 4:128 5:101 6:57 7:63 8:104 9:115 10:62 11:66 12:77 13:109 14:103 15:97 16:145 
1.0908203125 1:30 2:27 3:20 4:23 5:36 6:36 7:17 8:29 9:18 10:23 11:7 12:18 13:15 14:32 15:23 16:37 
1.0908203125 1:18 2:21 3:21 4:24 5:20 6:21 7:31 8:19 9:24 10:29 11:8 12:19 13:21 14:20 15:21 16:24 
1.0908203125 1:54 2:17 3:26 4:29 5:25 6:12 7:10 8:16 9:25 10:19 11:10 12:10 13:22 14:15 15:18 16:15 
1.090820312451692 1:83 2:79 3:82 4:103 5:100 6:76 7:75 8:75 9:103 10:88 11:79 12:55 13:61 14:83 15:89 16:78 
1.090820312451692 1:101 2:52 3:72 4:79 5:79 6:56 7:30 8:60 9:78 10:46 11:78 12:81 13:46 14:71 15:103 16:97 
1.090820312451692 1:37 2:22 3:16 4:19 5:19 6:17 7:9 8:26 9:17 10:9 11:9 12:16 13:20 14:23 15:18 16:37 
1.090820312451692 1:163 2:93 3:97 4:117 5:91 6:72 7:73 8:79 9:124 10:73 11:96 12:92 13:92 14:77 15:119 16:152 
1.090820312451692 1:143 2:80 3:83 4:70 5:136 6:53 7:28 8:69 9:45 10:65 11:88 12:60 13:51 14:88 15:60 16:78 
1.090820312451692 1:95 2:46 3:70 4:76 5:60 6:30 7:35 8:22 9:70 10:35 11:48 12:51 13:61 14:36 15:52 16:44 
1.090820312451692 1:13 2:25 3:20 4:18 5:22 6:28 7:18 8:41 9:22 10:26 11:19 12:21 13:19 14:30 15:31 16:32 
1.090820312451692 1:143 2:73 3:79 4:61 5:70 6:68 7:39 8:77 9:104 10:46 11:47 12:55 13:39 14:67 15:87 16:124 
1.090820312451692 1:39 2:25 3:35 4:39 5:42 6:20 7:15 8:25 9:26 10:32 11:17 12:30 13:31 14:25 15:38 16:32 
1.090820312451692 1:209 2:91 3:101 4:152 5:118 6:73 7:54 8:69 9:113 10:80 11:88 12:76 13:113 14:70 15:114 16:119 
1.090820312483897 1:54 2:80 3:33 4:35 5:69 6:61 7:42 8:92 9:37 10:61 11:36 12:43 13:42 14:62 15:66 16:71 
1.090820312483897 1:75 2:43 3:44 4:33 5:39 6:25 7:27 8:56 9:48 10:29 11:45 12:55 13:33 14:50 15:61 16:70 
1.090820312483897 1:109 2:100 3:117 4:68 5:104 6:78 7:76 8:52 9:140 10:81 11:62 12:45 13:41 14:51 15:73 16:44 
1.090820312483897 1:159 2:131 3:161 4:116 5:138 6:75 7:65 8:115 9:156 10:110 11:95 12:96 13:113 14:77 15:137 16:99 
1.090820312483897 1:102 2:64 3:81 4:63 5:71 6:45 7:44 8:51 9:90 10:52 11:45 12:37 13:46 14:50 15:55 16:32 
1.090820312483897 1:110 2:36 3:64 4:85 5:50 6:33 7:28 8:42 9:77 10:29 11:41 12:51 13:57 14:55 15:66 16:92 
1.090820312483897 1:116 2:58 3:54 4:86 5:66 6:37 7:29 8:44 9:64 10:38 11:38 12:34 13:67 14:43 15:54 16:62 
1.090820312483897 1:71 2:42 3:43 4:41 5:42 6:21 7:34 8:25 9:56 10:32 11:37 12:22 13:28 14:27 15:33 16:35 
1.090820312483897 1:20 2:15 3:17 4:24 5:16 6:9 7:9 8:27 9:20 10:15 11:14 12:13 13:19 14:22 15:23 16:54 
1.090820312483897 1:233 2:166 3:137 4:156 5:189 6:129 7:102 8:156 9:173 10:116 11:102 12:100 13:96 14:165 15:151 16:147 
1.090820312483897 1:74 2:34 3:61 4:57 5:49 6:30 7:25 8:36 9:58 10:41 11:51 12:53 13:44 14:35 15:67 16:83 
1.090820312483897 1:74 2:50 3:41 4:50 5:51 6:38 7:29 8:47 9:56 10:32 11:32 12:41 13:34 14:45 15:59 16:60 
1.090820312483897 1:158 2:91 3:82 4:111 5:101 6:67 7:55 8:78 9:109 10:47 11:66 12:86 13:73 14:96 15:106 16:148 
1.090820312483897 1:161 2:93 3:104 4:113 5:104 6:70 7:55 8:98 9:114 10:70 11:75 12:88 13:92 14:94 15:113 16:131 
1.090820312483897 1:149 2:108 3:88 4:110 5:144 6:110 7:72 8:89 9:85 10:74 11:60 12:79 13:76 14:123 15:79 16:111 
1.090820312483897 1:46 2:33 3:49 4:25 5:27 6:12 7:16 8:15 9:65 10:18 11:31 12:19 13:15 14:7 15:37 16:20 
1.090820312483897 1:94 2:96 3:50 4:78 5:90 6:86 7:47 8:147 9:61 10:68 11:78 12:90 13:73 14:120 15:122 16:103 
1.090820312483897 1:147 2:74 3:79 4:92 5:86 6:62 7:45 8:89 9:89 10:63 11:89 12:85 13:70 14:83 15:113 16:123 
1.090820312483897 1:62 2:28 3:39 4:37 5:38 6:25 7:16 8:18 9:47 10:21 11:17 12:24 13:19 14:23 15:37 16:35 
1.090820312483897 1:138 2:79 3:80 4:96 5:95 6:74 7:42 8:86 9:84 10:54 11:64 12:70 13:76 14:90 15:86 16:136 
1.090820312483897 1:146 2:117 3:102 4:88 5:127 6:77 7:58 8:91 9:127 10:64 11:88 12:59 13:53 14:95 15:90 16:95 
1.090820312483897 1:42 2:15 3:24 4:30 5:23 6:12 7:8 8:11 9:29 10:9 11:19 12:14 13:17 14:18 15:20 16:29 
1.090820312483897 1:56 2:24 3:21 4:30 5:36 6:23 7:22 8:14 9:21 10:24 11:20 12:18 13:18 14:24 15:20 16:32 
1.090820312483897 1:57 2:51 3:48 4:50 5:53 6:47 7:41 8:43 9:55 10:38 11:47 12:56 13:41 14:48 15:60 16:72 
1.0908203125 1:79 2:67 3:65 4:98 5:95 6:76 7:62 8:100 9:70 10:92 11:71 12:83 13:64 14:98 15:119 16:114 
1.0908203125 1:178 2:117 3:105 4:98 5:136 6:84 7:47 8:83 9:105 10:55 11:49 12:75 13:78 14:94 15:84 16:101 
1.0908203125 1:121 2:59 3:103 4:108 5:68 6:43 7:48 8:48 9:121 10:47 11:86 12:76 13:81 14:58 15:93 16:102 
1.0908203125 1:172 2:75 3:108 4:109 5:89 6:30 7:30 8:49 9:134 10:37 11:71 12:68 13:69 14:56 15:101 16:114 
1.0908203125 1:118 2:78 3:81 4:132 5:86 6:60 7:67 8:71 9:106 10:58 11:61 12:78 13:99 14:88 15:94 16:121 
1.0908203125 1:360 2:144 3:141 4:242 5:168 6:83 7:76 8:118 9:202 10:91 11:121 12:91 13:157 14:127 15:167 16:231 
1.0908203125 1:84 2:38 3:41 4:56 5:42 6:20 7:33 8:28 9:45 10:30 11:29 12:48 13:48 14:35 15:49 16:57 
1.0908203125 1:43 2:49 3:46 4:53 5:56 6:46 7:53 8:73 9:44 10:59 11:45 12:51 13:48 14:74 15:55 16:83 
1.0908203125 1:106 2:53 3:82 4:94 5:59 6:32 7:24 8:35 9:95 10:26 11:56 12:60 13:75 14:39 15:75 16:76 
1.0908203125 1:139 2:76 3:85 4:105 5:86 6:37 7:47 8:36 9:95 10:47 11:64 12:59 13:85 14:46 15:69 16:91 
1.0908203125 1:89 2:74 3:68 4:80 5:83 6:61 7:52 8:55 9:79 10:50 11:43 12:56 13:60 14:66 15:65 16:62 
1.0908203125 1:35 2:34 3:38 4:36 5:48 6:33 7:21 8:39 9:35 10:32 11:44 12:45 13:24 14:42 15:53 16:50 
1.0908203125 1:82 2:48 3:60 4:50 5:58 6:33 7:28 8:36 9:70 10:42 11:51 12:40 13:30 14:32 15:64 16:42 
1.0908203125 1:66 2:49 3:70 4:67 5:55 6:51 7:43 8:80 9:67 10:67 11:84 12:77 13:64 14:62 15:98 16:99 
1.0908203125 1:70 2:56 3:54 4:83 5:61 6:66 7:41 8:72 9:58 10:46 11:54 12:57 13:73 14:72 15:67 16:122 
1.0908203125 1:37 2:38 3:39 4:47 5:62 6:40 7:31 8:39 9:37 10:39 11:23 12:38 13:24 14:55 15:45 16:54 
1.0908203125 1:89 2:59 3:56 4:84 5:71 6:50 7:30 8:67 9:72 10:56 11:44 12:46 13:56 14:53 15:88 16:111 
1.0908203125 1:113 2:76 3:84 4:81 5:84 6:72 7:44 8:62 9:92 10:44 11:67 12:82 13:65 14:70 15:90 16:115 
1.0908203125 1:50 2:29 3:42 4:29 5:31 6:18 7:34 8:25 9:35 10:38 11:29 12:26 13:34 14:23 15:23 16:25 
1.0908203125 1:43 2:55 3:39 4:29 5:57 6:49 7:34 8:31 9:42 10:31 11:31 12:25 13:24 14:36 15:25 16:26 
1.0908203125 1:57 2:29 3:39 4:47 5:42 6:32 7:14 8:29 9:36 10:23 11:28 12:33 13:37 14:33 15:39 16:47 
1.0908203125 1:103 2:61 3:85 4:78 5:70 6:41 7:42 8:67 9:91 10:68 11:90 12:63 13:62 14:50 15:95 16:92 
1.0908203125 1:34 2:38 3:25 4:27 5:40 6:24 7:25 8:20 9:35 10:21 11:7 12:8 13:15 14:26 15:14 16:8 
1.0908203125 1:12 2:95 3:2 4:25 5:88 6:91 7:5 8:33 9:2 10:6 11:1 12:11 13:32 14:25 15:12 16:13 
1.0908203125 1:120 2:62 3:74 4:102 5:68 6:38 7:22 8:50 9:81 10:35 11:40 12:49 13:89 14:43 15:69 16:75 
1.0908203125 1:90 2:51 3:56 4:68 5:66 6:62 7:37 8:50 9:68 10:48 11:68 12:67 13:41 14:54 15:90 16:68 
1.0908203125 1:57 2:28 3:36 4:28 5:40 6:23 7:13 8:31 9:27 10:43 11:25 12:17 13:25 14:13 15:38 16:44 
1.0908203125 1:70 2:84 3:66 4:66 5:93 6:69 7:65 8:77 9:73 10:73 11:79 12:67 13:50 14:78 15:82 16:69 
1.0908203125 1:120 2:80 3:80 4:108 5:114 6:74 7:47 8:63 9:89 10:56 11:69 12:73 13:65 14:88 15:91 16:83 
1.0908203125 1:176 2:107 3:138 4:105 5:129 6:76 7:76 8:65 9:156 10:81 11:102 12:82 13:65 14:82 15:105 16:101 
1.0908203125 1:31 2:17 3:55 4:38 5:25 6:17 7:19 8:57 9:66 10:15 11:21 12:23 13:18 14:69 15:31 16:99 
1.0908203125 1:110 2:54 3:71 4:81 5:67 6:54 7:32 8:52 9:80 10:40 11:68 12:82 13:58 14:57 15:100 16:85 
1.0908203125 1:124 2:52 3:75 4:66 5:58 6:35 7:33 8:33 9:92 10:42 11:42 12:34 13:43 14:30 15:60 16:47 
1.0908203125 1:66 2:35 3:34 4:46 5:54 6:19 7:11 8:35 9:25 10:36 11:11 12:14 13:36 14:29 15:30 16:19 
1.0908203125 1:98 2:68 3:75 4:62 5:84 6:61 7:46 8:71 9:82 10:44 11:67 12:77 13:39 14:89 15:82 16:66 
1.0908203125 1:49 2:26 3:29 4:37 5:31 6:27 7:16 8:28 9:34 10:29 11:19 12:20 13:27 14:20 15:38 16:38 
1.0908203125 1:27 2:40 3:27 4:38 5:49 6:38 7:25 8:28 9:26 10:33 11:17 12:26 13:30 14:29 15:33 16:31 
1.0908203125 1:173 2:83 3:92 4:98 5:91 6:48 7:42 8:73 9:108 10:56 11:34 12:45 13:73 14:67 15:76 16:82 
1.0908203125 1:56 2:49 3:49 4:36 5:55 6:30 7:32 8:30 9:56 10:29 11:38 12:40 13:23 14:39 15:44 16:39 
1.0908203125 1:122 2:61 3:94 4:108 5:87 6:39 7:37 8:60 9:91 10:58 11:58 12:72 13:85 14:65 15:90 16:108 
1.0908203125 1:77 2:64 3:48 4:71 5:66 6:48 7:29 8:76 9:60 10:41 11:58 12:66 13:57 14:66 15:90 16:79 
1.0908203125 1:179 2:98 3:140 4:85 5:120 6:92 7:43 8:83 9:137 10:65 11:82 12:108 13:65 14:83 15:128 16:138 
1.0908203125 1:91 2:80 3:72 4:65 5:77 6:47 7:49 8:56 9:76 10:58 11:72 12:56 13:64 14:44 15:69 16:44 
1.0908203125 1:43 2:63 3:40 4:44 5:61 6:42 7:48 8:45 9:52 10:60 11:43 12:44 13:34 14:31 15:68 16:42 
1.0908203125 1:30 2:17 3:15 4:22 5:21 6:26 7:11 8:27 9:19 10:11 11:9 12:17 13:13 14:31 15:22 16:32 
1.0908203125 1:99 2:64 3:52 4:72 5:72 6:31 7:25 8:57 9:58 10:35 11:34 12:39 13:57 14:55 15:56 16:75 
1.0908203125 1:297 2:134 3:209 4:204 5:180 6:101 7:98 8:140 9:212 10:115 11:124 12:129 13:155 14:169 15:149 16:171 
1.0908203125 1:43 2:29 3:28 4:34 5:28 6:19 7:22 8:22 9:33 10:23 11:32 12:23 13:29 14:20 15:30 16:35 
1.0908203125 1:173 2:86 3:97 4:155 5:99 6:50 7:46 8:86 9:132 10:63 11:68 12:57 13:106 14:82 15:110 16:150 
1.0908203125 1:130 2:71 3:96 4:134 5:95 6:68 7:61 8:92 9:101 10:91 11:83 12:81 13:105 14:86 15:116 16:191 
1.0908203125 1:35 2:28 3:26 4:33 5:23 6:23 7:19 8:33 9:34 10:18 11:13 12:22 13:30 14:29 15:29 16:37 
1.0908203125 1:92 2:93 3:71 4:79 5:102 6:64 7:55 8:69 9:83 10:66 11:60 12:54 13:58 14:67 15:77 16:74 
1.0908203125 1:81 2:70 3:66 4:41 5:80 6:63 7:41 8:48 9:59 10:56 11:30 12:37 13:38 14:43 15:45 16:56 
1.0908203125 1:82 2:57 3:60 4:94 5:83 6:59 7:39 8:64 9:63 10:51 11:52 12:73 13:65 14:78 15:88 16:106 
1.0908203125 1:96 2:53 3:94 4:43 5:59 6:24 7:47 8:47 9:90 10:62 11:67 12:43 13:41 14:38 15:54 16:38 
1.0908203125 1:33 2:21 3:30 4:34 5:39 6:31 7:22 8:29 9:25 10:34 11:23 12:28 13:20 14:35 15:36 16:22 
1.0908203125 1:111 2:45 3:55 4:57 5:46 6:22 7:28 8:23 9:77 10:24 11:28 12:22 13:34 14:28 15:40 16:20 
1.0908203125 1:102 2:87 3:122 4:56 5:93 6:74 7:62 8:62 9:138 10:63 11:90 12:46 13:34 14:67 15:63 16:73 
1.0908203125 1:66 2:31 3:46 4:77 5:43 6:18 7:24 8:30 9:60 10:25 11:32 12:37 13:51 14:41 15:52 16:62 
1.0908203125 1:64 2:29 3:51 4:39 5:38 6:25 7:16 8:35 9:53 10:32 11:39 12:29 13:27 14:28 15:48 16:48 
1.0908203125 1:67 2:39 3:60 4:37 5:58 6:36 7:34 8:39 9:46 10:49 11:42 12:42 13:32 14:43 15:43 16:37 
1.0908203125 1:252 2:93 3:106 4:130 5:100 6:39 7:39 8:58 9:136 10:34 11:64 12:69 13:93 14:70 15:94 16:136 
1.0908203125 1:69 2:27 3:49 4:40 5:45 6:30 7:24 8:32 9:48 10:39 11:42 12:27 13:22 14:35 15:42 16:36 
1.0908203125 1:58 2:65 3:63 4:51 5:72 6:50 7:55 8:52 9:69 10:74 11:100 12:72 13:38 14:40 15:97 16:28 
1.0908203125 1:90 2:72 3:82 4:84 5:103 6:58 7:46 8:55 9:85 10:60 11:42 12:48 13:50 14:72 15:65 16:82 
1.0908203125 1:40 2:33 3:43 4:22 5:34 6:35 7:32 8:27 9:44 10:30 11:28 12:31 13:20 14:30 15:30 16:21 
1.0908203125 1:192 2:211 3:193 4:135 5:209 6:108 7:72 8:175 9:173 10:145 11:102 12:109 13:156 14:100 15:163 16:96 
1.0908203125 1:398 2:188 3:186 4:260 5:248 6:138 7:90 8:165 9:196 10:117 11:119 12:130 13:189 14:198 15:168 16:240 
1.0908203125 1:450 2:255 3:200 4:265 5:274 6:203 7:146 8:190 9:275 10:149 11:169 12:138 13:171 14:206 15:216 16:201 
1.0908203125 1:163 2:111 3:86 4:133 5:148 6:84 7:54 8:83 9:94 10:52 11:60 12:81 13:87 14:122 15:88 16:111 
1.0908203125 1:74 2:48 3:52 4:56 5:47 6:25 7:28 8:30 9:59 10:32 11:41 12:42 13:50 14:25 15:53 16:63 
1.0908203125 1:69 2:31 3:43 4:51 5:41 6:13 7:26 8:21 9:40 10:25 11:48 12:39 13:44 14:32 15:35 16:31 
1.0908203125 1:40 2:32 3:24 4:20 5:29 6:17 7:19 8:30 9:23 10:25 11:17 12:20 13:24 14:21 15:25 16:31 
1.0908203125 1:211 2:97 3:110 4:155 5:113 6:61 7:37 8:102 9:130 10:64 11:82 12:92 13:119 14:91 15:139 16:226 
1.0908203125 1:134 2:74 3:81 4:163 5:98 6:57 7:54 8:69 9:108 10:66 11:63 12:86 13:112 14:81 15:125 16:174 
1.0908203125 1:157 2:127 3:170 4:134 5:143 6:74 7:78 8:128 9:167 10:132 11:130 12:107 13:120 14:90 15:159 16:143 
1.0908203125 1:124 2:59 3:81 4:110 5:92 6:42 7:38 8:61 9:81 10:60 11:51 12:68 13:77 14:72 15:90 16:94 
1.0908203125 1:127 2:51 3:62 4:89 5:72 6:28 7:18 8:33 9:71 10:29 11:34 12:33 13:59 14:43 15:53 16:76 
1.0908203125 1:134 2:73 3:81 4:128 5:95 6:59 7:38 8:94 9:85 10:64 11:120 12:108 13:102 14:90 15:138 16:204 
1.0908203125 1:33 2:8 3:19 4:19 5:9 6:11 7:15 8:28 9:26 10:23 11:22 12:22 13:11 14:21 15:37 16:22 
1.0908203125 1:36 2:14 3:35 4:20 5:25 6:14 7:9 8:10 9:32 10:16 11:23 12:13 13:11 14:14 15:18 16:18 
1.0908203125 1:28 2:22 3:14 4:20 5:22 6:21 7:35 8:28 9:16 10:36 11:30 12:30 13:18 14:27 15:33 16:29 
1.0908203125 1:91 2:76 3:55 4:63 5:69 6:59 7:34 8:54 9:69 10:33 11:46 12:63 13:56 14:48 15:76 16:78 
1.0908203125 1:46 2:41 3:32 4:26 5:38 6:41 7:39 8:38 9:37 10:46 11:34 12:31 13:23 14:28 15:44 16:42 
1.0908203125 1:115 2:62 3:79 4:80 5:83 6:68 7:47 8:70 9:96 10:63 11:53 12:42 13:42 14:75 15:75 16:76 
1.0908203125 1:76 2:57 3:89 4:74 5:71 6:35 7:59 8:65 9:91 10:70 11:66 12:50 13:57 14:68 15:64 16:54 
1.0908203125 1:111 2:80 3:78 4:83 5:98 6:69 7:49 8:62 9:75 10:68 11:55 12:63 13:68 14:61 15:79 16:65 
1.0908203125 1:93 2:52 3:45 4:77 5:62 6:50 7:39 8:54 9:56 10:51 11:26 12:36 13:56 14:52 15:59 16:76 
1.0908203125 1:194 2:148 3:99 4:117 5:178 6:125 7:78 8:145 9:89 10:106 11:80 12:74 13:97 14:147 15:92 16:142 
1.0908203125 1:124 2:74 3:88 4:134 5:106 6:80 7:45 8:103 9:83 10:68 11:106 12:125 13:107 14:112 15:143 16:198 
1.0908203125 1:129 2:91 3:66 4:79 5:80 6:63 7:57 8:69 9:99 10:42 11:46 12:49 13:56 14:73 15:68 16:103 
1.0908203125 1:61 2:28 3:37 4:20 5:41 6:21 7:12 8:31 9:26 10:30 11:21 12:27 13:18 14:26 15:34 16:32 
1.0908203125 1:69 2:36 3:49 4:39 5:41 6:32 7:30 8:24 9:58 10:29 11:23 12:18 13:25 14:30 15:26 16:19 
1.0908203125 1:211 2:116 3:126 4:181 5:135 6:91 7:59 8:99 9:152 10:81 11:87 12:94 13:136 14:96 15:142 16:197 
1.0908203125 1:118 2:84 3:69 4:91 5:91 6:68 7:60 8:80 9:97 10:77 11:92 12:62 13:56 14:70 15:107 16:84 
1.0908203125 1:129 2:100 3:108 4:99 5:109 6:66 7:76 8:84 9:137 10:92 11:115 12:96 13:61 14:77 15:141 16:123 
1.0908203125 1:76 2:32 3:52 4:62 5:44 6:17 7:28 8:30 9:59 10:33 11:58 12:47 13:43 14:37 15:59 16:48 
1.0908203125 1:27 2:44 3:40 4:32 5:46 6:37 7:45 8:54 9:41 10:42 11:35 12:45 13:29 14:59 15:43 16:44 
1.0908203125 1:124 2:41 3:68 4:31 5:61 6:51 7:30 8:41 9:50 10:46 11:40 12:34 13:29 14:45 15:32 16:40 
1.0908203125 1:104 2:103 3:81 4:110 5:116 6:71 7:72 8:97 9:98 10:77 11:78 12:90 13:80 14:105 15:112 16:133 
1.0908203125 1:91 2:33 3:44 4:35 5:28 6:21 7:21 8:30 9:55 10:23 11:26 12:17 13:29 14:23 15:30 16:24 
1.0908203125 1:83 2:49 3:53 4:50 5:73 6:40 7:25 8:41 9:37 10:42 11:23 12:27 13:41 14:48 15:29 16:34 
1.0908203125 1:63 2:36 3:49 4:45 5:37 6:21 7:35 8:21 9:62 10:35 11:33 12:28 13:30 14:22 15:42 16:36 
1.0908203125 1:107 2:60 3:76 4:83 5:68 6:32 7:33 8:46 9:89 10:36 11:51 12:55 13:62 14:51 15:71 16:91 
1.0908203125 1:127 2:83 3:116 4:61 5:111 6:35 7:60 8:58 9:106 10:83 11:66 12:58 13:43 14:63 15:71 16:53 
1.0908203125 1:56 2:24 3:45 4:59 5:38 6:24 7:16 8:25 9:47 10:23 11:33 12:34 13:42 14:32 15:44 16:41 
1.0908203125 1:86 2:58 3:57 4:45 5:71 6:49 7:35 8:56 9:58 10:34 11:26 12:27 13:31 14:70 15:27 16:48 
1.0908203125 1:139 2:78 3:100 4:156 5:123 6:64 7:60 8:97 9:103 10:74 11:109 12:115 13:108 14:128 15:132 16:198 
1.0908203125 1:9 2:35 3:4 4:36 5:39 6:27 7:10 8:24 9:6 10:13 11:6 12:9 13:30 14:25 15:14 16:21 
1.0908203125 1:110 2:59 3:82 4:54 5:75 6:55 7:30 8:58 9:85 10:51 11:41 12:41 13:35 14:53 15:65 16:70 
1.0908203125 1:108 2:58 3:71 4:140 5:87 6:49 7:40 8:77 9:76 10:63 11:68 12:73 13:106 14:83 15:101 16:153 
1.0908203125 1:68 2:75 3:95 4:38 5:79 6:71 7:76 8:56 9:104 10:68 11:63 12:57 13:24 14:68 15:59 16:22 
-0.9091796875 1:402 2:182 3:236 4:255 5:233 6:126 7:105 8:183 9:236 10:135 11:134 12:143 13:203 14:204 15:174 16:247 
-0.9091796875 1:85 2:33 3:55 4:39 5:44 6:15 7:18 8:14 9:52 10:27 11:29 12:17 13:31 14:16 15:23 16:20 
-0.9091796875 1:355 2:151 3:162 4:233 5:166 6:87 7:70 8:127 9:200 10:77 11:101 12:123 13:180 14:135 15:168 16:202 
-0.9091796875 1:235 2:90 3:104 4:197 5:122 6:56 7:40 8:95 9:138 10:56 11:62 12:82 13:131 14:111 15:132 16:180 
-0.9091796875 1:40 2:21 3:26 4:20 5:20 6:13 7:14 8:18 9:29 10:20 11:15 12:13 13:17 14:11 15:23 16:29 
-0.9091796875 1:295 2:137 3:169 4:236 5:196 6:93 7:64 8:147 9:161 10:102 11:86 12:101 13:185 14:168 15:131 16:201 
-0.9091796875 1:91 2:47 3:82 4:83 5:63 6:25 7:31 8:44 9:88 10:37 11:75 12:66 13:60 14:54 15:79 16:89 
-0.9091796875 1:236 2:103 3:132 4:171 5:115 6:68 7:60 8:84 9:154 10:57 11:89 12:98 13:136 14:99 15:117 16:171 
-0.9091796875 1:171 2:80 3:116 4:141 5:100 6:61 7:42 8:112 9:130 10:83 11:110 12:103 13:106 14:91 15:159 16:209 
-0.9091796875 1:418 2:190 3:230 4:265 5:217 6:111 7:85 8:156 9:243 10:111 11:131 12:146 13:224 14:157 15:186 16:278 
-0.9091796875 1:323 2:138 3:172 4:184 5:176 6:82 7:71 8:129 9:164 10:99 11:98 12:111 13:153 14:139 15:132 16:153 
-0.9091796875 1:55 2:26 3:29 4:37 5:36 6:20 7:14 8:25 9:32 10:26 11:31 12:31 13:23 14:23 15:47 16:45 
-0.9091796875 1:54 2:55 3:33 4:55 5:48 6:26 7:23 8:59 9:44 10:30 11:29 12:50 13:51 14:45 15:68 16:66 
-0.9091796875 1:217 2:93 3:148 4:188 5:127 6:53 7:71 8:97 9:163 10:94 11:90 12:98 13:139 14:108 15:136 16:210 
-0.9091796875 1:371 2:176 3:201 4:217 5:178 6:114 7:81 8:142 9:249 10:68 11:77 12:98 13:167 14:157 15:133 16:205 
-0.9091796875 1:343 2:153 3:164 4:228 5:159 6:82 7:56 8:118 9:220 10:86 11:104 12:64 13:165 14:94 15:151 16:185 
-0.9091796875 1:112 2:74 3:65 4:166 5:109 6:70 7:38 8:102 9:73 10:80 11:76 12:79 13:123 14:95 15:129 16:216 
-0.9091796875 1:80 2:26 3:39 4:47 5:35 6:28 7:17 8:30 9:37 10:24 11:21 12:29 13:40 14:32 15:34 16:34 
-0.9091796875 1:253 2:104 3:134 4:146 5:124 6:57 7:50 8:74 9:153 10:57 11:61 12:64 13:107 14:87 15:90 16:135 
-0.9091796875 1:309 2:92 3:139 4:177 5:121 6:71 7:46 8:95 9:154 10:60 11:87 12:107 13:133 14:110 15:136 16:160 
-0.9091796875 1:178 2:78 3:87 4:131 5:92 6:33 7:45 8:50 9:101 10:45 11:52 12:69 13:102 14:64 15:84 16:89 
-0.9091796875 1:336 2:142 3:207 4:269 5:161 6:92 7:80 8:124 9:225 10:93 11:133 12:134 13:232 14:130 15:165 16:271 
-0.9091796875 1:275 2:143 3:123 4:207 5:166 6:112 7:66 8:107 9:142 10:80 11:86 12:85 13:164 14:116 15:119 16:153 
-0.9091796875 1:214 2:114 3:82 4:102 5:117 6:46 7:40 8:59 9:104 10:43 11:46 12:33 13:77 14:59 15:58 16:80 
-0.9091796875 1:152 2:74 3:82 4:87 5:92 6:45 7:32 8:60 9:80 10:49 11:49 12:53 13:70 14:61 15:69 16:74 
-0.9091796875 1:45 2:24 3:34 4:39 5:33 6:9 7:10 8:31 9:35 10:17 11:41 12:32 13:29 14:33 15:40 16:48 
-0.9091796875 1:150 2:70 3:96 4:117 5:82 6:60 7:33 8:62 9:112 10:44 11:74 12:76 13:89 14:63 15:103 16:125 
-0.9091796875 1:263 2:132 3:141 4:184 5:154 6:99 7:64 8:122 9:161 10:83 11:114 12:130 13:142 14:125 15:169 16:218 
-0.9091796875 1:37 2:22 3:18 4:29 5:24 6:14 7:9 8:17 9:20 10:10 11:12 12:10 13:24 14:18 15:14 16:25 
-0.9091796875 1:272 2:122 3:140 4:217 5:181 6:102 7:75 8:132 9:142 10:84 11:75 12:122 13:156 14:182 15:133 16:198 
-0.9091796875 1:109 2:54 3:55 4:71 5:67 6:39 7:19 8:49 9:61 10:25 11:40 12:42 13:52 14:56 15:54 16:70 
-0.9091796875 1:222 2:78 3:125 4:124 5:87 6:36 7:38 8:45 9:155 10:45 11:78 12:57 13:85 14:47 15:94 16:114 
-0.9091796875 1:97 2:49 3:51 4:64 5:53 6:30 7:32 8:45 9:65 10:38 11:44 12:41 13:46 14:43 15:61 16:75 
-0.9091796875 1:135 2:80 3:103 4:141 5:101 6:59 7:53 8:89 9:85 10:69 11:110 12:128 13:138 14:94 15:126 16:199 
-0.9091796875 1:231 2:132 3:116 4:198 5:142 6:80 7:72 8:131 9:152 10:97 11:114 12:110 13:151 14:116 15:171 16:243 
-0.9091796875 1:170 2:109 3:77 4:146 5:118 6:63 7:46 8:68 9:92 10:47 11:44 12:56 13:121 14:76 15:73 16:151 
-0.9091796875 1:325 2:175 3:166 4:276 5:204 6:110 7:100 8:183 9:191 10:133 11:121 12:144 13:222 14:179 15:202 16:311 
-0.9091796875 1:64 2:95 3:38 4:78 5:95 6:52 7:17 8:106 9:35 10:22 11:25 12:36 13:81 14:101 15:38 16:87 
-0.9091796875 1:297 2:181 3:168 4:286 5:194 6:111 7:78 8:181 9:180 10:115 11:119 12:145 13:261 14:157 15:194 16:372 
-0.9091796875 1:440 2:224 3:252 4:316 5:297 6:168 7:100 8:202 9:260 10:159 11:144 12:153 13:235 14:216 15:220 16:305 
-0.9091796875 1:323 2:116 3:176 4:200 5:127 6:75 7:75 8:122 9:210 10:101 11:98 12:118 13:155 14:107 15:178 16:214 
-0.9091796875 1:47 2:18 3:16 4:26 5:22 6:13 7:7 8:17 9:15 10:11 11:9 12:11 13:23 14:17 15:14 16:31 
-0.9091796875 1:127 2:52 3:110 4:69 5:49 6:21 7:30 8:37 9:125 10:37 11:59 12:42 13:57 14:27 15:64 16:40 
-0.9091796875 1:204 2:106 3:118 4:180 5:138 6:60 7:56 8:122 9:115 10:94 11:105 12:132 13:150 14:116 15:168 16:236 
-0.9091796875 1:61 2:40 3:53 4:64 5:52 6:32 7:19 8:39 9:63 10:32 11:45 12:37 13:42 14:38 15:60 16:62 
-0.9091796875 1:128 2:72 3:81 4:123 5:79 6:45 7:33 8:67 9:104 10:35 11:55 12:58 13:93 14:72 15:83 16:101 
-0.9091796875 1:77 2:58 3:60 4:70 5:65 6:38 7:22 8:39 9:62 10:33 11:35 12:31 13:61 14:35 15:44 16:65 
-0.9091796875 1:117 2:76 3:85 4:130 5:80 6:52 7:56 8:107 9:105 10:66 11:99 12:122 13:106 14:101 15:152 16:227 
-0.9091796875 1:42 2:17 3:22 4:26 5:18 6:7 7:5 8:18 9:27 10:12 11:7 12:13 13:19 14:12 15:26 16:23 
-0.9091796875 1:182 2:79 3:87 4:154 5:105 6:54 7:41 8:75 9:115 10:52 11:62 12:74 13:100 14:90 15:113 16:168 
-0.9091796875 1:262 2:149 3:131 4:185 5:171 6:64 7:58 8:100 9:141 10:72 11:71 12:79 13:153 14:108 15:103 16:156 
-0.9091796875 1:177 2:106 3:97 4:149 5:128 6:80 7:57 8:80 9:110 10:69 11:95 12:105 13:114 14:90 15:130 16:153 
-0.9091796875 1:117 2:78 3:83 4:133 5:95 6:66 7:50 8:101 9:101 10:60 11:108 12:126 13:97 14:108 15:155 16:188 
-0.9091796875 1:97 2:23 3:42 4:56 5:28 6:18 7:15 8:28 9:56 10:17 11:25 12:30 13:36 14:31 15:46 16:61 
-0.9091796875 1:189 2:86 3:111 4:166 5:106 6:51 7:58 8:88 9:136 10:64 11:96 12:83 13:121 14:102 15:114 16:142 
-0.9091796875 1:171 2:63 3:87 4:118 5:83 6:25 7:26 8:44 9:93 10:38 11:45 12:59 13:92 14:52 15:77 16:106 
-0.9091796875 1:90 2:65 3:72 4:64 5:72 6:50 7:28 8:67 9:79 10:42 11:49 12:58 13:50 14:60 15:79 16:80 
-0.9091796875 1:349 2:155 3:180 4:226 5:176 6:95 7:69 8:114 9:197 10:94 11:122 12:125 13:187 14:110 15:168 16:220 
-0.9091796875 1:390 2:177 3:191 4:277 5:198 6:103 7:83 8:155 9:224 10:102 11:102 12:139 13:223 14:157 15:191 16:291 
-0.9091796875 1:75 2:41 3:41 4:46 5:46 6:30 7:19 8:29 9:47 10:18 11:25 12:40 13:35 14:35 15:45 16:58 
-0.9091796875 1:74 2:37 3:42 4:59 5:41 6:28 7:33 8:43 9:55 10:40 11:34 12:28 13:41 14:40 15:49 16:57 
-0.9091796875 1:104 2:67 3:69 4:107 5:79 6:44 7:35 8:54 9:80 10:47 11:49 12:49 13:83 14:54 15:73 16:97 
-0.9091796875 1:74 2:29 3:44 4:44 5:30 6:18 7:11 8:32 9:48 10:18 11:26 12:22 13:38 14:26 15:34 16:45 
-0.9091796875 1:373 2:144 3:181 4:254 5:149 6:92 7:80 8:150 9:221 10:89 11:133 12:134 13:208 14:146 15:184 16:250 
-0.9091796875 1:549 2:207 3:280 4:324 5:238 6:125 7:120 8:162 9:329 10:125 11:145 12:168 13:244 14:188 15:222 16:306 
-0.9091796875 1:295 2:110 3:202 4:172 5:112 6:68 7:63 8:87 9:230 10:84 11:120 12:121 13:141 14:68 15:171 16:183 
-0.9091796875 1:196 2:80 3:92 4:147 5:108 6:50 7:44 8:76 9:103 10:56 11:61 12:70 13:107 14:92 15:93 16:149 
-0.9091796875 1:246 2:112 3:125 4:173 5:160 6:67 7:46 8:130 9:131 10:74 11:71 12:83 13:119 14:150 15:117 16:193 
-0.9091796875 1:283 2:80 3:136 4:130 5:110 6:40 7:48 8:52 9:144 10:64 11:62 12:67 13:91 14:66 15:92 16:101 
-0.9091796875 1:107 2:40 3:79 4:102 5:60 6:29 7:22 8:47 9:88 10:36 11:52 12:58 13:73 14:53 15:81 16:99 
-0.9091796875 1:414 2:185 3:201 4:292 5:220 6:113 7:103 8:134 9:242 10:110 11:121 12:143 13:215 14:162 15:192 16:254 
-0.9091796875 1:320 2:166 3:174 4:268 5:197 6:142 7:85 8:197 9:199 10:130 11:128 12:149 13:211 14:183 15:220 16:284 
-0.9091796875 1:44 2:36 3:38 4:47 5:36 6:33 7:17 8:29 9:49 10:16 11:25 12:31 13:35 14:30 15:42 16:34 
-0.9091796875 1:116 2:71 3:91 4:131 5:89 6:62 7:55 8:116 9:103 10:94 11:98 12:89 13:100 14:95 15:141 16:197 
-0.9091796875 1:293 2:139 3:157 4:237 5:198 6:81 7:63 8:108 9:163 10:93 11:81 12:110 13:172 14:137 15:146 16:158 
-0.9091796875 1:259 2:111 3:135 4:163 5:124 6:79 7:73 8:109 9:156 10:95 11:91 12:106 13:129 14:100 15:149 16:168 
-0.9091796875 1:318 2:140 3:179 4:237 5:164 6:96 7:85 8:155 9:190 10:127 11:136 12:149 13:202 14:137 15:202 16:274 
-0.9091796875 1:331 2:162 3:165 4:195 5:205 6:116 7:71 8:118 9:196 10:94 11:93 12:83 13:121 14:138 15:137 16:144 
-0.9091796875 1:321 2:121 3:143 4:224 5:155 6:78 7:53 8:151 9:193 10:58 11:65 12:103 13:139 14:180 15:159 16:255 
-0.9091796875 1:150 2:74 3:57 4:125 5:75 6:40 7:28 8:84 9:69 10:46 11:56 12:61 13:112 14:67 15:91 16:139 
-0.9091796875 1:52 2:15 3:41 4:33 5:21 6:11 7:7 8:21 9:48 10:16 11:25 12:15 13:19 14:18 15:32 16:29 
-0.9091796875 1:134 2:70 3:93 4:120 5:74 6:46 7:34 8:82 9:104 10:58 11:73 12:68 13:105 14:62 15:103 16:139 
-0.9091796875 1:413 2:199 3:206 4:287 5:245 6:107 7:82 8:148 9:253 10:106 11:114 12:116 13:194 14:170 15:187 16:167 
-0.9091796875 1:140 2:86 3:81 4:112 5:84 6:63 7:41 8:91 9:104 10:49 11:56 12:58 13:90 14:81 15:90 16:180 
-0.9091796875 1:22 2:14 3:17 4:29 5:25 6:17 7:5 8:24 9:12 10:19 11:9 12:17 13:23 14:21 15:26 16:40 
-0.9091796875 1:121 2:64 3:82 4:131 5:84 6:43 7:32 8:91 9:71 10:56 11:77 12:104 13:122 14:87 15:117 16:186 
-0.9091796875 1:431 2:188 3:266 4:271 5:213 6:140 7:110 8:157 9:304 10:136 11:151 12:151 13:208 14:156 15:215 16:249 
-0.9091796875 1:137 2:80 3:99 4:111 5:94 6:39 7:44 8:66 9:110 10:57 11:81 12:68 13:86 14:67 15:92 16:102 
-0.9091796875 1:110 2:61 3:86 4:81 5:75 6:41 7:36 8:51 9:88 10:50 11:78 12:71 13:65 14:51 15:87 16:80 
-0.9091796875 1:188 2:73 3:137 4:156 5:95 6:52 7:53 8:85 9:130 10:70 11:88 12:111 13:141 14:90 15:121 16:147 
-0.9091796875 1:103 2:47 3:64 4:70 5:66 6:36 7:23 8:53 9:65 10:40 11:40 12:49 13:49 14:55 15:68 16:88 
-0.9091796875 1:123 2:49 3:75 4:101 5:71 6:42 7:34 8:46 9:76 10:42 11:59 12:62 13:78 14:60 15:71 16:96 
-0.9091796875 1:125 2:17 3:81 4:47 5:30 6:7 7:9 8:20 9:73 10:25 11:39 12:31 13:41 14:17 15:40 16:22 
-0.9091796875 1:251 2:89 3:117 4:93 5:117 6:48 7:27 8:64 9:135 10:46 11:31 12:54 13:47 14:73 15:91 16:106 
-0.9091796875 1:20 2:23 3:14 4:29 5:26 6:26 7:9 8:30 9:12 10:16 11:18 12:22 13:28 14:26 15:27 16:50 
-0.9091796875 1:153 2:51 3:51 4:119 5:62 6:24 7:24 8:51 9:74 10:26 11:23 12:36 13:85 14:60 15:61 16:146 
-0.9091796875 1:113 2:56 3:73 4:84 5:67 6:41 7:26 8:73 9:77 10:52 11:53 12:53 13:69 14:58 15:83 16:127 
-0.9091796875 1:115 2:57 3:72 4:101 5:62 6:32 7:44 8:50 9:92 10:44 11:58 12:51 13:75 14:55 15:72 16:93 
-0.9091796875 1:117 2:70 3:71 4:91 5:81 6:23 7:27 8:35 9:81 10:32 11:52 12:36 13:70 14:41 15:51 16:71 
-0.9091796875 1:115 2:47 3:70 4:62 5:49 6:29 7:22 8:42 9:73 10:33 11:35 12:38 13:56 14:33 15:53 16:74 
-0.9091796875 1:63 2:33 3:54 4:48 5:55 6:24 7:22 8:48 9:41 10:40 11:30 12:43 13:39 14:52 15:48 16:58 
-0.9091796875 1:264 2:113 3:179 4:148 5:119 6:72 7:48 8:125 9:222 10:56 11:73 12:92 13:99 14:123 15:143 16:206 
-0.9091796875 1:292 2:115 3:152 4:160 5:128 6:61 7:54 8:102 9:152 10:61 11:71 12:89 13:146 14:108 15:97 16:150 
-0.9091796875 1:101 2:71 3:68 4:117 5:81 6:40 7:48 8:74 9:87 10:59 11:98 12:81 13:87 14:73 15:112 16:159 
-0.9091796875 1:134 2:37 3:72 4:79 5:51 6:22 7:20 8:32 9:89 10:31 11:47 12:30 13:48 14:35 15:58 16:58 
-0.9091796875 1:66 2:29 3:27 4:38 5:26 6:17 7:11 8:31 9:34 10:16 11:35 12:22 13:34 14:23 15:34 16:54 
-0.9091796875 1:67 2:14 3:32 4:30 5:28 6:22 7:7 8:14 9:24 10:11 11:20 12:22 13:23 14:24 15:19 16:31 
-0.9091796875 1:597 2:239 3:295 4:424 5:278 6:155 7:112 8:216 9:341 10:141 11:159 12:214 13:339 14:226 15:289 16:416 
-0.9091796875 1:403 2:170 3:236 4:306 5:193 6:100 7:90 8:164 9:294 10:113 11:141 12:142 13:225 14:164 15:223 16:284 
-0.9091796875 1:374 2:210 3:157 4:245 5:255 6:146 7:72 8:160 9:174 10:127 11:108 12:102 13:183 14:150 15:174 16:228 
-0.9091796875 1:142 2:87 3:90 4:127 5:97 6:53 7:31 8:79 9:94 10:46 11:73 12:74 13:113 14:74 15:93 16:157 
-0.9091796875 1:288 2:112 3:131 4:221 5:154 6:79 7:53 8:107 9:161 10:70 11:84 12:102 13:149 14:132 15:149 16:262 
-0.9091796875 1:91 2:42 3:51 4:71 5:55 6:21 7:22 8:26 9:51 10:29 11:24 12:38 13:58 14:32 15:45 16:63 
-0.9091796875 1:30 2:13 3:25 4:19 5:12 6:8 7:3 8:16 9:21 10:7 11:12 12:11 13:24 14:11 15:11 16:32 
-0.9091796875 1:252 2:124 3:121 4:173 5:135 6:105 7:73 8:101 9:138 10:68 11:77 12:81 13:144 14:117 15:94 16:129 
-0.9091796875 1:102 2:68 3:106 4:143 5:104 6:63 7:55 8:114 9:101 10:88 11:108 12:103 13:112 14:117 15:131 16:207 
-0.9091796875 1:151 2:59 3:96 4:54 5:63 6:33 7:28 8:42 9:99 10:29 11:48 12:43 13:47 14:45 15:47 16:50 
-0.9091796875 1:81 2:47 3:41 4:64 5:40 6:25 7:30 8:31 9:67 10:23 11:38 12:35 13:45 14:31 15:54 16:61 
-0.9091796875 1:194 2:68 3:97 4:134 5:94 6:53 7:38 8:67 9:108 10:50 11:66 12:72 13:97 14:81 15:95 16:134 
-0.9091796875 1:195 2:66 3:120 4:97 5:78 6:27 7:33 8:63 9:125 10:65 11:59 12:51 13:79 14:43 15:89 16:87 
-0.9091796875 1:117 2:62 3:51 4:99 5:67 6:38 7:36 8:52 9:76 10:43 11:38 12:43 13:68 14:50 15:76 16:92 
-0.9091796875 1:132 2:83 3:69 4:109 5:90 6:57 7:42 8:75 9:90 10:50 11:66 12:51 13:80 14:74 15:81 16:98 
-0.9091796875 1:149 2:74 3:88 4:124 5:102 6:59 7:37 8:68 9:103 10:63 11:89 12:70 13:81 14:70 15:111 16:148 
-0.9091796875 1:382 2:202 3:169 4:229 5:256 6:122 7:69 8:132 9:170 10:109 11:105 12:100 13:174 14:146 15:141 16:193 
-0.9091796875 1:21 2:11 3:10 4:8 5:14 6:7 7:9 8:9 9:9 10:4 11:7 12:13 13:6 14:17 15:7 16:15 
-0.9091796875 1:238 2:116 3:152 4:190 5:145 6:66 7:61 8:98 9:175 10:78 11:92 12:99 13:138 14:110 15:139 16:212 
-0.9091796875 1:301 2:153 3:141 4:203 5:178 6:130 7:76 8:117 9:164 10:88 11:83 12:94 13:154 14:130 15:130 16:132 
-0.9091796875 1:384 2:176 3:233 4:256 5:233 6:129 7:83 8:131 9:238 10:130 11:111 12:104 13:193 14:141 15:157 16:201 
-0.9091796875 1:38 2:35 3:35 4:40 5:43 6:28 7:24 8:47 9:37 10:33 11:37 12:37 13:29 14:46 15:49 16:78 
-0.9091796875 1:174 2:35 3:78 4:67 5:45 6:25 7:23 8:33 9:90 10:27 11:34 12:32 13:45 14:39 15:48 16:62 
-0.9091796875 1:667 2:236 3:350 4:322 5:248 6:118 7:114 8:210 9:405 10:141 11:173 12:176 13:255 14:195 15:258 16:319 
-0.9091796875 1:169 2:85 3:116 4:142 5:96 6:53 7:45 8:121 9:121 10:89 11:107 12:106 13:126 14:88 15:155 16:201 
-0.9091796875 1:39 2:18 3:15 4:32 5:22 6:10 7:12 8:20 9:17 10:15 11:16 12:16 13:26 14:21 15:21 16:29 
-0.9091796875 1:32 2:15 3:21 4:18 5:17 6:19 7:9 8:17 9:20 10:11 11:18 12:25 13:17 14:17 15:26 16:32 
-0.9091796875 1:288 2:104 3:180 4:189 5:131 6:81 7:71 8:98 9:200 10:93 11:132 12:153 13:142 14:103 15:195 16:232 
-0.9091796875 1:297 2:268 3:257 4:243 5:386 6:198 7:130 8:294 9:156 10:188 11:111 12:225 13:225 14:354 15:183 16:341 
-0.9091796875 1:170 2:94 3:99 4:138 5:120 6:63 7:37 8:70 9:113 10:53 11:63 12:48 13:98 14:80 15:78 16:112 
-0.9091796875 1:115 2:33 3:58 4:76 5:49 6:35 7:17 8:44 9:55 10:37 11:33 12:30 13:63 14:40 15:47 16:87 
-0.9091796875 1:84 2:61 3:60 4:120 5:76 6:49 7:32 8:74 9:71 10:42 11:51 12:70 13:94 14:79 15:91 16:152 
-0.9091796875 1:217 2:92 3:103 4:184 5:105 6:50 7:54 8:82 9:135 10:58 11:67 12:76 13:139 14:91 15:112 16:172 
-0.9091796875 1:130 2:60 3:82 4:89 5:63 6:33 7:34 8:47 9:101 10:36 11:49 12:50 13:67 14:48 15:71 16:77 
-0.9091796875 1:160 2:99 3:117 4:140 5:114 6:65 7:66 8:93 9:123 10:72 11:82 12:88 13:119 14:102 15:100 16:132 
-0.9091796875 1:110 2:73 3:84 4:142 5:111 6:63 7:49 8:99 9:71 10:63 11:79 12:133 13:117 14:123 15:134 16:206 
-0.9091796875 1:59 2:27 3:27 4:46 5:32 6:10 7:18 8:30 9:30 10:20 11:16 12:22 13:38 14:33 15:27 16:65 
-0.9091796875 1:93 2:63 3:65 4:83 5:73 6:54 7:38 8:49 9:67 10:44 11:41 12:54 13:71 14:53 15:62 16:86 
-0.9091796875 1:237 2:125 3:107 4:143 5:124 6:75 7:69 8:88 9:161 10:69 11:73 12:52 13:89 14:87 15:107 16:96 
-0.9091796875 1:319 2:121 3:184 4:193 5:161 6:73 7:56 8:98 9:195 10:80 11:102 12:100 13:142 14:114 15:135 16:201 
-0.9091796875 1:226 2:113 3:141 4:160 5:144 6:82 7:68 8:102 9:158 10:83 11:89 12:113 13:111 14:118 15:146 16:137 
-0.9091796875 1:36 2:18 3:32 4:25 5:26 6:17 7:10 8:12 9:29 10:15 11:14 12:13 13:20 14:15 15:15 16:23 
-0.9091796875 1:57 2:26 3:28 4:39 5:35 6:21 7:17 8:23 9:28 10:21 11:25 12:30 13:29 14:28 15:35 16:61 
-0.9091796875 1:49 2:15 3:28 4:35 5:19 6:15 7:17 8:23 9:35 10:18 11:29 12:23 13:24 14:26 15:31 16:37 
-0.9091796875 1:275 2:117 3:152 4:190 5:161 6:70 7:44 8:96 9:163 10:88 11:100 12:90 13:134 14:96 15:146 16:196 
-0.9091796875 1:53 2:17 3:43 4:54 5:16 6:11 7:15 8:14 9:61 10:18 11:27 12:20 13:37 14:10 15:41 16:40 
-0.9091796875 1:97 2:26 3:53 4:47 5:26 6:14 7:12 8:22 9:61 10:13 11:31 12:27 13:39 14:21 15:36 16:25 
-0.9091796875 1:79 2:41 3:58 4:61 5:53 6:32 7:27 8:53 9:50 10:46 11:51 12:44 13:57 14:46 15:55 16:87 
-0.9091796875 1:110 2:37 3:68 4:50 5:52 6:24 7:25 8:30 9:59 10:30 11:36 12:48 13:44 14:40 15:44 16:54 
-0.9091796875 1:174 2:77 3:93 4:104 5:88 6:50 7:41 8:62 9:94 10:56 11:52 12:62 13:92 14:58 15:78 16:125 
-0.9091796875 1:86 2:22 3:49 4:46 5:25 6:16 7:9 8:34 9:55 10:16 11:17 12:18 13:37 14:30 15:31 16:59 
-0.9091796875 1:71 2:33 3:35 4:50 5:30 6:24 7:16 8:35 9:45 10:22 11:25 12:29 13:43 14:26 15:45 16:45 
-0.9091796875 1:297 2:135 3:159 4:202 5:142 6:56 7:56 8:127 9:182 10:65 11:99 12:115 13:171 14:125 15:148 16:213 
-0.9091796875 1:179 2:65 3:96 4:132 5:76 6:48 7:36 8:58 9:112 10:44 11:56 12:66 13:105 14:61 15:90 16:112 
-0.9091796875 1:126 2:76 3:70 4:130 5:108 6:78 7:57 8:83 9:87 10:62 11:65 12:86 13:80 14:110 15:109 16:159 
-0.9091796875 1:255 2:78 3:136 4:155 5:119 6:48 7:46 8:69 9:145 10:65 11:85 12:82 13:104 14:91 15:111 16:139 
-0.9091796875 1:30 2:19 3:19 4:25 5:25 6:19 7:10 8:20 9:16 10:16 11:28 12:23 13:21 14:20 15:27 16:17 
-0.9091796875 1:351 2:177 3:198 4:268 5:178 6:103 7:83 8:142 9:235 10:89 11:150 12:152 13:229 14:137 15:196 16:289 
-0.9091796875 1:358 2:182 3:187 4:354 5:239 6:104 7:83 8:156 9:234 10:103 11:144 12:162 13:250 14:193 15:229 16:362 
-0.9091796875 1:187 2:88 3:119 4:154 5:116 6:69 7:59 8:85 9:144 10:63 11:84 12:86 13:101 14:109 15:115 16:140 
-0.9091796875 1:167 2:100 3:102 4:125 5:122 6:73 7:52 8:71 9:127 10:62 11:71 12:51 13:78 14:83 15:86 16:107 
-0.9091796875 1:256 2:103 3:155 4:188 5:145 6:92 7:68 8:105 9:159 10:88 11:94 12:109 13:142 14:127 15:133 16:174 
-0.9091796875 1:131 2:94 3:77 4:124 5:98 6:60 7:44 8:110 9:76 10:61 11:68 12:99 13:121 14:97 15:115 16:170 
-0.9091796875 1:308 2:139 3:181 4:208 5:186 6:98 7:73 8:144 9:170 10:128 11:146 12:142 13:172 14:136 15:186 16:241 
-0.9091796875 1:200 2:66 3:131 4:125 5:92 6:49 7:31 8:100 9:130 10:71 11:69 12:69 13:100 14:86 15:108 16:109 
-0.9091796875 1:272 2:127 3:198 4:116 5:144 6:107 7:55 8:117 9:188 10:87 11:92 12:77 13:109 14:102 15:99 16:116 
-0.9091796875 1:344 2:148 3:204 4:326 5:202 6:88 7:78 8:130 9:244 10:94 11:110 12:156 13:232 14:168 15:212 16:329 
-0.9091796875 1:280 2:110 3:162 4:216 5:151 6:66 7:57 8:110 9:174 10:85 11:95 12:109 13:163 14:123 15:149 16:224 
-0.9091796875 1:26 2:14 3:14 4:27 5:20 6:12 7:8 8:27 9:14 10:13 11:17 12:18 13:21 14:28 15:23 16:47 
-0.9091796875 1:673 2:274 3:347 4:432 5:338 6:198 7:131 8:245 9:401 10:162 11:172 12:191 13:313 14:278 15:277 16:398 
-0.9091796875 1:109 2:52 3:84 4:92 5:85 6:50 7:32 8:50 9:84 10:45 11:51 12:58 13:59 14:70 15:71 16:84 
-0.9091796875 1:36 2:20 3:19 4:37 5:23 6:19 7:17 8:30 9:25 10:14 11:21 12:36 13:28 14:36 15:39 16:44 
-0.9091796875 1:171 2:99 3:104 4:154 5:104 6:63 7:48 8:89 9:126 10:54 11:96 12:94 13:126 14:88 15:122 16:169 
-0.9091796875 1:68 2:34 3:40 4:39 5:40 6:19 7:14 8:27 9:45 10:18 11:18 12:24 13:28 14:29 15:33 16:39 
-0.9091796875 1:373 2:135 3:243 4:200 5:179 6:86 7:82 8:125 9:249 10:124 11:143 12:132 13:150 14:127 15:180 16:195 
-0.9091796875 1:29 2:13 3:22 4:31 5:19 6:6 7:8 8:13 9:31 10:9 11:12 12:12 13:16 14:18 15:22 16:18 
-0.9091796875 1:176 2:117 3:80 4:145 5:119 6:58 7:66 8:99 9:109 10:68 11:73 12:73 13:114 14:99 15:104 16:160 
-0.9091796875 1:96 2:33 3:47 4:53 5:51 6:15 7:12 8:14 9:39 10:22 11:31 12:28 13:42 14:22 15:31 16:29 
-0.9091796875 1:67 2:40 3:48 4:58 5:44 6:28 7:24 8:34 9:46 10:26 11:36 12:49 13:56 14:36 15:49 16:69 
-0.9091796875 1:35 2:12 3:17 4:32 5:15 6:14 7:6 8:18 9:14 10:7 11:14 12:16 13:31 14:20 15:15 16:39 
-0.9091796875 1:148 2:59 3:82 4:107 5:77 6:50 7:41 8:57 9:93 10:54 11:64 12:66 13:78 14:62 15:90 16:122 
-0.9091796875 1:147 2:40 3:95 4:116 5:61 6:36 7:25 8:44 9:108 10:44 11:51 12:57 13:82 14:46 15:89 16:123 
-0.9091796875 1:359 2:142 3:144 4:260 5:173 6:96 7:71 8:134 9:181 10:78 11:71 12:107 13:192 14:158 15:151 16:291 
-0.9091796875 1:30 2:17 3:17 4:43 5:31 6:22 7:11 8:21 9:13 10:14 11:8 12:23 13:32 14:32 15:23 16:54 
-0.9091796875 1:43 2:8 3:34 4:28 5:17 6:4 7:13 8:13 9:28 10:17 11:21 12:22 13:25 14:18 15:20 16:39 
-0.9091796875 1:71 2:38 3:43 4:39 5:34 6:23 7:12 8:39 9:53 10:22 11:35 12:23 13:33 14:25 15:43 16:26 
-0.9091796875 1:94 2:52 3:78 4:86 5:51 6:31 7:24 8:38 9:86 10:28 11:47 12:52 13:79 14:33 15:64 16:73 
-0.9091796875 1:115 2:67 3:83 4:142 5:86 6:51 7:53 8:75 9:100 10:64 11:88 12:92 13:106 14:83 15:120 16:188 
-0.9091796875 1:325 2:167 3:168 4:309 5:179 6:85 7:75 8:175 9:210 10:77 11:92 12:155 13:255 14:185 15:199 16:406 
-0.9091796875 1:247 2:148 3:150 4:234 5:178 6:90 7:80 8:149 9:161 10:106 11:144 12:143 13:193 14:153 15:180 16:255 
-0.9091796875 1:128 2:61 3:66 4:106 5:84 6:36 7:31 8:38 9:71 10:39 11:53 12:54 13:77 14:53 15:68 16:81 
-0.9091796875 1:120 2:94 3:91 4:113 5:115 6:85 7:45 8:77 9:101 10:66 11:70 12:99 13:81 14:77 15:131 16:118 
-0.9091796875 1:15 2:10 3:14 4:8 5:10 6:12 7:11 8:8 9:13 10:4 11:10 12:23 13:9 14:15 15:15 16:22 
-0.9091796875 1:94 2:48 3:56 4:61 5:51 6:34 7:23 8:47 9:57 10:34 11:25 12:26 13:57 14:39 15:38 16:52 
-0.9091796875 1:30 2:19 3:17 4:29 5:20 6:11 7:4 8:19 9:19 10:8 11:15 12:12 13:26 14:16 15:18 16:37 
-0.9091796875 1:96 2:42 3:48 4:60 5:47 6:7 7:17 8:21 9:60 10:17 11:43 12:36 13:42 14:26 15:49 16:52 
-0.9091796875 1:213 2:130 3:95 4:126 5:143 6:108 7:63 8:111 9:106 10:70 11:55 12:55 13:102 14:117 15:73 16:105 
-0.9091796875 1:66 2:50 3:40 4:46 5:52 6:32 7:22 8:32 9:50 10:20 11:36 12:37 13:34 14:36 15:45 16:68 
-0.9091796875 1:138 2:74 3:88 4:115 5:108 6:56 7:33 8:80 9:85 10:66 11:62 12:59 13:84 14:81 15:89 16:88 
-0.9091796875 1:150 2:96 3:108 4:167 5:117 6:65 7:50 8:112 9:117 10:66 11:80 12:76 13:137 14:117 15:101 16:261 
-0.9091796875 1:389 2:201 3:208 4:340 5:253 6:137 7:118 8:228 9:230 10:177 11:181 12:229 13:266 14:221 15:310 16:448 
-0.9091796875 1:172 2:87 3:102 4:108 5:98 6:53 7:40 8:86 9:112 10:63 11:101 12:75 13:87 14:74 15:108 16:108 
-0.9091796875 1:483 2:219 3:243 4:354 5:232 6:129 7:102 8:192 9:309 10:120 11:145 12:153 13:275 14:187 15:237 16:376 
-0.9091796875 1:279 2:108 3:142 4:152 5:115 6:74 7:51 8:116 9:178 10:71 11:71 12:108 13:108 14:103 15:165 16:179 
-0.9091796875 1:97 2:49 3:40 4:69 5:50 6:27 7:22 8:26 9:57 10:19 11:19 12:27 13:50 14:30 15:42 16:77 
-0.9091796875 1:145 2:70 3:62 4:133 5:86 6:46 7:24 8:101 9:64 10:57 11:73 12:71 13:115 14:84 15:106 16:211 
-0.9091796875 1:167 2:80 3:93 4:180 5:106 6:62 7:55 8:96 9:101 10:80 11:92 12:90 13:145 14:97 15:124 16:231 
-0.9091796875 1:37 2:39 3:23 4:40 5:25 6:25 7:14 8:38 9:32 10:19 11:23 12:23 13:44 14:19 15:38 16:35 
-0.9091796875 1:208 2:67 3:94 4:120 5:68 6:34 7:42 8:64 9:127 10:52 11:59 12:53 13:86 14:55 15:96 16:105 
-0.9091796875 1:311 2:128 3:174 4:219 5:183 6:83 7:63 8:99 9:181 10:89 11:135 12:119 13:157 14:128 15:152 16:204 
-0.9091796875 1:120 2:63 3:62 4:120 5:89 6:52 7:36 8:58 9:87 10:41 11:55 12:56 13:68 14:79 15:87 16:94 
-0.9091796875 1:155 2:72 3:86 4:102 5:77 6:50 7:44 8:67 9:101 10:58 11:73 12:84 13:82 14:58 15:113 16:125 
-0.9091796875 1:55 2:11 3:29 4:21 5:16 6:10 7:14 8:16 9:27 10:15 11:15 12:15 13:18 14:20 15:14 16:33 
-0.9091796875 1:18 2:12 3:10 4:28 5:14 6:12 7:6 8:21 9:13 10:9 11:16 12:22 13:23 14:20 15:28 16:36 
-0.9091796875 1:88 2:44 3:65 4:68 5:50 6:21 7:34 8:33 9:75 10:37 11:63 12:44 13:52 14:36 15:57 16:79 
-0.9091796875 1:162 2:93 3:95 4:140 5:124 6:56 7:52 8:92 9:93 10:74 11:86 12:96 13:110 14:101 15:117 16:190 
-0.9091796875 1:116 2:64 3:74 4:74 5:73 6:38 7:30 8:65 9:84 10:46 11:51 12:47 13:55 14:58 15:73 16:92 
-0.9091796875 1:144 2:75 3:78 4:96 5:84 6:40 7:38 8:73 9:82 10:45 11:60 12:73 13:83 14:75 15:84 16:135 
-0.9091796875 1:115 2:56 3:80 4:74 5:69 6:45 7:30 8:43 9:79 10:42 11:50 12:60 13:62 14:44 15:71 16:94 
-0.9091796875 1:20 2:17 3:6 4:36 5:21 6:17 7:9 8:36 9:7 10:11 11:8 12:15 13:31 14:38 15:18 16:63 
-0.9091796875 1:222 2:84 3:98 4:126 5:86 6:38 7:40 8:49 9:117 10:36 11:35 12:45 13:105 14:55 15:60 16:84 
-0.9091796875 1:83 2:35 3:58 4:81 5:40 6:30 7:22 8:60 9:52 10:39 11:49 12:57 13:82 14:48 15:68 16:133 
-0.9091796875 1:123 2:98 3:91 4:108 5:115 6:86 7:47 8:77 9:101 10:67 11:69 12:99 13:80 14:74 15:130 16:118 
-0.9091796875 1:349 2:145 3:158 4:231 5:170 6:112 7:71 8:136 9:207 10:101 11:130 12:124 13:157 14:131 15:203 16:215 
-0.9091796875 1:98 2:76 3:75 4:127 5:79 6:52 7:42 8:78 9:84 10:53 11:82 12:94 13:115 14:70 15:114 16:159 
-0.9091796875 1:161 2:79 3:107 4:170 5:115 6:67 7:52 8:85 9:102 10:71 11:81 12:118 13:138 14:102 15:133 16:224 
-0.9091796875 1:451 2:202 3:212 4:313 5:253 6:121 7:83 8:155 9:248 10:109 11:110 12:141 13:226 14:180 15:203 16:280 
-0.9091796875 1:137 2:92 3:85 4:122 5:93 6:55 7:49 8:88 9:106 10:69 11:62 12:53 13:99 14:69 15:95 16:124 
-0.9091796875 1:63 2:25 3:37 4:60 5:33 6:16 7:18 8:25 9:39 10:27 11:36 12:27 13:50 14:24 15:38 16:65 
-0.9091796875 1:61 2:28 3:37 4:47 5:42 6:26 7:16 8:36 9:36 10:26 11:27 12:36 13:33 14:40 15:46 16:58 
-0.9091796875 1:84 2:29 3:49 4:43 5:48 6:13 7:11 8:23 9:43 10:16 11:29 12:32 13:30 14:37 15:31 16:35 
-0.9091796875 1:301 2:207 3:167 4:315 5:277 6:119 7:102 8:204 9:187 10:112 11:125 12:161 13:225 14:264 15:191 16:341 
-0.9091796875 1:212 2:101 3:111 4:173 5:123 6:77 7:56 8:90 9:120 10:52 11:50 12:77 13:142 14:116 15:82 16:187 
-0.9091796875 1:64 2:24 3:27 4:58 5:25 6:30 7:14 8:36 9:34 10:19 11:20 12:26 13:49 14:32 15:39 16:71 
-0.9091796875 1:425 2:183 3:247 4:284 5:217 6:136 7:94 8:173 9:279 10:112 11:144 12:163 13:218 14:189 15:213 16:307 
-0.9091796875 1:29 2:21 3:11 4:29 5:18 6:13 7:9 8:16 9:23 10:6 11:20 12:16 13:20 14:16 15:25 16:25 
-0.9091796875 1:112 2:68 3:51 4:73 5:65 6:23 7:27 8:56 9:59 10:38 11:33 12:30 13:67 14:42 15:50 16:81 
-0.9091796875 1:566 2:224 3:249 4:383 5:279 6:138 7:88 8:201 9:286 10:124 11:128 12:123 13:291 14:220 15:196 16:346 
-0.9091796875 1:176 2:67 3:85 4:134 5:97 6:57 7:39 8:48 9:111 10:49 11:53 12:52 13:78 14:68 15:88 16:122 
-0.9091796875 1:157 2:69 3:58 4:89 5:70 6:43 7:29 8:50 9:67 10:33 11:43 12:41 13:79 14:47 15:54 16:106 
-0.9091796857105804 1:140 2:107 3:62 4:99 5:102 6:66 7:52 8:76 9:94 10:42 11:59 12:92 13:72 14:81 15:114 16:122 
-0.9091796875 1:117 2:53 3:64 4:84 5:65 6:44 7:22 8:61 9:74 10:37 11:41 12:52 13:61 14:58 15:78 16:106 
-0.9091796875 1:145 2:81 3:99 4:173 5:108 6:63 7:54 8:125 9:107 10:84 11:103 12:125 13:137 14:122 15:164 16:192 
-0.9091796875 1:186 2:66 3:86 4:123 5:90 6:39 7:24 8:50 9:96 10:42 11:62 12:51 13:89 14:56 15:79 16:102 
-0.9091796875 1:133 2:48 3:54 4:91 5:55 6:24 7:27 8:37 9:67 10:21 11:38 12:58 13:71 14:50 15:65 16:98 
-0.9091796875 1:265 2:120 3:136 4:177 5:126 6:70 7:60 8:119 9:158 10:66 11:66 12:101 13:148 14:119 15:130 16:207 
-0.9091796875 1:205 2:110 3:118 4:228 5:148 6:99 7:65 8:128 9:136 10:72 11:88 12:130 13:172 14:159 15:155 16:226 
-0.9091796875 1:144 2:63 3:66 4:84 5:81 6:43 7:25 8:58 9:55 10:45 11:38 12:45 13:76 14:56 15:55 16:74 
-0.9091796875 1:144 2:46 3:90 4:54 5:45 6:24 7:32 8:32 9:104 10:32 11:41 12:25 13:40 14:31 15:40 16:39 
-0.9091796875 1:107 2:23 3:52 4:63 5:28 6:15 7:17 8:22 9:69 10:22 11:32 12:29 13:41 14:22 15:51 16:46 
-0.9091796875 1:42 2:22 3:31 4:43 5:30 6:6 7:8 8:22 9:36 10:15 11:31 12:19 13:30 14:23 15:31 16:32 
-0.9091796875 1:135 2:75 3:97 4:113 5:86 6:53 7:40 8:65 9:109 10:59 11:56 12:65 13:90 14:57 15:96 16:104 
-0.9091796875 1:53 2:27 3:25 4:87 5:47 6:21 7:16 8:41 9:20 10:29 11:33 12:51 13:72 14:48 15:59 16:113 
-0.9091796875 1:174 2:104 3:101 4:148 5:120 6:68 7:61 8:104 9:104 10:68 11:70 12:101 13:129 14:113 15:111 16:158 
-0.9091796875 1:1839 2:796 3:958 4:1299 5:873 6:489 7:414 8:791 9:1186 10:503 11:571 12:637 13:994 14:779 15:954 16:1411 
-0.9091796875 1:159 2:72 3:75 4:167 5:106 6:52 7:54 8:85 9:84 10:63 11:66 12:108 13:123 14:110 15:127 16:254 
-0.9091796875 1:73 2:63 3:44 4:102 5:83 6:64 7:34 8:79 9:51 10:52 11:48 12:73 13:75 14:81 15:98 16:165 
-0.9091796875 1:211 2:107 3:109 4:168 5:110 6:52 7:54 8:103 9:138 10:61 11:70 12:77 13:136 14:99 15:113 16:185 
-0.9091796875 1:151 2:78 3:82 4:114 5:102 6:48 7:44 8:66 9:92 10:44 11:46 12:57 13:80 14:90 15:67 16:89 
-0.9091796875 1:87 2:37 3:50 4:38 5:37 6:15 7:12 8:25 9:54 10:14 11:23 12:25 13:34 14:23 15:31 16:31 
-0.9091796875 1:115 2:52 3:90 4:82 5:68 6:26 7:22 8:52 9:87 10:41 11:35 12:45 13:69 14:49 15:61 16:96 
-0.9091796875 1:295 2:152 3:164 4:230 5:185 6:85 7:68 8:166 9:170 10:110 11:120 12:143 13:191 14:157 15:191 16:299 
-0.9091796875 1:188 2:95 3:115 4:127 5:100 6:58 7:43 8:120 9:121 10:78 11:110 12:89 13:116 14:90 15:130 16:198 
-0.9091796875 1:155 2:43 3:86 4:88 5:65 6:40 7:34 8:39 9:94 10:49 11:48 12:44 13:58 14:46 15:67 16:52 
-0.9091796875 1:29 2:30 3:34 4:59 5:47 6:28 7:29 8:63 9:39 10:24 11:14 12:47 13:37 14:85 15:47 16:151 
-0.9091796875 1:92 2:48 3:55 4:57 5:39 6:16 7:25 8:34 9:68 10:24 11:45 12:52 13:53 14:26 15:64 16:74 
-0.9091796875 1:44 2:19 3:25 4:30 5:39 6:21 7:5 8:17 9:20 10:17 11:17 12:25 13:14 14:25 15:33 16:37 
-0.9091796875 1:363 2:167 3:225 4:305 5:200 6:105 7:83 8:155 9:255 10:121 11:135 12:154 13:241 14:150 15:223 16:298 
-0.9091796875 1:118 2:102 3:80 4:145 5:99 6:71 7:60 8:110 9:101 10:79 11:108 12:109 13:127 14:88 15:149 16:185 
-0.9091796875 1:150 2:60 3:83 4:105 5:57 6:37 7:31 8:61 9:102 10:30 11:55 12:54 13:89 14:59 15:72 16:116 
-0.9091796875 1:122 2:62 3:63 4:110 5:78 6:27 7:27 8:66 9:67 10:40 11:54 12:45 13:90 14:69 15:62 16:103 
-0.9091796875 1:123 2:49 3:60 4:80 5:53 6:35 7:31 8:38 9:72 10:31 11:22 12:54 13:64 14:42 15:66 16:79 
-0.9091796875 1:213 2:146 3:126 4:227 5:143 6:87 7:85 8:96 9:206 10:77 11:108 12:88 13:150 14:101 15:160 16:179 
-0.9091796875 1:157 2:102 3:89 4:110 5:99 6:39 7:43 8:84 9:102 10:55 11:60 12:70 13:99 14:69 15:96 16:118 
-0.9091796875 1:99 2:43 3:56 4:92 5:52 6:33 7:20 8:42 9:71 10:24 11:52 12:52 13:67 14:47 15:72 16:100 
-0.9091796875 1:238 2:149 3:145 4:205 5:162 6:103 7:85 8:130 9:188 10:95 11:133 12:112 13:148 14:133 15:166 16:212 
-0.9091796875 1:174 2:59 3:97 4:155 5:83 6:52 7:39 8:59 9:121 10:53 11:68 12:69 13:107 14:69 15:107 16:142 
-0.9091796875 1:154 2:77 3:102 4:117 5:86 6:55 7:33 8:54 9:123 10:49 11:62 12:56 13:87 14:47 15:93 16:90 
-0.9091796875 1:167 2:116 3:121 4:174 5:121 6:74 7:62 8:119 9:151 10:88 11:115 12:108 13:139 14:98 15:164 16:186 
-0.9091796875 1:61 2:25 3:35 4:24 5:26 6:17 7:7 8:20 9:34 10:8 11:18 12:14 13:23 14:20 15:15 16:18 
-0.9091796875 1:165 2:78 3:83 4:154 5:112 6:69 7:43 8:106 9:87 10:73 11:87 12:88 13:116 14:110 15:122 16:197 
-0.9091796875 1:222 2:114 3:110 4:157 5:140 6:83 7:61 8:95 9:126 10:79 11:59 12:63 13:115 14:103 15:97 16:110 
-0.9091796875 1:214 2:112 3:113 4:137 5:136 6:58 7:52 8:85 9:141 10:67 11:57 12:62 13:85 14:94 15:105 16:110 
-0.9091796875 1:294 2:93 3:146 4:187 5:117 6:63 7:43 8:93 9:160 10:74 11:90 12:90 13:149 14:86 15:135 16:183 
-0.9091796875483082 1:268 2:141 3:169 4:278 5:175 6:97 7:79 8:123 9:224 10:118 11:120 12:120 13:189 14:118 15:214 16:278 
-0.9091796875161028 1:56 2:18 3:18 4:40 5:21 6:12 7:7 8:23 9:14 10:14 11:22 12:27 13:41 14:19 15:30 16:41 
-0.9091796875161028 1:511 2:194 3:245 4:308 5:217 6:94 7:95 8:126 9:333 10:101 11:122 12:117 13:196 14:143 15:212 16:190 
-0.9091796875 1:37 2:9 3:21 4:36 5:15 6:5 7:13 8:17 9:23 10:9 11:14 12:20 13:27 14:27 15:19 16:52 
-0.9091796875 1:114 2:83 3:80 4:101 5:92 6:57 7:52 8:53 9:102 10:44 11:49 12:56 13:70 14:70 15:70 16:80 
-0.9091796875 1:163 2:61 3:120 4:94 5:77 6:31 7:26 8:41 9:121 10:44 11:67 12:59 13:77 14:39 15:78 16:84 
-0.9091796875 1:169 2:70 3:113 4:120 5:90 6:51 7:41 8:56 9:135 10:49 11:70 12:51 13:77 14:68 15:82 16:82 
-0.9091796875 1:143 2:63 3:73 4:98 5:66 6:45 7:40 8:44 9:90 10:38 11:47 12:58 13:77 14:49 15:74 16:103 
-0.9091796875 1:38 2:15 3:18 4:18 5:15 6:6 7:4 8:11 9:23 10:7 11:13 12:9 13:12 14:8 15:18 16:11 
-0.9091796875 1:103 2:43 3:56 4:84 5:58 6:27 7:31 8:39 9:73 10:43 11:49 12:48 13:52 14:42 15:77 16:77 
-0.9091796875 1:46 2:44 3:42 4:54 5:53 6:30 7:21 8:37 9:48 10:33 11:37 12:36 13:39 14:34 15:54 16:58 
-0.9091796875 1:121 2:79 3:81 4:137 5:99 6:64 7:47 8:98 9:99 10:57 11:110 12:123 13:98 14:108 15:152 16:193 
-0.9091796875 1:243 2:141 3:184 4:212 5:162 6:83 7:65 8:125 9:197 10:94 11:134 12:111 13:178 14:117 15:153 16:196 
-0.9091796875 1:69 2:37 3:50 4:58 5:35 6:21 7:14 8:30 9:63 10:17 11:39 12:25 13:47 14:25 15:41 16:59 
-0.9091796875 1:293 2:131 3:141 4:182 5:144 6:85 7:62 8:107 9:144 10:65 11:77 12:104 13:165 14:117 15:111 16:184 
-0.9091796875 1:162 2:70 3:131 4:114 5:101 6:65 7:45 8:90 9:127 10:75 11:103 12:125 13:87 14:91 15:151 16:153 
-0.9091796875 1:388 2:164 3:233 4:258 5:194 6:123 7:95 8:148 9:281 10:124 11:172 12:165 13:180 14:149 15:242 16:253 
-0.9091796875 1:161 2:74 3:89 4:179 5:96 6:63 7:57 8:90 9:102 10:81 11:82 12:86 13:143 14:88 15:124 16:187 
-0.9091796875 1:153 2:72 3:77 4:119 5:83 6:46 7:30 8:77 9:84 10:45 11:58 12:58 13:101 14:73 15:80 16:124 
-0.9091796875 1:152 2:81 3:75 4:128 5:80 6:54 7:40 8:69 9:108 10:44 11:65 12:57 13:96 14:64 15:94 16:120 
-0.9091796875 1:112 2:33 3:69 4:50 5:45 6:11 7:19 8:17 9:71 10:26 11:34 12:26 13:36 14:22 15:35 16:30 
-0.9091796875 1:82 2:40 3:49 4:77 5:49 6:37 7:25 8:50 9:46 10:40 11:39 12:50 13:71 14:44 15:62 16:96 
-0.9091796875 1:118 2:47 3:87 4:72 5:62 6:26 7:18 8:29 9:90 10:29 11:31 12:32 13:54 14:33 15:46 16:54 
-0.9091796875 1:34 2:16 3:20 4:32 5:28 6:11 7:6 8:20 9:17 10:9 11:7 12:18 13:23 14:29 15:18 16:32 
-0.9091796875 1:97 2:65 3:68 4:96 5:71 6:61 7:38 8:68 9:89 10:51 11:49 12:53 13:68 14:61 15:88 16:94 
-0.9091796875 1:258 2:90 3:149 4:155 5:122 6:63 7:52 8:85 9:148 10:81 11:81 12:103 13:123 14:88 15:131 16:161 
-0.9091796875 1:312 2:103 3:143 4:144 5:92 6:39 7:52 8:82 9:180 10:58 11:68 12:66 13:118 14:65 15:109 16:112 
-0.9091796875 1:158 2:78 3:97 4:120 5:89 6:56 7:31 8:52 9:106 10:43 11:61 12:65 13:100 14:51 15:86 16:92 
-0.9091796875 1:205 2:95 3:120 4:163 5:122 6:50 7:47 8:87 9:157 10:73 11:98 12:82 13:99 14:88 15:145 16:174 
-0.9091796875 1:80 2:30 3:42 4:70 5:40 6:37 7:20 8:36 9:56 10:27 11:40 12:29 13:45 14:39 15:51 16:62 
-0.9091796875 1:61 2:37 3:44 4:44 5:51 6:27 7:19 8:28 9:42 10:31 11:27 12:32 13:31 14:30 15:43 16:30 
-0.9091796875 1:100 2:60 3:66 4:112 5:80 6:43 7:42 8:89 9:75 10:54 11:74 12:67 13:83 14:97 15:88 16:117 
-0.9091796875 1:244 2:70 3:137 4:178 5:102 6:29 7:30 8:72 9:159 10:50 11:60 12:78 13:123 14:84 15:121 16:162 
-0.9091796875 1:38 2:21 3:22 4:33 5:24 6:10 7:9 8:31 9:15 10:18 11:18 12:18 13:37 14:25 15:20 16:64 
-0.9091796875 1:332 2:157 3:171 4:292 5:177 6:77 7:91 8:157 9:210 10:98 11:140 12:167 13:232 14:170 15:214 16:306 
-0.9091796875 1:238 2:114 3:123 4:226 5:133 6:62 7:61 8:88 9:161 10:63 11:95 12:102 13:169 14:105 15:142 16:209 
-0.9091796875 1:112 2:53 3:69 4:86 5:64 6:35 7:30 8:61 9:73 10:38 11:70 12:76 13:71 14:64 15:88 16:127 
-0.9091796875 1:152 2:63 3:77 4:82 5:82 6:62 7:29 8:62 9:81 10:51 11:49 12:60 13:59 14:59 15:86 16:110 
-0.9091796875 1:293 2:96 3:141 4:166 5:111 6:68 7:53 8:121 9:154 10:75 11:84 12:71 13:138 14:114 15:106 16:167 
-0.9091796875 1:82 2:46 3:55 4:110 5:62 6:28 7:22 8:61 9:66 10:36 11:42 12:52 13:83 14:63 15:77 16:111 
-0.9091796875 1:433 2:175 3:275 4:305 5:222 6:115 7:85 8:160 9:292 10:123 11:152 12:162 13:241 14:169 15:217 16:326 
-0.9091796875 1:215 2:86 3:98 4:146 5:106 6:37 7:31 8:61 9:118 10:42 11:81 12:78 13:106 14:70 15:109 16:111 
-0.9091796875 1:136 2:57 3:86 4:92 5:71 6:43 7:31 8:48 9:80 10:41 11:50 12:52 13:84 14:52 15:56 16:70 
-0.9091796875895717 1:260 2:115 3:151 4:166 5:133 6:82 7:49 8:106 9:169 10:60 11:87 12:108 13:130 14:113 15:137 16:213 
-0.9091796875885652 1:238 2:108 3:169 4:188 5:137 6:100 7:76 8:141 9:170 10:120 11:114 12:111 13:158 14:126 15:156 16:192 
-0.9091796875805138 1:16 2:14 3:6 4:20 5:14 6:13 7:5 8:14 9:10 10:9 11:11 12:7 13:16 14:10 15:15 16:19 
-0.909179687564411 1:77 2:29 3:38 4:66 5:41 6:14 7:13 8:33 9:45 10:27 11:14 12:32 13:46 14:31 15:53 16:50 
-0.909179687564411 1:41 2:14 3:20 4:18 5:17 6:11 7:9 8:7 9:24 10:9 11:16 12:13 13:10 14:10 15:18 16:12 
-0.909179687564411 1:144 2:66 3:92 4:96 5:71 6:37 7:32 8:58 9:105 10:48 11:81 12:70 13:78 14:47 15:99 16:99 
-0.9091796875483082 1:181 2:123 3:117 4:186 5:145 6:94 7:52 8:114 9:126 10:70 11:84 12:94 13:155 14:118 15:121 16:246 
-0.9091796875483082 1:161 2:63 3:69 4:90 5:64 6:28 7:23 8:59 9:82 10:29 11:34 12:47 13:76 14:54 15:66 16:98 
-0.9091796875483082 1:61 2:16 3:24 4:49 5:15 6:3 7:12 8:18 9:29 10:13 11:27 12:27 13:44 14:16 15:33 16:39 
-0.9091796875483082 1:304 2:124 3:161 4:232 5:161 6:86 7:51 8:103 9:199 10:64 11:89 12:86 13:156 14:127 15:137 16:176 
-0.9091796875483082 1:185 2:73 3:108 4:135 5:93 6:53 7:36 8:77 9:118 10:55 11:80 12:92 13:104 14:78 15:122 16:157 
-0.9091796875483082 1:171 2:82 3:84 4:151 5:84 6:55 7:43 8:90 9:118 10:46 11:69 12:77 13:114 14:89 15:115 16:169 
-0.9091796875161028 1:298 2:120 3:159 4:220 5:133 6:65 7:54 8:103 9:196 10:77 11:78 12:93 13:170 14:93 15:153 16:215 
-0.9091796875161028 1:128 2:76 3:99 4:129 5:101 6:66 7:44 8:106 9:96 10:64 11:107 12:121 13:106 14:111 15:139 16:182 
-0.9091796875161028 1:80 2:34 3:37 4:42 5:29 6:18 7:16 8:25 9:47 10:13 11:31 12:29 13:37 14:23 15:36 16:45 
-0.9091796875161028 1:183 2:81 3:96 4:122 5:98 6:68 7:55 8:69 9:96 10:53 11:69 12:117 13:105 14:88 15:115 16:142 
-0.9091796875161028 1:125 2:49 3:64 4:94 5:67 6:38 7:21 8:52 9:74 10:42 11:36 12:35 13:66 14:49 15:66 16:83 
-0.9091796875161028 1:35 2:21 3:24 4:27 5:22 6:13 7:17 8:18 9:29 10:16 11:13 12:13 13:21 14:20 15:17 16:20 
-0.9091796875161028 1:26 2:10 3:22 4:28 5:16 6:18 7:20 8:24 9:21 10:21 11:17 12:19 13:23 14:29 15:19 16:40 
-0.9091796875161028 1:324 2:144 3:188 4:244 5:187 6:110 7:64 8:127 9:201 10:93 11:110 12:115 13:188 14:141 15:157 16:221 
-0.9091796875161028 1:527 2:252 3:255 4:355 5:310 6:159 7:137 8:202 9:295 10:161 11:156 12:159 13:257 14:236 15:223 16:276 
-0.9091796875161028 1:35 2:16 3:18 4:30 5:19 6:10 7:7 8:14 9:27 10:12 11:15 12:16 13:17 14:12 15:31 16:29 
-0.9091796875161028 1:69 2:42 3:41 4:51 5:51 6:36 7:20 8:45 9:42 10:34 11:35 12:38 13:41 14:40 15:53 16:78 
-0.9091796875161028 1:259 2:265 3:203 4:224 5:295 6:191 7:118 8:289 9:160 10:149 11:82 12:236 13:237 14:288 15:224 16:232 
-0.9091796875 1:361 2:120 3:161 4:173 5:156 6:75 7:53 8:98 9:164 10:62 11:67 12:109 13:133 14:125 15:122 16:177 
-0.9091796875 1:146 2:41 3:93 4:69 5:54 6:38 7:22 8:37 9:91 10:31 11:41 12:45 13:58 14:41 15:52 16:75 
-0.9091796875 1:100 2:69 3:70 4:92 5:67 6:39 7:32 8:67 9:76 10:38 11:48 12:56 13:87 14:59 15:69 16:107 
-0.9091796875 1:65 2:33 3:48 4:47 5:39 6:16 7:16 8:32 9:46 10:25 11:29 12:33 13:43 14:29 15:40 16:57 
-0.9091796875 1:104 2:40 3:48 4:49 5:47 6:23 7:17 8:28 9:58 10:21 11:27 12:23 13:32 14:31 15:37 16:48 
-0.9091796875 1:167 2:80 3:88 4:189 5:111 6:55 7:52 8:89 9:110 10:74 11:88 12:103 13:136 14:98 15:147 16:227 
-0.9091796875 1:73 2:36 3:60 4:46 5:40 6:26 7:23 8:26 9:66 10:26 11:26 12:17 13:36 14:27 15:26 16:47 
-0.9091796875 1:56 2:26 3:33 4:27 5:24 6:23 7:17 8:27 9:37 10:23 11:24 12:18 13:25 14:19 15:28 16:25 
-0.9091796875 1:33 2:9 3:9 4:15 5:16 6:10 7:4 8:8 9:9 10:12 11:8 12:11 13:7 14:7 15:20 16:4 
-0.9091796875 1:75 2:68 3:39 4:75 5:66 6:39 7:38 8:76 9:53 10:32 11:42 12:51 13:63 14:80 15:59 16:55 
-0.9091796875 1:352 2:178 3:210 4:249 5:201 6:111 7:93 8:166 9:233 10:105 11:129 12:130 13:202 14:177 15:166 16:239 
-0.9091796875 1:628 2:245 3:347 4:368 5:313 6:178 7:134 8:202 9:410 10:158 11:179 12:162 13:237 14:246 15:249 16:273 
-0.9091796875 1:23 2:25 3:12 4:30 5:25 6:20 7:14 8:38 9:16 10:14 11:19 12:31 13:25 14:38 15:36 16:46 
-0.9091796875 1:155 2:65 3:94 4:116 5:89 6:55 7:40 8:70 9:87 10:54 11:54 12:54 13:98 14:80 15:62 16:115 
-0.9091796875 1:169 2:86 3:67 4:113 5:94 6:57 7:34 8:70 9:85 10:36 11:44 12:57 13:87 14:76 15:77 16:107 
-0.9091796875 1:205 2:94 3:105 4:120 5:100 6:58 7:43 8:100 9:116 10:69 11:60 12:80 13:103 14:80 15:117 16:151 
-0.9091796875 1:56 2:22 3:29 4:36 5:31 6:14 7:11 8:15 9:26 10:16 11:26 12:26 13:30 14:19 15:28 16:24 
-0.9091796875 1:205 2:71 3:96 4:157 5:79 6:37 7:44 8:66 9:122 10:40 11:65 12:83 13:123 14:78 15:105 16:159 
-0.9091796875 1:113 2:71 3:62 4:83 5:89 6:41 7:24 8:73 9:53 10:37 11:30 12:53 13:74 14:78 15:57 16:70 
-0.9091796875 1:111 2:57 3:49 4:67 5:64 6:30 7:14 8:46 9:50 10:27 11:32 12:27 13:59 14:40 15:41 16:84 
-0.9091796875 1:64 2:37 3:66 4:65 5:48 6:27 7:27 8:36 9:64 10:33 11:40 12:41 13:55 14:41 15:46 16:76 
-0.9091796875 1:105 2:48 3:60 4:106 5:77 6:30 7:25 8:47 9:60 10:40 11:57 12:56 13:77 14:61 15:71 16:100 
-0.9091796875 1:49 2:25 3:33 4:45 5:29 6:14 7:18 8:24 9:42 10:23 11:19 12:30 13:32 14:23 15:44 16:56 
-0.9091796875 1:556 2:242 3:291 4:397 5:267 6:140 7:112 8:194 9:333 10:148 11:143 12:187 13:330 14:183 15:265 16:355 
-0.9091796875 1:379 2:205 3:193 4:326 5:221 6:126 7:92 8:169 9:252 10:103 11:124 12:154 13:251 14:174 15:224 16:300 
-0.9091796875 1:101 2:76 3:60 4:84 5:86 6:53 7:35 8:74 9:68 10:53 11:76 12:65 13:65 14:66 15:92 16:143 
-0.9091796875 1:191 2:80 3:106 4:107 5:85 6:27 7:34 8:65 9:117 10:52 11:52 12:54 13:91 14:52 15:83 16:104 
-0.9091796875 1:96 2:63 3:65 4:134 5:82 6:37 7:37 8:84 9:66 10:67 11:92 12:84 13:114 14:73 15:115 16:189 
-0.9091796875 1:246 2:86 3:132 4:161 5:115 6:56 7:42 8:71 9:161 10:51 11:52 12:68 13:102 14:91 15:107 16:152 
-0.9091796875 1:480 2:166 3:230 4:303 5:180 6:84 7:97 8:160 9:282 10:101 11:131 12:142 13:237 14:170 15:198 16:293 
-0.9091796875 1:32 2:12 3:19 4:42 5:22 6:22 7:14 8:51 9:25 10:17 11:13 12:25 13:26 14:58 15:34 16:91 
-0.9091796875 1:94 2:51 3:65 4:80 5:47 6:12 7:35 8:55 9:87 10:40 11:65 12:67 13:61 14:46 15:94 16:76 
-0.9091796875 1:147 2:70 3:100 4:125 5:93 6:49 7:30 8:62 9:113 10:50 11:67 12:66 13:89 14:65 15:99 16:167 
-0.9091796875 1:97 2:35 3:44 4:74 5:47 6:19 7:15 8:32 9:50 10:18 11:40 12:37 13:56 14:41 15:46 16:71 
-0.9091796875 1:138 2:64 3:99 4:119 5:72 6:45 7:38 8:77 9:103 10:60 11:67 12:68 13:107 14:63 15:94 16:119 
-0.9091796875 1:190 2:72 3:109 4:121 5:98 6:54 7:32 8:66 9:109 10:55 11:50 12:71 13:95 14:69 15:94 16:139 
-0.9091796875 1:68 2:26 3:41 4:34 5:22 6:7 7:6 8:17 9:46 10:8 11:28 12:22 13:33 14:11 15:29 16:23 
-0.9091796875 1:199 2:102 3:102 4:176 5:109 6:52 7:54 8:94 9:134 10:50 11:76 12:105 13:137 14:105 15:133 16:192 
-0.9091796875 1:150 2:71 3:103 4:113 5:76 6:51 7:48 8:66 9:115 10:59 11:70 12:90 13:95 14:60 15:114 16:99 
-0.9091796875 1:30 2:22 3:25 4:34 5:23 6:10 7:11 8:36 9:36 10:11 11:14 12:12 13:21 14:37 15:24 16:63 
-0.9091796875 1:46 2:29 3:33 4:58 5:35 6:14 7:16 8:37 9:42 10:19 11:34 12:25 13:42 14:40 15:38 16:93 
-0.9091796875 1:108 2:56 3:75 4:95 5:66 6:48 7:41 8:51 9:90 10:42 11:61 12:78 13:70 14:60 15:94 16:121 
-0.9091796875 1:343 2:136 3:192 4:230 5:172 6:89 7:71 8:107 9:210 10:97 11:108 12:123 13:176 14:117 15:167 16:264 
-0.9091796875 1:227 2:110 3:148 4:178 5:142 6:66 7:58 8:95 9:150 10:66 11:91 12:105 13:144 14:119 15:115 16:215 
-0.9091796875 1:189 2:109 3:104 4:191 5:138 6:76 7:58 8:136 9:111 10:98 11:114 12:133 13:154 14:125 15:181 16:278 
-0.9091796875 1:117 2:58 3:68 4:68 5:64 6:49 7:33 8:57 9:74 10:39 11:48 12:56 13:56 14:57 15:68 16:99 
-0.9091796875 1:36 2:22 3:19 4:45 5:28 6:13 7:9 8:30 9:16 10:11 11:15 12:29 13:41 14:34 15:29 16:47 
-0.9091796875 1:491 2:173 3:242 4:317 5:192 6:77 7:99 8:173 9:285 10:116 11:169 12:157 13:255 14:175 15:217 16:287 
-0.9091796875 1:34 2:9 3:19 4:28 5:20 6:17 7:10 8:32 9:14 10:26 11:11 12:24 13:22 14:27 15:35 16:45 
-0.9091796875 1:57 2:28 3:38 4:50 5:31 6:15 7:11 8:25 9:39 10:19 11:23 12:37 13:46 14:20 15:46 16:51 
-0.9091796875 1:222 2:75 3:110 4:102 5:104 6:56 7:42 8:82 9:106 10:64 11:43 12:55 13:76 14:89 15:74 16:106 
-0.9091796875 1:94 2:48 3:63 4:57 5:53 6:27 7:26 8:43 9:57 10:42 11:55 12:54 13:58 14:32 15:64 16:90 
-0.9091796875 1:168 2:79 3:95 4:116 5:88 6:44 7:45 8:51 9:111 10:47 11:57 12:70 13:91 14:58 15:88 16:136 
-0.9091796875 1:330 2:158 3:183 4:247 5:189 6:104 7:84 8:152 9:222 10:109 11:95 12:156 13:176 14:158 15:221 16:289 
-0.9091796875 1:385 2:238 3:188 4:244 5:260 6:170 7:102 8:167 9:231 10:116 11:135 12:137 13:179 14:175 15:194 16:168 
-0.9091796875 1:30 2:10 3:13 4:18 5:10 6:11 7:10 8:12 9:16 10:9 11:8 12:11 13:15 14:13 15:13 16:18 
-0.9091796875 1:603 2:270 3:307 4:454 5:271 6:158 7:137 8:294 9:368 10:154 11:193 12:235 13:391 14:278 15:314 16:586 
-0.9091796875 1:26 2:23 3:18 4:21 5:30 6:20 7:17 8:26 9:14 10:27 11:13 12:15 13:18 14:23 15:21 16:26 
-0.9091796875 1:60 2:51 3:50 4:52 5:47 6:28 7:28 8:40 9:50 10:30 11:47 12:40 13:55 14:34 15:43 16:31 
-0.9091796875 1:181 2:107 3:107 4:188 5:98 6:51 7:45 8:97 9:159 10:54 11:80 12:63 13:145 14:79 15:124 16:189 
-0.9091796875 1:315 2:124 3:177 4:230 5:163 6:106 7:55 8:158 9:191 10:126 11:133 12:125 13:176 14:126 15:211 16:254 
-0.9091796875 1:134 2:55 3:68 4:91 5:77 6:47 7:25 8:56 9:73 10:50 11:54 12:45 13:64 14:53 15:75 16:109 
-0.9091796875 1:325 2:174 3:184 4:291 5:183 6:99 7:94 8:160 9:240 10:109 11:116 12:163 13:226 14:154 15:234 16:343 
-0.9091796875 1:41 2:45 3:32 4:55 5:50 6:26 7:19 8:39 9:34 10:20 11:22 12:29 13:48 14:43 15:32 16:51 
-0.9091796875 1:144 2:68 3:87 4:111 5:87 6:51 7:36 8:71 9:98 10:51 11:59 12:62 13:81 14:75 15:88 16:146 
-0.9091796875 1:219 2:83 3:131 4:104 5:96 6:51 7:34 8:73 9:133 10:50 11:72 12:93 13:89 14:70 15:111 16:136 
-0.9091796875 1:126 2:87 3:100 4:157 5:104 6:73 7:62 8:111 9:114 10:78 11:100 12:102 13:126 14:112 15:132 16:194 
-0.9091796875 1:132 2:50 3:71 4:97 5:70 6:49 7:24 8:79 9:78 10:37 11:56 12:73 13:70 14:86 15:93 16:138 
-0.9091796875 1:115 2:62 3:63 4:82 5:61 6:47 7:43 8:74 9:82 10:40 11:39 12:61 13:64 14:76 15:77 16:87 
-0.9091796875 1:46 2:18 3:31 4:34 5:25 6:17 7:13 8:27 9:36 10:23 11:33 12:20 13:22 14:24 15:35 16:46 
-0.9091796875 1:107 2:72 3:55 4:70 5:58 6:32 7:36 8:42 9:87 10:27 11:35 12:37 13:51 14:37 15:61 16:71 
-0.9091796875 1:250 2:110 3:139 4:149 5:137 6:96 7:55 8:106 9:150 10:82 11:49 12:69 13:111 14:106 15:107 16:121 
-0.9091796875 1:270 2:146 3:163 4:193 5:168 6:119 7:79 8:145 9:160 10:99 11:105 12:129 13:174 14:147 15:146 16:173 
-0.9091796875 1:311 2:103 3:205 4:148 5:108 6:80 7:78 8:98 9:218 10:75 11:126 12:127 13:130 14:106 15:137 16:171 
-0.9091796875 1:146 2:90 3:92 4:148 5:98 6:55 7:51 8:91 9:115 10:56 11:103 12:90 13:117 14:94 15:118 16:158 
-0.9091796875 1:74 2:34 3:34 4:44 5:35 6:23 7:19 8:22 9:36 10:21 11:17 12:24 13:41 14:21 15:28 16:24 
-0.9091796875 1:41 2:28 3:25 4:62 5:27 6:18 7:13 8:31 9:34 10:16 11:18 12:22 13:54 14:27 15:34 16:56 
-0.9091796875 1:119 2:70 3:59 4:79 5:83 6:49 7:22 8:85 9:68 10:58 11:46 12:59 13:57 14:62 15:104 16:109 
-0.9091796875 1:157 2:62 3:85 4:106 5:75 6:49 7:36 8:73 9:90 10:47 11:45 12:64 13:88 14:75 15:80 16:127 
-0.9091796875 1:255 2:103 3:131 4:150 5:112 6:78 7:55 8:98 9:142 10:61 11:70 12:103 13:130 14:101 15:120 16:179 
-0.9091796875 1:210 2:77 3:104 4:151 5:107 6:50 7:41 8:61 9:123 10:42 11:85 12:65 13:102 14:90 15:85 16:143 
-0.9091796875 1:222 2:102 3:118 4:138 5:119 6:62 7:46 8:96 9:129 10:76 11:61 12:63 13:110 14:83 15:104 16:117 
-0.9091796874999999 1:186 2:95 3:113 4:140 5:108 6:75 7:49 8:91 9:148 10:53 11:85 12:87 13:92 14:100 15:126 16:177 
-0.9091796875 1:625 2:250 3:287 4:368 5:325 6:208 7:134 8:240 9:303 10:152 11:148 12:187 13:277 14:297 15:221 16:342 
-0.9091796875 1:140 2:60 3:99 4:134 5:88 6:37 7:43 8:69 9:101 10:56 11:85 12:79 13:104 14:84 15:94 16:139 
-0.9091796875 1:36 2:23 3:16 4:33 5:24 6:14 7:10 8:37 9:17 10:13 11:21 12:17 13:30 14:35 15:22 16:49 
-0.9091796875 1:107 2:47 3:57 4:80 5:57 6:42 7:20 8:48 9:62 10:31 11:43 12:54 13:65 14:47 15:70 16:98 
-0.9091796875 1:38 2:21 3:30 4:49 5:41 6:17 7:12 8:27 9:22 10:30 11:28 12:28 13:37 14:29 15:38 16:68 
-0.9091796875 1:165 2:102 3:102 4:147 5:118 6:71 7:38 8:82 9:131 10:65 11:80 12:76 13:102 14:71 15:132 16:155 
-0.9091796875 1:146 2:72 3:83 4:82 5:83 6:56 7:36 8:59 9:96 10:45 11:58 12:53 13:58 14:61 15:75 16:87 
-0.9091796875 1:190 2:102 3:115 4:122 5:129 6:91 7:48 8:79 9:111 10:63 11:50 12:57 13:99 14:91 15:68 16:101 
-0.9091796875 1:250 2:251 3:176 4:239 5:276 6:151 7:90 8:248 9:116 10:124 11:88 12:166 13:274 14:239 15:140 16:246 
-0.9091796875 1:274 2:92 3:181 4:167 5:140 6:57 7:55 8:77 9:180 10:100 11:94 12:77 13:120 14:80 15:121 16:108 
-0.9091796875 1:267 2:96 3:122 4:155 5:123 6:55 7:40 8:98 9:121 10:68 11:82 12:95 13:129 14:97 15:122 16:164 
-0.9091796875 1:21 2:20 3:18 4:17 5:29 6:24 7:6 8:26 9:14 10:7 11:13 12:22 13:11 14:34 15:20 16:41 
-0.9091796875 1:151 2:88 3:77 4:116 5:84 6:59 7:51 8:75 9:95 10:51 11:73 12:63 13:102 14:71 15:81 16:110 
-0.9091796875 1:363 2:170 3:200 4:256 5:187 6:94 7:87 8:149 9:250 10:108 11:113 12:103 13:188 14:145 15:174 16:218 
-0.9091796875 1:503 2:201 3:269 4:328 5:229 6:127 7:101 8:196 9:312 10:124 11:143 12:153 13:257 14:201 15:219 16:313 
-0.9091796875 1:116 2:45 3:63 4:82 5:73 6:27 7:24 8:45 9:50 10:38 11:52 12:64 13:67 14:59 15:65 16:88 
-0.9091796875 1:216 2:123 3:119 4:181 5:142 6:86 7:65 8:134 9:121 10:99 11:93 12:106 13:159 14:119 15:143 16:218 
